svm_type c_svc
kernel_type rbf
gamma 0.5
nr_class 2
total_sv 3840
rho 0.279864
label 1 -1
nr_sv 1961 1879
SV
0.5241058082580837 2:-0.561334 3:0.179715 4:-0.91081 5:0.262752 6:-0.238726 7:-0.854762 8:-0.784388 9:0.391855 10:-0.71384 11:-0.95259 12:-0.7928 13:-0.299943 14:-0.0240169 15:-0.192468 16:-0.8652 17:-0.801859 18:-0.654597 19:-0.0292873 20:-0.0740397 21:-0.249748 22:-0.986657 23:-0.922145 24:-0.694828 25:-0.631525 26:-0.309869 27:0.0818356 28:-0.448059 29:-0.945524 30:-0.937822 31:-0.739937 32:-0.661996 33:-0.535535 34:-0.502621 35:-0.178214 36:-0.544664 37:-0.927889 38:-0.964196 39:-0.889845 40:-0.594604 41:-0.708221 42:-0.634086 43:-0.146425 44:-0.590553 45:-0.610163 46:-0.951513 47:-0.925577 48:-0.9064 49:-0.763372 50:-0.615433 51:-0.862845 52:-0.808347 53:-0.16093 54:-0.415706 55:-0.573085 56:-0.979572 57:-0.881451 58:-0.931703 59:-0.817593 60:-0.594417 61:-0.727122 62:-0.988802 63:-0.416422 64:-0.797884 65:-0.303497 66:-0.697236 67:-0.97314 68:-0.838056 69:-0.981583 70:-1 71:-1 72:-0.731973 73:1 
0.2144883348721535 2:-0.281963 3:-0.0800066 4:-0.642143 5:0.413396 6:0.00922687 7:-0.649128 8:-0.458865 9:0.489539 10:0.141765 11:-0.66566 12:-0.467199 13:-0.155792 14:0.441866 15:-0.406422 16:-0.762797 17:-0.62467 18:-0.377425 19:0.0399385 20:0.381131 21:-0.634702 22:-0.937908 23:-0.648043 24:-0.440189 25:-0.258393 26:-0.00283098 27:-0.128644 28:-0.567701 29:-0.951705 30:-0.601319 31:-0.592301 32:-0.421269 33:0.0065454 34:0.152392 35:-0.28606 36:-0.494178 37:-0.929846 38:-0.680211 39:-0.554107 40:-0.468742 41:-0.362086 42:0.00106958 43:-0.257213 44:-0.34757 45:-0.764405 46:-0.929216 47:-0.659415 48:-0.645958 49:-0.484888 50:-0.43323 51:-0.0410662 52:0.023377 53:-0.326371 54:-0.374458 55:-0.57405 56:-0.87313 57:-0.902535 58:-0.60887 59:-0.590381 60:-0.389698 61:-0.530573 62:-0.0311911 63:-0.0986121 64:-0.284215 65:-0.42496 66:-0.596967 67:-0.92078 68:-0.850746 69:-0.961631 70:-1 71:-1 72:-0.0179703 73:1 
8 2:-0.362281 3:0.13172 4:-0.876958 5:0.313759 6:-0.0247923 7:-0.994634 8:-0.347417 9:0.251807 10:-0.428692 11:-0.836735 12:-0.666174 13:-0.00901646 14:-0.143106 15:-0.526593 16:-0.975301 17:-0.883782 18:-0.28685 19:-0.0561229 20:-0.551607 21:-0.461431 22:-0.912992 23:-0.962346 24:-0.605504 25:-0.141564 26:-0.418279 27:-0.462939 28:-0.443993 29:-0.822228 30:-0.999506 31:-0.742838 32:-0.416526 33:-0.18824 34:-0.752481 35:-0.434855 36:-0.510772 37:-0.93179 38:-0.909223 39:-0.910067 40:-0.475578 41:-0.324209 42:-0.457494 43:-0.591453 44:-0.48046 45:-0.810104 46:-0.980625 47:-0.822775 48:-0.926092 49:-0.7194 50:-0.385479 51:-0.444389 52:-0.721333 53:-0.453242 54:-0.628191 55:-0.740161 56:-0.954803 57:-0.916044 58:-0.908292 59:-0.810431 60:-0.481213 61:-0.377446 62:-0.706513 63:-0.521622 64:-0.620072 65:-0.853182 66:-0.587363 67:-0.946387 68:-0.952862 69:-0.986297 70:-1 71:-1 72:-0.535895 73:1 
1.545439735247051 2:-0.952538 3:0.509198 4:-0.509026 5:-0.0942566 6:0.172801 7:-0.660134 8:-0.413783 9:0.288907 10:-0.625849 11:-0.792304 12:-0.913944 13:-0.887809 14:-0.337311 15:-0.292909 16:-0.399181 17:-0.770129 18:-0.63727 19:-0.366459 20:-0.444948 21:-0.330382 22:-0.934525 23:-0.937533 24:-0.903528 25:-0.817472 26:-0.266062 27:0.103457 28:-0.596602 29:-0.864174 30:-0.889497 31:-0.846753 32:-0.685657 33:-0.663666 34:-0.303341 35:-0.130476 36:-0.843833 37:-0.995823 38:-0.968681 39:-0.9672 40:-0.864614 41:-0.474482 42:-0.259152 43:-0.240508 44:-0.599466 45:-0.752239 46:-0.996987 47:-0.939771 48:-0.930464 49:-0.870649 50:-0.865431 51:-0.598944 52:-0.196347 53:-0.437474 54:-0.157442 55:-0.674025 56:-0.992908 57:-0.955821 58:-0.986945 59:-0.931437 60:-0.774426 61:-0.554196 62:-0.980391 63:-0.165225 64:-0.722037 65:-0.0411272 66:-0.791094 67:-0.967318 68:-0.600986 69:-0.997533 70:-1 71:-1 72:-0.71556 73:1 
3.001330484772353 2:-0.888465 3:0.626303 4:-0.706029 5:-0.356853 6:0.552008 7:-0.862413 8:-0.710196 9:0.144347 10:-0.184933 11:-0.999078 12:-0.983526 13:-0.929608 14:0.0343447 15:-0.554869 16:-0.982603 17:-0.999112 18:-0.955552 19:-0.519111 20:-0.711949 21:-0.292884 22:-0.919018 23:-0.966901 24:-0.989841 25:-0.901201 26:-0.459528 27:-0.583632 28:-0.312794 29:-0.964699 30:-0.963261 31:-0.964787 32:-0.986808 33:-0.638383 34:-0.785839 35:-0.345786 36:-0.617481 37:-0.986115 38:-0.94843 39:-0.960488 40:-0.950805 41:-0.962121 42:-0.479667 43:-0.570058 44:-0.412723 45:-0.857873 46:-0.981338 47:-0.961836 48:-0.987504 49:-0.960307 50:-0.916546 51:-0.877377 52:-0.75302 53:-0.173901 54:-0.86268 55:-0.508639 56:-0.994848 57:-0.953805 58:-0.956475 59:-0.95091 60:-0.978899 61:-0.887214 62:-0.813197 63:-0.833144 64:-0.383141 65:-0.472384 66:-0.490103 67:-0.987023 68:-0.99022 69:-0.994519 70:-1 71:-0.999508 72:0.212257 73:1 
8 2:-0.299741 3:0.153132 4:-0.967418 5:0.576759 6:0.132723 7:-0.883331 8:-0.399582 9:0.612597 10:-0.10998 11:-0.923478 12:-0.824528 13:0.10665 14:0.331782 15:-0.641133 16:-0.697647 17:-0.86252 18:-0.449469 19:0.207732 20:-0.222541 21:-0.837429 22:-0.906954 23:-0.977512 24:-0.637725 25:-0.18523 26:-0.0505568 27:-0.793266 28:-0.737583 29:-0.978426 30:-0.968825 31:-0.781764 32:-0.426791 33:-0.085836 34:-0.450795 35:-0.914059 36:-0.569084 37:-0.911878 38:-0.798298 39:-0.849492 40:-0.597265 41:-0.211528 42:-0.218196 43:-0.894818 44:-0.70621 45:-0.61939 46:-0.96521 47:-0.935074 48:-0.995919 49:-0.652147 50:-0.493046 51:-0.198958 52:-0.662555 53:-0.758439 54:-0.51841 55:-0.52672 56:-0.994865 57:-0.958011 58:-0.966589 59:-0.816138 60:-0.477905 61:-0.335282 62:-0.3803 63:-0.938453 64:-0.653062 65:-0.5845 66:-0.588052 67:-0.893846 68:-0.69 69:-0.991942 70:-1 71:-1 72:-0.548006 73:1 
2.2596014571009 2:-0.380722 3:0.145043 4:-0.78897 5:0.612473 6:-0.00129669 7:-0.822344 8:-0.599119 9:0.542028 10:-0.353127 11:-0.843616 12:-0.935834 13:-0.0369921 14:-0.0797954 15:-0.792704 16:-0.99595 17:-0.965297 18:-0.615154 19:-0.116291 20:-0.795725 21:-0.913875 22:-0.833482 23:-0.89552 24:-0.805083 25:-0.286144 26:-0.751746 27:-0.674943 28:-0.936536 29:-0.992722 30:-0.949258 31:-0.878733 32:-0.531156 33:-0.350101 34:-0.448753 35:-0.704284 36:-0.843394 37:-0.964481 38:-0.921357 39:-0.893509 40:-0.684308 41:-0.261884 42:-0.666739 43:-0.107532 44:-0.890955 45:-0.75779 46:-0.936513 47:-0.889047 48:-0.942769 49:-0.866018 50:-0.451009 51:-0.363464 52:-0.257088 53:-0.171678 54:-0.776734 55:-0.737463 56:-0.976542 57:-0.93511 58:-0.910321 59:-0.865169 60:-0.664126 61:-0.23274 62:-0.700252 63:0.0158665 64:-0.707411 65:-0.535238 66:-0.734708 67:-0.894897 68:-0.719944 69:-0.990956 70:-1 71:-0.999508 72:-0.820488 73:1 
6.237306382165642 2:-0.46723 3:0.220782 4:-0.897862 5:0.370732 6:0.122993 7:-0.79302 8:-0.497359 9:0.34942 10:-0.207852 11:-0.893908 12:-0.952457 13:0.00170663 14:-0.0860547 15:-0.527215 16:-0.526465 17:-0.915217 18:-0.553996 19:-0.0725758 20:-0.564131 21:-0.53685 22:-0.868417 23:-0.935058 24:-0.91478 25:-0.291345 26:-0.564834 27:-0.568494 28:-0.503802 29:-0.949303 30:-0.828276 31:-0.979037 32:-0.595059 33:-0.44963 34:-0.665058 35:-0.569971 36:-0.494357 37:-0.985382 38:-0.842917 39:-0.888228 40:-0.824196 41:-0.408514 42:-1 43:-0.340269 44:-0.653633 45:-0.702286 46:-0.859054 47:-0.923283 48:-0.872824 49:-0.908289 50:-0.568324 51:-0.673309 52:-0.442904 53:-0.265754 54:-0.851906 55:-0.757802 56:-0.870489 57:-0.828938 58:-0.859485 59:-0.899544 60:-0.755783 61:-0.448483 62:-0.640563 63:-0.137766 64:-0.625334 65:-0.856421 66:-0.841109 67:-0.964056 68:-0.950338 69:-0.977281 70:-1 71:-0.998525 72:-0.0240738 73:1 
3.996006546215021 2:-0.0826258 3:-0.281627 4:-0.811552 5:0.686715 6:-0.928456 7:-0.895267 8:-0.0660736 9:0.206378 10:-0.500199 11:-0.802417 12:-0.766673 13:0.342456 14:-0.663703 15:-0.568133 16:-0.671299 17:-0.850734 18:-0.244208 19:-0.102703 20:-0.746879 21:-0.662423 22:-0.946468 23:-0.755134 24:-0.675665 25:-0.0637525 26:-0.732021 27:-0.581895 28:-0.730214 29:-0.994293 30:-0.797832 31:-0.685825 32:-0.411739 33:-0.493055 34:-0.684698 35:-0.609097 36:-0.598353 37:-0.95827 38:-0.81251 39:-0.730741 40:-0.553246 41:-0.363924 42:-0.73495 43:-0.290788 44:-0.924691 45:-0.674733 46:-0.96526 47:-0.690005 48:-0.807393 49:-0.595751 50:-0.446434 51:-0.977764 52:-0.668855 53:-0.302894 54:-0.67117 55:-0.626555 56:-0.958434 57:-0.926119 58:-0.729383 59:-0.707444 60:-0.45352 61:-0.528439 62:-0.511515 63:-0.178907 64:-0.761926 65:-0.753777 66:-0.636386 67:-0.911144 68:-0.924108 69:-0.992006 70:-1 71:-0.999508 72:-0.301155 73:1 
0.1661088688944696 2:-0.166829 3:-0.429238 4:-0.683868 5:0.317262 6:-0.510953 7:-0.843419 8:-0.162662 9:-0.432627 10:0.113473 11:-0.79928 12:-0.542449 13:-0.119838 14:-0.0997459 15:-0.804374 16:-0.937778 17:-0.672782 18:-0.18904 19:-0.583625 20:-0.0739316 21:-0.394964 22:-0.94278 23:-0.722176 24:-0.493939 25:-0.455079 26:-0.183663 27:-0.857128 28:-0.654451 29:-0.984577 30:-0.791934 31:-0.481058 32:-0.446796 33:-0.655473 34:-0.380232 35:-0.38952 36:-0.402487 37:-0.7682 38:-0.980768 39:-0.629198 40:-0.376303 41:-0.700013 42:0.0882738 43:-0.724705 44:-0.826036 45:-0.538108 46:-0.645961 47:-0.833964 48:-0.697769 49:-0.423732 50:-0.622901 51:-0.642656 52:-0.397847 53:-0.525994 54:-0.280888 55:-0.570886 56:-0.729064 57:-0.79315 58:-0.826194 59:-0.510499 60:-0.358226 61:-0.968951 62:0.0110538 63:-0.702534 64:-0.92039 65:-0.56935 66:-0.366378 67:-1 69:-0.990408 70:-1 71:-1 72:-0.429233 73:1 
1.745802688893307 2:-0.170475 3:-0.275844 4:-0.876548 5:0.468297 6:-0.898123 7:-0.95171 8:-0.129605 9:-0.3414 10:-0.155626 11:-0.852235 12:-0.665852 13:0.245296 14:-0.452012 15:-0.715446 16:-0.951566 17:-0.888212 18:-0.136476 19:-0.426557 20:-0.190582 21:-0.71306 22:-0.787835 23:-0.964061 24:-0.619635 25:-0.0426142 26:-0.53104 27:-0.843403 28:-0.609971 29:-0.832964 30:-0.975672 31:-0.716322 32:-0.37439 33:-0.732024 34:-0.28601 35:-0.553689 36:-0.872604 37:-0.839086 38:-0.918724 39:-0.870088 40:-0.483148 41:-0.319102 42:-0.181055 43:-0.759768 44:-0.73054 45:-0.711721 46:-0.872764 47:-0.870006 48:-0.90568 49:-0.687491 50:-0.447844 51:-0.856669 52:-0.24336 53:-0.648118 54:-0.639306 55:-0.71344 56:-0.853133 57:-0.922377 58:-0.890128 59:-0.759109 60:-0.52355 61:-0.607017 62:-0.326353 63:-0.816865 64:-0.914223 65:-0.56606 66:-0.824465 67:-0.949927 68:-0.987422 69:-0.998307 70:-1 71:-1 72:-0.173576 73:1 
5.816819932574332 2:-0.302821 3:0.129207 4:-0.997567 5:0.524438 6:0.0365896 7:-0.871051 8:-0.34461 9:0.476822 10:-0.34334 11:-0.791806 12:-0.767227 13:0.129375 14:0.0821051 15:-0.790516 16:-0.895159 17:-0.936232 18:-0.334152 19:0.150306 20:-0.568658 21:-0.648362 22:-0.964109 23:-0.970109 24:-0.653509 25:-0.0907631 26:-0.175126 27:-0.790029 28:-0.469237 29:-0.971987 30:-0.982507 31:-0.832505 32:-0.434536 33:-0.0526235 34:-0.56806 35:-0.493458 36:-0.339228 37:-0.9686 38:-0.953068 39:-0.922314 40:-0.562672 41:-0.325952 42:-0.23142 43:-0.67959 44:-0.219794 45:-0.566083 46:-0.995252 47:-0.979906 48:-0.935271 49:-0.749427 50:-0.438955 51:-0.430402 52:-0.596718 53:-0.416689 54:-0.100462 55:-0.61005 56:-0.996076 57:-0.95764 58:-0.931068 59:-0.861428 60:-0.477775 61:-0.430997 62:-0.570051 63:-0.579913 64:-0.414765 65:-0.502533 66:-0.695866 67:-0.949505 68:-0.966174 69:-0.97739 70:-1 71:-1 72:-0.478511 73:1 
0.2624554868685921 2:-0.327639 3:0.121266 4:-0.843906 5:0.650385 6:-0.0794416 7:-0.911774 8:-0.549176 9:0.640128 10:-0.550259 11:-0.746761 12:-0.951299 13:0.152767 14:0.0563753 15:-0.724087 16:-0.678778 17:-0.799382 18:-0.704787 19:0.38725 20:-0.817595 21:-0.65828 22:-0.434205 23:-0.723187 24:-0.86157 25:-0.17112 26:0.00196015 27:-0.676511 28:-0.65487 29:-0.863344 30:-0.932915 31:-0.607905 32:-0.838328 33:0.271761 34:-0.595901 35:-0.605898 36:-0.701174 37:-0.783657 38:-0.400104 39:-0.634896 40:-0.753213 41:-0.504483 42:0.227081 43:-0.768688 44:-0.669497 45:-0.836363 46:-0.853005 47:-0.696554 48:-0.970932 49:-0.449318 50:-0.867218 51:-0.0678452 52:-0.461314 53:-0.741757 54:-0.826866 55:-0.777626 56:-0.969911 57:-0.818419 58:-0.800622 59:-0.577604 60:-0.585875 61:-0.786767 62:0.0209938 63:-0.714993 64:-0.851444 65:-0.99161 66:-0.74138 67:-0.771644 68:-0.846512 69:-0.993942 70:-1 71:-0.999017 72:-0.63243 73:1 
1.825505016188567 2:-0.120822 3:-0.360822 4:-0.892525 5:0.547189 6:-0.7718 7:-0.917588 8:-0.150452 9:-0.349791 10:-0.250679 11:-0.786452 12:-0.763757 13:0.117637 14:-0.108071 15:-0.853022 16:-0.601116 17:-0.898596 18:-0.106488 19:-0.608076 20:-0.0415475 21:-0.774118 22:-0.688642 23:-0.888871 24:-0.648148 25:-0.0706788 26:-0.0637151 27:-0.952217 28:-0.856437 29:-0.718751 30:-0.820623 31:-0.810727 32:-0.209746 33:-0.522535 34:-0.184902 35:-0.555864 36:-0.856565 37:-0.930528 38:-0.559281 39:-0.887867 40:-0.650214 41:-0.236569 42:0.177681 43:-0.814073 44:-0.808283 45:-0.904473 46:-0.94507 47:-0.68506 48:-0.79315 49:-0.723407 50:-0.44107 51:-0.341094 52:-0.326395 53:-0.388474 54:-0.601484 55:-0.909396 56:-0.788616 57:-0.981144 58:-0.761873 59:-0.826877 60:-0.546243 61:-0.509491 62:0.458273 63:-0.840632 64:-0.852571 65:-0.762633 66:-0.912097 67:-0.834135 68:-0.53125 69:-0.985612 70:-1 71:-0.999508 72:-0.306109 73:1 
1.665541309312634 2:-0.637092 3:0.279256 4:-0.886377 5:0.292439 6:0.0484735 7:-0.783684 8:-0.587946 9:0.63141 10:-0.633861 11:-0.612404 12:-0.883593 13:-0.0327568 14:0.50759 15:-0.449727 16:-0.881652 17:-0.836987 18:-0.428249 19:0.204313 20:-0.037403 21:-0.15016 22:-0.656107 23:-0.776493 24:-0.81806 25:-0.00452592 26:-0.0233316 27:-0.493213 28:0.0234822 29:-0.907071 30:-0.982582 31:-0.85705 32:-0.429477 33:0.303626 34:-0.481555 35:-0.40163 36:0.0517929 37:-0.983796 38:-0.848881 39:-0.846098 40:-0.820296 41:0.0510854 42:0.231779 43:-0.738421 44:-0.107992 45:-0.485516 46:-0.905236 47:-0.811081 48:-0.949143 49:-0.911552 50:-0.527682 51:0.424647 52:-0.427774 53:-0.549867 54:0.0820591 55:-0.706128 56:-0.999241 57:-0.928344 58:-0.965924 59:-0.909877 60:-0.760813 61:-0.138442 62:0.471305 63:-0.535348 64:-0.658966 65:-0.327628 66:-0.504975 67:-0.844904 68:-0.246754 69:-0.982995 70:-0.999711 71:-1 72:-0.551139 73:0.762797 
0.9053635871061456 2:-0.437648 3:0.0753297 4:-0.926702 5:0.383884 6:-0.361165 7:-0.955802 8:-0.540211 9:0.205127 10:-0.434704 11:-0.892136 12:-0.812043 13:-0.0904903 14:-0.335322 15:-0.0649568 16:-0.150187 17:-0.718209 18:-0.600782 19:-0.141124 20:0.15155 21:-0.108844 22:-0.672226 23:-0.964236 24:-0.525282 25:-0.531775 26:-0.315378 27:0.273862 28:-0.179587 29:-0.489039 30:-0.512817 31:-0.472971 32:-0.534811 33:-0.793279 34:0.234032 35:-0.0616147 36:-0.160967 37:-0.776486 38:-0.58545 39:-0.946787 40:-0.170721 41:-0.515642 42:-0.438649 43:0.342971 44:-0.396232 45:-0.354626 46:-0.931489 47:-0.76763 48:-0.772219 49:-0.5265 50:-0.306404 51:-0.586597 52:0.171569 53:-0.020931 54:-0.346503 55:-0.169492 56:-0.92357 57:-0.813153 58:-0.916654 59:-0.85158 60:-0.132742 61:-0.461822 62:-0.468922 63:0.351659 64:-0.78031 65:-0.256738 66:-0.217899 67:-0.967437 68:0.226994 69:-0.988695 70:-1 71:-1 72:-0.458389 73:1 
8 2:-0.244335 3:0.0164632 4:-0.980434 5:0.640988 6:-0.325895 7:-0.927513 8:-0.375382 9:0.520623 10:-0.827944 11:-0.912852 12:-0.850232 13:0.211945 14:-0.156086 15:-0.674164 16:-0.965714 17:-0.865555 18:-0.446002 19:0.26963 20:-0.700226 21:-0.810662 22:-0.984989 23:-0.898996 24:-0.723499 25:-0.0606112 26:-0.252961 27:-0.442604 28:-0.986354 29:-0.954702 30:-0.945601 31:-0.765463 32:-0.533827 33:0.100933 34:-0.773914 35:-0.58536 36:-0.874803 37:-0.952 38:-0.954355 39:-0.848461 40:-0.635246 41:-0.243261 42:-0.184369 43:-0.372468 44:-0.797666 45:-0.973141 46:-0.943777 47:-0.967086 48:-0.880892 49:-0.717026 50:-0.56961 51:-0.115389 52:-0.778583 53:-0.315925 54:-0.664771 55:-0.867162 56:-0.945971 57:-0.982858 58:-0.915438 59:-0.771383 60:-0.573621 61:-0.436478 62:-0.290048 63:-0.493523 64:-0.664375 65:-0.788206 66:-0.839348 67:-0.89973 68:-0.889168 69:-1 70:-1 71:-1 72:-0.204984 73:1 
1.416784865120499 2:-0.627426 3:0.327061 4:-0.769594 5:0.28989 6:0.205684 7:-0.962692 8:-0.891208 9:0.535852 10:-0.36659 11:-0.982401 12:-0.925386 13:-0.418405 14:0.243991 15:-0.866907 16:-0.57853 17:-0.854377 18:-0.787209 19:-0.147828 20:-0.522016 21:-0.6741 22:-0.951923 23:-0.967747 24:-0.738308 25:-0.600198 26:-0.284241 27:-0.793628 28:-0.692695 29:-0.806065 30:-0.842794 31:-0.8249 32:-0.678968 33:-0.462132 34:-0.717831 35:-0.568293 36:-0.840162 37:-0.977224 38:-0.952077 39:-0.991217 40:-0.667591 41:-0.579176 42:-0.53259 43:-0.769336 44:-0.603623 45:-0.744076 46:-0.959906 47:-0.916548 48:-0.947134 49:-0.805284 50:-0.63853 51:-0.565247 52:-0.905474 53:-0.465936 54:-0.905002 55:-0.487075 56:-0.998916 57:-0.98611 58:-0.990469 59:-0.949814 60:-0.622705 61:-0.592022 62:-0.719955 63:-0.769545 64:-0.621829 65:-0.529814 66:-0.50553 67:-0.85876 68:-0.946778 69:-1 70:-1 71:-0.999017 72:-0.72541 73:1 
8 2:-0.434975 3:0.161429 4:-0.847614 5:0.502961 6:-0.107371 7:-0.803812 8:-0.539266 9:0.534533 10:-0.627252 11:-0.721305 12:-0.879231 13:-0.0428572 14:0.022669 15:-0.544909 16:-0.963673 17:-0.925931 18:-0.427671 19:0.000984097 20:-0.631003 21:-0.552122 22:-0.646797 23:-0.799498 24:-0.757883 25:-0.179956 26:-0.376125 27:-0.320733 28:-0.675931 29:-0.950397 30:-0.948909 31:-0.928541 32:-0.461692 33:-0.17519 34:-0.924032 35:-0.231191 36:-0.841225 37:-0.847515 38:-0.690559 39:-0.875051 40:-0.721905 41:-0.321589 42:-0.421073 43:-0.441171 44:-0.301578 45:-0.895939 46:-0.979918 47:-0.870169 48:-0.879469 49:-0.908773 50:-0.511651 51:-0.437571 52:-0.906234 53:-0.155228 54:-0.583725 55:-0.777282 56:-0.916185 57:-0.678593 58:-0.900574 59:-0.982473 60:-0.713922 61:-0.542821 62:-0.647707 63:-0.721017 64:-0.450812 65:-0.912646 66:-0.760252 67:-0.845408 68:-0.7767 69:-0.984013 70:-1 71:-0.999017 72:-0.445311 73:0.883976 
0.4440795500480956 2:-0.86425 3:0.38917 4:-0.881604 5:-0.218601 6:0.117305 7:-0.920543 8:-0.714438 9:0.294666 10:-0.810255 11:-0.542102 12:-0.602835 13:-0.727981 14:0.365062 15:-0.0104954 16:-0.602753 17:-0.883643 18:-0.45421 19:-0.57313 20:-0.132417 21:0.369199 22:-0.991556 23:-0.894924 24:-0.527315 25:-0.637124 26:-0.606316 27:-0.390756 28:0.600731 29:-0.802049 30:-0.828099 31:-0.826116 32:-0.387707 33:-0.71769 34:-0.795826 35:-0.188006 36:0.757919 37:-0.951828 38:-0.878544 39:-0.951022 40:-0.612613 41:-0.438127 42:-0.669485 43:-0.297512 44:-0.0116332 45:0.137851 46:-0.946072 47:-0.899557 48:-0.943653 49:-0.717115 50:-0.614988 51:-0.565088 52:-0.813865 53:0.204832 54:-0.159082 55:0.135912 56:-0.975567 57:-0.838227 58:-0.866171 59:-0.818805 60:-0.516967 61:-0.724903 62:-0.575167 63:-0.611937 64:0.0303365 65:-0.680837 66:-0.071074 67:-0.915077 68:1 69:-0.982414 70:-1 71:-1 72:-0.602507 73:1 
0.2305221152114662 2:-0.588543 3:0.289983 4:-0.871984 5:-0.0314041 6:0.260796 7:-0.774996 8:-0.626585 9:0.0706252 10:-0.0449524 11:-0.765163 12:-0.522736 13:-0.495843 14:-0.228241 15:-0.427313 16:-0.946519 17:-0.817637 18:-0.160296 19:-0.347979 20:-0.80266 21:-0.490433 22:-0.714982 23:-0.966837 24:-0.547348 25:-0.10796 26:-0.313636 27:-0.423774 28:-0.516582 29:-0.625719 30:-0.866389 31:-0.726365 32:-0.320304 33:-0.322955 34:-0.393178 35:-0.196789 36:-0.589844 37:-0.77647 38:-0.898772 39:-0.829099 40:-0.50217 41:-0.110472 42:-0.627667 43:-0.278157 44:-0.0121448 45:-0.785495 46:-0.993613 47:-0.532984 48:-0.981425 49:-0.68609 50:-0.489742 51:-0.288177 52:-0.922723 53:0.00512254 54:0.0215664 55:-0.73865 56:-0.876348 57:-0.866662 58:-0.875319 59:-0.835065 60:-0.57578 61:-0.387032 62:-0.730591 63:-0.45337 64:-0.218442 65:-0.372021 66:-0.707144 67:-0.861236 68:1 69:-0.989991 70:-1 71:-1 72:-0.667297 73:1 
0.3190747445089631 2:-0.78545 3:0.371098 4:-0.773539 5:0.057385 6:0.11026 7:-0.955393 8:-0.907945 9:0.280425 10:-0.508182 11:-0.934697 12:-0.97731 13:-0.448985 14:-0.11274 15:-0.252246 16:-0.961093 17:-0.959323 18:-0.781644 19:-0.261735 20:-0.657342 21:-0.190692 22:-0.964082 23:-0.987445 24:-0.936479 25:-0.558751 26:-0.550538 27:-0.365025 28:-0.356178 29:-0.9754 30:-0.97297 31:-0.98725 32:-0.776288 33:-0.451589 34:-0.798584 35:-0.366548 36:-0.733976 37:-0.967025 38:-0.921061 39:-0.977503 40:-0.913708 41:-0.608509 42:-0.620247 43:-0.397797 44:-0.556092 45:-0.848117 46:-0.985011 47:-0.960622 48:-0.969716 49:-0.925684 50:-0.791766 51:-0.639696 52:-0.846542 53:-0.374361 54:-0.677519 55:-0.585597 56:-0.999322 57:-0.964341 58:-0.963821 59:-0.95866 60:-0.859783 61:-0.65148 62:-0.893985 63:-0.529849 64:-0.858147 65:-0.59043 66:-0.652765 67:-0.992397 68:-0.99427 69:-0.984986 70:-1 71:-0.999508 72:-0.124058 73:1 
0.1530570854815013 2:-0.477393 3:0.123749 4:-0.919716 5:0.195141 6:-0.235663 7:-0.753395 8:-0.661495 9:0.212054 10:-0.949281 11:-0.841207 12:-0.660218 13:-0.437053 14:-0.372407 15:-0.616408 16:-0.634638 17:-0.664249 18:-0.517717 19:-0.391963 20:-0.66581 21:-0.627149 22:-0.880594 23:-0.895434 24:-0.551587 25:-0.513927 26:-0.646335 27:-0.490315 28:-0.882436 29:-0.626977 30:-0.92339 31:-0.577959 32:-0.522342 33:-0.617992 34:-0.501613 35:-0.64237 36:-0.37615 37:-0.722077 38:-0.858222 39:-0.818439 40:-0.50681 41:-0.501185 42:-0.779913 43:-0.365878 44:-0.765799 45:-0.315535 46:-0.703126 47:-0.902361 48:-0.865549 49:-0.539107 50:-0.652294 51:-0.734417 52:-0.669133 53:-0.730156 54:-0.138441 55:-0.518741 56:-0.673579 57:-0.761314 58:-0.891929 59:-0.736395 60:-0.330907 61:-0.655406 62:-0.887923 63:-0.433628 64:-0.632659 65:0.111376 66:-0.928306 67:-0.684691 68:0.366336 69:-0.996803 70:-1 71:-0.999508 72:-0.633656 73:1 
0.7692650316466916 2:-0.31687 3:-0.208973 4:-0.847885 5:0.681375 6:-0.428016 7:-0.860507 8:-0.484967 9:0.256184 10:-0.70433 11:-0.745427 12:-0.886377 13:0.116563 14:-0.318201 15:-0.726307 16:-0.83114 17:-0.903614 18:-0.619044 19:-0.146702 20:-0.248631 21:-0.772294 22:-0.891893 23:-0.838608 24:-0.856871 25:-0.366732 26:-0.610314 27:-0.531768 28:-0.896521 29:-0.963687 30:-0.957969 31:-0.759937 32:-0.621885 33:-0.630592 34:-0.345045 35:-0.784801 36:-0.922951 37:-0.924041 38:-0.944567 39:-0.884076 40:-0.740181 41:-0.473575 42:-0.729978 43:-0.592737 44:-0.791303 45:-0.884746 46:-0.990452 47:-0.876426 48:-0.931522 49:-0.763993 50:-0.629384 51:-0.578591 52:-0.496452 53:-0.868365 54:-0.70246 55:-0.946563 56:-0.967744 57:-0.954926 58:-0.874621 59:-0.865897 60:-0.701852 61:-0.55615 62:-0.509536 63:-0.817803 64:-0.671625 65:-0.904934 66:-0.929859 67:-0.996571 68:-0.994832 69:-0.988695 70:-1 71:-0.999508 72:-0.51127 73:1 
0.1049896766584742 2:-0.957518 3:0.431657 4:-0.786663 5:-0.45169 6:0.101836 7:-0.659195 8:-0.847709 9:0.175047 10:-0.414506 11:-0.824106 12:-0.543617 13:-0.940754 14:0.430745 15:0.336756 16:-0.756058 17:-0.85417 18:-0.554343 19:-0.691406 20:0.0727512 21:0.336103 22:-0.871257 23:-0.885795 24:-0.584056 25:-0.832069 26:-0.359531 27:-0.135513 28:0.00241918 29:-0.906282 30:-0.741923 31:-0.873728 32:-0.432905 33:-0.885503 34:-0.324169 35:-0.0204542 36:-0.215821 37:-0.991368 38:-0.788854 39:-0.80662 40:-0.750472 41:-0.482684 42:-0.713126 43:-0.769197 44:-0.029834 45:-0.247128 46:-0.95643 47:-0.871383 48:-0.775272 49:-0.829403 50:-0.56966 51:-0.656287 52:-0.635266 53:-0.577655 54:-0.389373 55:-0.187664 56:-0.992604 57:-0.82277 58:-0.836562 59:-0.739374 60:-0.810727 61:-0.435387 62:-0.602416 63:-0.670553 64:-0.410391 65:-0.496135 66:-0.572367 67:-1 68:-0.960784 69:-0.985079 70:-1 71:-1 72:-0.574365 73:1 
4.01964974299872 2:-0.537601 3:0.186222 4:-0.830633 5:0.101369 6:-0.0365922 7:-0.907647 8:-0.384174 9:0.255313 10:-0.211317 11:-0.959842 12:-0.752644 13:-0.136352 14:-0.040122 15:0.0762976 16:-0.897841 17:-0.898419 18:-0.378452 19:-0.030052 20:-0.639207 21:-0.0715506 22:-0.707558 23:-0.963759 24:-0.650952 25:-0.318298 26:-0.173433 27:-0.629446 28:-0.355802 29:-0.83542 30:-0.975924 31:-0.826029 32:-0.421828 33:-0.34618 34:-0.542413 35:-0.314921 36:-0.525232 37:-0.794455 38:-0.953283 39:-0.914152 40:-0.645095 41:-0.31624 42:-0.431142 43:-0.7507 44:-0.349035 45:-0.226775 46:-0.868616 47:-0.892653 48:-0.953037 49:-0.718042 50:-0.543364 51:-0.458384 52:-0.838465 53:-0.397943 54:-0.517845 55:-0.0448501 56:-0.789265 57:-0.809982 58:-0.896831 59:-0.898752 60:-0.550163 61:-0.450929 62:-0.538974 63:-0.808209 64:-0.466672 65:-0.849947 66:-0.273948 67:-1 68:-1 69:-0.942446 70:-1 71:-1 72:-0.494962 73:1 
1.634560561192292 2:0.0135007 3:-0.238354 4:-0.713577 5:0.678629 6:-0.626298 7:-0.884124 8:-0.0892921 9:0.200223 10:-0.838049 11:-0.751162 12:-0.582854 13:0.189932 14:-0.614345 15:-0.862612 16:-0.898162 17:-0.592993 18:-0.282517 19:-0.282565 20:-0.768402 21:-0.854698 22:-0.766324 23:-0.661226 24:-0.398824 25:-0.24946 26:-0.654525 27:-0.601882 28:-0.97249 29:-0.988617 30:-0.851186 31:-0.42833 32:-0.351973 33:-0.730402 34:-0.180996 35:-0.584144 36:-0.879362 37:-0.915412 38:-0.876055 39:-0.638541 40:-0.259451 41:-0.397471 42:-0.192885 43:-0.11035 44:-0.740117 45:-0.93041 46:-0.95934 47:-0.828853 48:-0.732608 49:-0.434563 50:-0.36915 51:-0.920436 52:0.14916 53:-0.0959541 54:-0.708152 55:-0.948775 56:-0.973891 57:-0.830178 58:-0.718713 59:-0.599924 60:-0.271098 61:-0.500097 62:-0.0904269 63:0.124138 64:-0.5607 65:-0.831255 66:-0.919315 67:-0.924567 68:-0.62274 69:-0.998356 70:-1 71:-1 72:-0.499389 73:1 
7.706065849987629 2:-0.409145 3:0.129043 4:-0.912426 5:0.516106 6:-0.180507 7:-0.921706 8:-0.555528 9:0.672596 10:-0.859445 11:-0.840999 12:-0.880451 13:-0.000786872 14:0.275584 15:-0.712134 16:-0.817325 17:-0.928423 18:-0.534763 19:0.246628 20:-0.537774 21:-0.710489 22:-0.976318 23:-0.888028 24:-0.80712 25:-0.298294 26:-0.00141313 27:-0.871826 28:-0.655283 29:-0.942484 30:-0.902596 31:-0.834677 32:-0.534265 33:-0.10306 34:-0.599846 35:-0.865881 36:-0.431126 37:-0.863498 38:-0.960875 39:-0.862113 40:-0.775804 41:-0.346976 42:-0.0354153 43:-0.674449 44:-0.742932 45:-0.526812 46:-0.926971 47:-0.892523 48:-0.920197 49:-0.800947 50:-0.592444 51:-0.311552 52:-0.486647 53:-0.41294 54:-0.205758 55:-0.536176 56:-0.955938 57:-0.831585 58:-0.974865 59:-0.803077 60:-0.732174 61:-0.452941 62:-0.167657 63:-0.672903 64:-0.596886 65:-0.183014 66:-0.730597 67:-0.733755 68:-0.45631 69:-0.99564 70:-1 71:-0.999017 72:-0.632334 73:1 
5.52795553784485 2:-0.357803 3:0.0622657 4:-0.625272 5:0.221776 6:0.0742548 7:-0.71471 8:-0.409302 9:0.394016 10:0.192176 11:-0.775375 12:-0.463279 13:-0.231654 14:0.318863 15:-0.106466 16:-0.933165 17:-0.665514 18:-0.299291 19:-0.00547968 20:0.1033 21:-0.429641 22:-0.939261 23:-0.633352 24:-0.48894 25:-0.297818 26:0.00109404 27:-0.132307 28:-0.44986 29:-0.868737 30:-0.729391 31:-0.553149 32:-0.3856 33:-0.0772338 34:-0.137388 35:-0.327124 36:-0.322282 37:-0.9806 38:-0.603765 39:-0.615579 40:-0.455866 41:-0.377491 42:0.151275 43:-0.310836 44:-0.22847 45:-0.286365 46:-0.993815 47:-0.857043 48:-0.650266 49:-0.527608 50:-0.346187 51:-0.333837 52:-0.145457 53:-0.444168 54:-0.197932 55:-0.505348 56:-0.930504 57:-0.895669 58:-0.634099 59:-0.57046 60:-0.485345 61:-0.251684 62:-0.0745725 63:-0.248769 64:-0.609597 65:-0.16509 66:-0.456673 67:-1 68:-1 69:-0.788969 70:-1 71:-1 72:-0.769418 73:1 
1.121564204405247 2:-0.606307 3:0.288279 4:-0.800127 5:0.252984 6:0.121757 7:-0.631332 8:-0.872736 9:0.442647 10:-0.504837 11:-0.436417 12:-0.928754 13:-0.613138 14:-0.0567988 15:-0.813333 16:-0.53663 17:-0.555414 18:-0.914051 19:-0.379395 20:-0.816201 21:-0.600962 22:-0.902362 23:-0.86415 24:-0.645157 25:-0.739192 26:-0.646942 27:-0.260263 28:-0.561304 29:-0.625218 30:-0.980541 31:-0.681683 32:-0.806674 33:-0.544351 34:-0.417156 35:-0.107383 36:-0.590798 37:-0.850164 38:-0.405891 39:-0.911187 40:-0.650232 41:-0.780234 42:-0.693666 43:0.0840163 44:-0.0830079 45:-0.735114 46:-0.947034 47:-0.689421 48:-0.804991 49:-0.797767 50:-0.780898 51:-0.628243 52:-0.783104 53:0.283857 54:-0.206014 55:-0.697076 56:-0.885542 57:-0.797537 58:-0.667287 59:-0.859579 60:-0.715748 61:-0.815782 62:-0.470269 63:-0.337457 64:-0.185591 65:-0.389032 66:-0.809411 67:-0.936122 68:-0.628008 69:-0.989843 70:-1 71:-0.999508 72:-0.795873 73:1 
0.1200877273892924 2:-0.970797 3:0.573207 4:-0.580063 5:-0.147628 6:0.488177 7:-0.66512 8:-0.495544 9:0.243662 10:-0.126584 11:-0.895523 12:-0.974454 13:-0.881757 14:-0.253589 15:-0.489404 16:-0.355465 17:-0.773632 18:-0.841908 19:-0.508617 20:-0.55472 21:-0.273259 22:-0.92523 23:-0.924388 24:-0.857584 25:-0.92174 26:-0.499466 27:0.279655 28:-0.149666 29:-0.836347 30:-0.880301 31:-0.88701 32:-0.965262 33:-0.427881 34:-0.361595 35:0.480856 36:-0.142283 37:-0.998978 38:-0.990128 39:-0.985146 40:-0.879293 41:-0.971203 42:-0.165587 43:0.172882 44:0.507063 45:-0.536665 46:-0.988148 47:-0.990755 48:-0.949257 49:-0.862394 50:-0.912034 51:-0.6421 52:-0.497844 53:0.444026 54:0.0268732 55:-0.652746 56:-0.998934 57:-0.973747 58:-0.973457 59:-0.996251 60:-0.80448 61:-0.892468 62:-0.36558 63:-0.324138 64:-0.172663 65:-0.819964 66:-0.815763 67:-0.966758 68:-0.966598 69:-0.995504 70:-1 71:-1 72:-0.623308 73:1 
1.757288589680888 2:-0.464758 3:0.0654431 4:-0.88771 5:0.409118 6:-0.48537 7:-0.923916 8:-0.684119 9:0.34655 10:-0.522762 11:-0.833605 12:-0.833358 13:-0.0788292 14:-0.192221 15:-0.213773 16:-0.935319 17:-0.812968 18:-0.695175 19:0.0198309 20:0.0613533 21:-0.417721 22:-0.979759 23:-0.865426 24:-0.751898 25:-0.564984 26:-0.476785 27:-0.0161518 28:-0.593205 29:-0.982437 30:-0.915283 31:-0.714137 32:-0.725463 33:-0.511734 34:-0.200645 35:-0.497602 36:-0.545535 37:-0.936984 38:-0.961847 39:-0.864755 40:-0.651382 41:-0.736066 42:-0.897634 43:-0.1058 44:-0.642256 45:-0.662203 46:-0.921494 47:-0.93409 48:-0.895761 49:-0.714363 50:-0.756135 51:-0.760069 52:-0.408605 53:-0.595033 54:-0.26891 55:-0.671062 56:-0.98517 57:-0.85363 58:-0.911161 59:-0.825816 60:-0.584671 61:-0.931745 62:-0.916284 63:-0.279284 64:-0.710094 65:-0.556562 66:-0.677223 67:-0.978512 68:-0.838056 69:-0.979616 70:-1 71:-1 72:-0.731216 73:1 
0.02810736788882203 2:-0.34566 3:-0.103631 4:-0.796663 5:0.251163 6:-0.917299 7:-0.909493 8:-0.309429 9:-0.0559315 10:0.138231 11:-0.951119 12:-0.622199 13:-0.00707403 14:-0.831339 15:-0.0566453 16:-0.946493 17:-0.7793 18:-0.332854 19:-0.23679 20:-0.0830572 21:-0.838909 22:-0.892991 23:-0.908631 24:-0.520958 25:-0.28654 26:-0.707777 27:-0.270951 28:-0.297445 29:-0.698995 30:-0.970267 31:-0.643445 32:-0.425963 33:-0.52605 34:-0.03657 35:-0.82826 36:-0.127368 37:-0.77918 38:-0.930057 39:-0.819619 40:-0.428296 41:-0.457642 42:-0.745995 43:-0.0191241 44:-0.331115 45:-0.879736 46:-0.781452 47:-0.943104 48:-0.864903 49:-0.62678 50:-0.466745 51:-0.733289 52:-0.148424 53:-0.586851 54:-0.303061 55:-0.242018 56:-0.753422 57:-0.830107 58:-0.891352 59:-0.687517 60:-0.467076 61:-0.639798 62:-0.678855 63:-0.014991 64:-0.666768 65:-0.85301 66:-0.213621 67:-0.887549 68:-0.711864 69:-0.995456 70:-1 71:-1 72:-0.0964055 73:1 
2.578504033343931 2:-0.291622 3:0.107521 4:-0.867404 5:0.40679 6:-0.0104727 7:-0.975563 8:-0.27218 9:0.336343 10:-0.418151 11:-0.885488 12:-0.67511 13:0.113256 14:-0.0254962 15:-0.575815 16:-0.595162 17:-0.768545 18:-0.30163 19:0.0851423 20:-0.622536 21:-0.400312 22:-0.905512 23:-0.939778 24:-0.5278 25:-0.0766183 26:-0.281817 27:-0.773693 28:-0.267232 29:-0.978605 30:-0.99755 31:-0.680104 32:-0.372925 33:-0.0228777 34:-0.762035 35:-0.549681 36:-0.210121 37:-0.97624 38:-0.94549 39:-0.815125 40:-0.488565 41:-0.191011 42:-0.237313 43:-0.690509 44:-0.415815 45:-0.498175 46:-0.975453 47:-0.91339 48:-0.870553 49:-0.588566 50:-0.473284 51:-0.16132 52:-0.77392 53:-0.416542 54:-0.517812 55:-0.379019 56:-0.980961 57:-0.913805 58:-0.912875 59:-0.71179 60:-0.409385 61:-0.411864 62:-0.32307 63:-0.760199 64:-0.540637 65:-0.88388 66:-0.299859 67:-0.853813 68:-0.644068 69:-0.982995 70:-1 71:-1 72:-0.660063 73:1 
0.8053218250700269 2:-0.770617 3:0.194494 4:-0.40566 5:0.528736 6:-0.428496 7:-0.867704 8:-0.768537 9:0.699141 10:-0.771969 11:-0.0795764 12:-0.364916 13:-0.152195 14:-0.215167 15:-0.772809 16:-0.741918 17:-0.904224 18:-0.334552 19:0.192253 20:-0.377742 21:-0.642656 22:-0.121446 23:-0.520051 24:-0.56721 25:-0.916442 26:-0.508254 27:-0.407545 28:-0.616183 29:-0.951607 30:-0.876499 31:-0.687414 32:-0.402502 33:-0.470982 34:-0.273809 35:-0.556862 36:-0.574568 37:-0.569384 38:-0.197117 39:-0.731384 40:-0.868159 41:-0.758833 42:-0.85126 43:-0.172148 44:-0.744063 45:-0.689613 46:-0.950023 47:-0.780569 48:-0.797695 49:-0.660363 50:-0.68635 51:-0.664776 52:-0.204456 53:-0.304715 54:-0.421751 55:-0.758032 56:-0.810211 57:-0.251518 58:-0.72629 59:-0.876179 60:-0.819118 61:-0.800155 62:-0.829666 63:-0.0934941 64:-0.908903 65:-0.430147 66:-0.863206 67:-1 68:-0.980646 69:-0.994046 70:-1 71:-1 72:-0.594918 73:1 
0.2260968521146434 2:-0.37348 3:0.10831 4:-0.656687 5:0.752063 6:-0.245912 7:-0.451489 8:-0.424294 9:0.60133 10:-0.728044 11:-0.693925 12:-0.622415 13:0.360272 14:-0.172984 15:-0.459268 16:-0.336828 17:-0.718509 18:-0.533833 19:0.098726 20:-0.718119 21:-0.438455 22:-0.920211 23:-0.88166 24:-0.752627 25:0.0948727 26:-0.768852 27:-0.350874 28:-0.486803 29:-0.748714 30:-0.783609 31:-0.675179 32:-0.506097 33:-0.0865997 34:-0.0849539 35:-0.343477 36:-0.48399 37:-0.941094 38:-0.835086 39:-0.949709 40:-0.782115 41:0.0671989 42:-0.909267 43:0.215129 44:-0.452178 45:-0.572078 46:-0.955068 47:-0.794632 48:-0.811956 49:-0.66913 50:-0.576927 51:-0.202892 52:0.0102244 53:0.0422853 54:-0.727448 55:-0.414458 56:-0.974016 57:-0.796048 58:-0.878359 59:-0.926526 60:-0.662089 61:0.0451234 62:-0.803642 63:0.354713 64:-0.628233 65:-0.749789 66:-0.441617 67:-0.943534 68:-0.838298 69:-0.998692 70:-1 71:-0.999508 72:0.0971624 73:1 
4.61066655114109 2:-0.325045 3:0.126011 4:-0.960764 5:0.470995 6:-0.00879209 7:-0.916455 8:-0.496307 9:0.536123 10:-0.42143 11:-0.898943 12:-0.745512 13:-0.0723076 14:0.203771 15:-0.763866 16:-0.987694 17:-0.800661 18:-0.465556 19:0.0635656 20:-0.372657 21:-0.796891 22:-0.804859 23:-0.937704 24:-0.60275 25:-0.280003 26:-0.161278 27:-0.493472 28:-0.852426 29:-0.871577 30:-0.871612 31:-0.792978 32:-0.430353 33:-0.183011 34:-0.544094 35:-0.438717 36:-0.91225 37:-0.896586 38:-0.542342 39:-0.912714 40:-0.574332 41:-0.283732 42:-0.2627 43:-0.469048 44:-0.489227 45:-0.938171 46:-0.992053 47:-0.805564 48:-0.783424 49:-0.824689 50:-0.446502 51:-0.309861 52:-0.715948 53:-0.149311 54:-0.71501 55:-0.858428 56:-0.946008 57:-0.984237 58:-0.747991 59:-0.782455 60:-0.631331 61:-0.337514 62:-0.465493 63:-0.812904 64:-0.365987 65:-0.751891 66:-0.766416 67:-0.870893 68:-0.61081 69:-0.999222 70:-1 71:-1 72:-0.661568 73:1 
8 2:-0.495201 3:0.130141 4:-0.783732 5:0.468231 6:-0.234018 7:-0.905268 8:-0.700284 9:0.40281 10:-0.714871 11:-0.93359 12:-0.944417 13:-0.107503 14:-0.261256 15:-0.464812 16:-0.9579 17:-0.993683 18:-0.689202 19:-0.0503474 20:-0.354825 21:-0.568927 22:-0.979052 23:-0.979205 24:-0.830458 25:-0.439589 26:-0.585387 27:-0.181496 28:-0.775735 29:-0.865312 30:-0.956206 31:-0.936264 32:-0.678458 33:-0.459696 34:-0.667268 35:-0.417385 36:-0.966385 37:-0.986367 38:-0.93803 39:-0.955229 40:-0.749028 41:-0.548359 42:-0.739788 43:-0.354632 44:-0.80938 45:-0.785402 46:-0.954813 47:-0.869047 48:-0.946373 49:-0.907266 50:-0.651088 51:-0.682669 52:-0.546888 53:-0.419701 54:-0.759254 55:-0.847227 56:-0.999913 57:-0.991269 58:-0.990738 59:-0.892676 60:-0.736901 61:-0.643332 62:-0.769525 63:-0.46205 64:-0.808306 65:-0.644013 66:-0.946925 67:-1 68:-1 69:-0.982291 70:-1 71:-0.999508 72:-0.312883 73:1 
0.1561817397177671 2:-0.945071 3:0.542444 4:-0.574746 5:-0.157641 6:0.284006 7:-0.742066 8:-0.536424 9:0.257084 10:-0.566279 11:-0.977989 12:-0.958248 13:-0.885646 14:-0.173439 15:-0.207153 16:-0.801317 17:-0.898332 18:-0.757162 19:-0.388894 20:-0.264128 21:0.000459115 22:-0.797524 23:-0.912311 24:-0.91008 25:-0.631289 26:-0.427416 27:0.280066 28:-0.0149867 29:-0.89827 30:-0.882756 31:-0.870103 32:-0.91359 33:-0.269153 34:-0.66894 35:0.238266 36:-0.185522 37:-0.942551 38:-0.875344 39:-0.917988 40:-0.821778 41:-0.787833 42:-0.0244174 43:-0.227279 44:-0.047587 45:-0.641822 46:-0.958167 47:-0.884797 48:-0.937923 49:-0.931486 50:-0.971304 51:-0.648846 52:-0.376683 53:-0.13965 54:-0.590112 55:-0.701031 56:-0.9918 57:-0.942985 58:-0.953574 59:-0.930712 60:-0.823641 61:-0.749434 62:-0.458307 63:-0.45004 64:-0.754047 65:-0.437341 66:-0.691207 67:-0.987798 68:-0.988506 69:-0.992574 70:-1 71:-0.999508 72:0.0151342 73:1 
0.2228696186689508 2:-0.816569 3:0.109662 4:-0.956719 5:-0.104591 6:-0.181318 7:-0.414385 8:-0.8261 9:-0.0233926 10:-0.47121 11:-0.933334 12:-0.503636 13:-0.678133 14:-0.201553 15:-0.109184 16:-0.714419 17:-0.664487 18:-0.780371 19:-0.328897 20:0.486499 21:-0.221585 22:-0.3757 23:-0.911374 24:-0.495034 25:-0.616227 26:-0.364016 27:0.638184 28:-0.402579 29:-0.973331 30:-0.722897 31:-0.75794 32:-0.766195 33:-0.257641 34:-0.268114 35:0.374256 36:-0.332143 37:-0.981758 38:-0.619682 39:-0.840892 40:-0.454932 41:-0.670538 42:0.133423 43:-0.121972 44:-0.0950542 45:-0.443684 46:-0.578362 47:-0.621268 48:-0.771975 49:-0.772684 50:-0.603671 51:-0.486669 52:-0.853105 53:-0.113266 54:-0.247905 55:-0.856673 56:-0.812345 57:-0.779044 58:-0.714105 59:-0.847779 60:-0.328941 61:-0.506843 62:-0.204172 63:-0.509546 64:-0.776926 65:-0.36062 66:-0.991461 67:-0.860323 68:0.789474 69:-0.982014 70:-1 71:-1 72:-0.625119 73:1 
0.1471952075374435 2:-0.831592 3:0.433936 4:-0.820177 5:-0.284896 6:-0.21293 7:-0.975671 8:-0.831275 9:0.347385 10:-0.479679 11:-0.948332 12:-0.94755 13:-0.659181 14:-0.056538 15:-0.0345681 16:-0.381135 17:-0.786865 18:-0.824283 19:0.143793 20:-0.871876 21:0.0229012 22:-0.892681 23:-0.879616 24:-0.784558 25:-0.851904 26:0.299754 27:-0.294005 28:-0.128229 29:-0.659707 30:-0.79835 31:-0.84558 32:-0.986415 33:-0.324815 34:-0.283363 35:-0.0967876 36:-0.237268 37:-0.949213 38:-0.871453 39:-0.886706 40:-0.74553 41:-0.847852 42:0.228648 43:-0.821719 44:0.011863 45:-0.035009 46:-0.937375 47:-0.794602 48:-0.893 49:-0.897211 50:-0.939569 51:-0.542842 52:-0.144369 53:-0.0639376 54:-0.554849 55:-0.0387886 56:-0.979094 57:-0.949345 58:-0.9596 59:-0.880567 60:-0.686871 61:-0.802396 62:-0.0332765 63:-0.663896 64:0.146215 65:-0.259145 66:-0.674926 67:-1 68:-0.944444 69:-0.98753 70:-1 71:-1 72:-0.473768 73:1 
0.8772138533835879 2:-0.531068 3:0.217238 4:-0.841485 5:0.327641 6:-0.0233939 7:-0.88666 8:-0.631277 9:0.304984 10:-0.48339 11:-0.880513 12:-0.85421 13:-0.20167 14:-0.154475 15:-0.285744 16:-0.291425 17:-0.818582 18:-0.43524 19:-0.181079 20:-0.0508137 21:-0.112014 22:-0.939855 23:-0.869582 24:-0.603721 25:-0.214948 26:-0.189206 27:0.27315 28:0.0122618 29:-0.221778 30:-0.47139 31:-0.672678 32:-0.370444 33:-0.432465 34:0.366816 35:0.282361 36:0.115971 37:-0.850536 38:-0.841231 39:-0.810829 40:-0.390957 41:-0.0500224 42:-0.780759 43:0.663114 44:0.271904 45:-0.231645 46:-0.753634 47:-0.363309 48:-0.682867 49:-0.738655 50:-0.399542 51:-0.134055 52:-0.0257293 53:0.676948 54:-0.0296601 55:-0.0991789 56:-0.995165 57:-0.812729 58:-0.807009 59:-0.780649 60:-0.464744 61:-0.251461 62:-0.735888 63:0.441334 64:-0.0680007 65:-0.523645 66:-0.137679 67:-0.917582 68:0.453416 69:-0.994404 70:-1 71:-1 72:-0.151548 73:1 
1.298862903764334 2:-0.445445 3:0.0878915 4:-0.936443 5:0.424107 6:-0.39941 7:-0.938483 8:-0.643073 9:0.523406 10:-0.74262 11:-0.889078 12:-0.821661 13:-0.151205 14:-0.0312255 15:-0.612777 16:-0.389642 17:-0.684097 18:-0.728632 19:0.074183 20:-0.678494 21:-0.883607 22:-0.833819 23:-0.900618 24:-0.541258 25:-0.566254 26:-0.1954 27:-0.480071 28:-0.627776 29:-0.72063 30:-0.813077 31:-0.616817 32:-0.55558 33:-0.313147 34:-0.432027 35:-0.687369 36:-0.583425 37:-0.934707 38:-0.875439 39:-0.926599 40:-0.445955 41:-0.650733 42:-0.258437 43:-0.198324 44:-0.881868 45:-0.711991 46:-0.936098 47:-0.846789 48:-0.913751 49:-0.617745 50:-0.486087 51:-0.704939 52:-0.454836 53:-0.247087 54:-0.834244 55:-0.486138 56:-0.956955 57:-0.7887 58:-0.832385 59:-0.877099 60:-0.381535 61:-0.562009 62:-0.703058 63:-0.22997 64:-0.749353 65:-0.768953 66:-0.66472 67:-0.894316 68:-0.764012 69:-0.998163 70:-1 71:-0.999017 72:-0.567102 73:1 
5.31705592965992 2:-0.322818 3:0.0905033 4:-0.888588 5:0.372892 6:-0.149987 7:-0.997451 8:-0.334454 9:0.240427 10:-0.805561 11:-0.78986 12:-0.62977 13:-0.0217771 14:-0.299974 15:-0.491589 16:-0.571433 17:-0.788963 18:-0.22443 19:-0.158514 20:-0.677005 21:-0.306554 22:-0.888228 23:-0.934256 24:-0.504854 25:-0.0166878 26:-0.620728 27:-0.203421 28:-0.288982 29:-0.956 30:-0.92969 31:-0.658227 32:-0.342931 33:-0.0898329 34:-0.602067 35:-0.000436511 36:-0.426916 37:-0.99256 38:-0.948284 39:-0.852858 40:-0.397935 41:-0.205069 42:-0.589832 43:-0.250941 44:0.170419 45:-0.722003 46:-0.98822 47:-0.923978 48:-0.910089 49:-0.598162 50:-0.348996 51:-0.262382 52:-0.682626 53:-0.0566354 54:0.018075 55:-0.529675 56:-0.953197 57:-0.831493 58:-0.925353 59:-0.726166 60:-0.344418 61:-0.343704 62:-0.591094 63:-0.213802 64:-0.273218 65:-0.720798 66:-0.482053 67:-0.77678 68:-0.383178 69:-0.991473 70:-1 71:-0.999508 72:-0.511587 73:1 
1.146099200576979 2:-0.471108 3:0.0210767 4:-0.888826 5:0.179572 6:-0.519817 7:-0.719206 8:-0.600119 9:-0.00799516 10:-0.459389 11:-0.799958 12:-0.540635 13:-0.234178 14:-0.811034 15:-0.0973683 16:-0.900081 17:-0.779179 18:-0.438152 19:-0.147044 20:0.0820173 21:-0.427985 22:-0.631988 23:-0.951391 24:-0.501722 25:-0.390415 26:-0.611927 27:0.312373 28:-0.776892 29:-0.959015 30:-0.794777 31:-0.766126 32:-0.537964 33:-0.284195 34:-0.535925 35:-0.168558 36:-0.811935 37:-0.964219 38:-0.680006 39:-0.883803 40:-0.440292 41:-0.613047 42:-0.268047 43:0.0472246 44:-0.828009 45:-0.665736 46:-0.934609 47:-0.880875 48:-0.824053 49:-0.71513 50:-0.491616 51:-0.721904 52:-0.729625 53:0.0277599 54:-0.40961 55:-0.835291 56:-0.960406 57:-0.6469 58:-0.830709 59:-0.82797 60:-0.386003 61:-0.673661 62:-0.495165 63:-0.36671 64:-0.742504 65:-0.412408 66:-0.930967 67:-1 68:-0.981308 69:-0.984378 70:-1 71:-1 72:-0.638275 73:1 
4.011869844479748 2:-0.483293 3:0.206537 4:-0.778896 5:0.480371 6:-0.0063538 7:-0.981927 8:-0.789325 9:0.571933 10:-0.509361 11:-0.618756 12:-0.936127 13:-0.136505 14:0.0183522 15:-0.646085 16:-0.96122 17:-0.829403 18:-0.907224 19:0.134842 20:-0.770211 21:-0.637004 22:-0.94157 23:-0.855033 24:-0.889776 25:-0.523787 26:-0.220219 27:-0.524851 28:-0.707548 29:-0.882062 30:-0.960948 31:-0.783871 32:-0.87445 33:-0.194944 34:-0.834499 35:-0.535368 36:-0.809772 37:-0.928842 38:-0.932731 39:-0.863053 40:-0.800652 41:-0.69672 42:-0.237491 43:-0.480075 44:-0.73848 45:-0.911789 46:-0.894354 47:-0.918025 48:-0.887156 49:-0.761683 50:-0.847805 51:-0.513942 52:-0.775639 53:-0.367583 54:-0.918658 55:-0.835938 56:-0.866898 57:-0.837246 58:-0.873146 59:-0.852268 60:-0.727831 61:-0.789868 62:-0.492058 63:-0.670258 64:-0.745148 65:-0.787412 66:-0.742211 67:-0.790211 68:-0.913044 69:-0.99346 70:-1 71:-1 72:-0.662986 73:1 
8 2:-0.474245 3:0.149612 4:-0.913033 5:0.383078 6:-0.170937 7:-0.887693 8:-0.553233 9:0.42135 10:-0.635005 11:-0.802055 12:-0.845267 13:-0.102176 14:-0.0180351 15:-0.655837 16:-0.899332 17:-0.968693 18:-0.47649 19:-0.0762701 20:-0.386567 21:-0.556594 22:-0.961923 23:-0.985538 24:-0.786511 25:-0.285211 26:-0.489613 27:-0.417847 28:-0.467809 29:-0.925179 30:-0.946911 31:-0.944193 32:-0.530636 33:-0.334357 34:-0.654596 35:-0.44261 36:-0.632388 37:-0.994015 38:-0.978064 39:-0.938202 40:-0.748668 41:-0.3895 42:-0.675841 43:-0.405803 44:-0.302974 45:-0.967352 46:-0.982055 47:-0.984423 48:-0.957022 49:-0.845212 50:-0.599478 51:-0.546714 52:-0.739794 53:-0.476503 54:-0.400018 55:-0.836327 56:-0.979801 57:-0.927428 58:-0.948853 59:-0.907846 60:-0.656234 61:-0.560977 62:-0.899928 63:-0.447647 64:-0.598993 65:-0.801729 66:-0.787611 67:-0.892158 68:-0.971732 69:-0.984412 70:-1 71:-1 72:-0.549003 73:1 
4.883900265931511 2:-0.354209 3:-0.0350982 4:-0.80217 5:0.244983 6:-0.695936 7:-0.900859 8:-0.337318 9:0.0308977 10:-0.102923 11:-0.936743 12:-0.656646 13:-0.045352 14:-0.649876 15:0.0508563 16:-0.963449 17:-0.775697 18:-0.353083 19:-0.221454 20:-0.137461 21:-0.528181 22:-0.893336 23:-0.862124 24:-0.570627 25:-0.272368 26:-0.656133 27:-0.0158026 28:-0.566463 29:-0.774385 30:-0.928204 31:-0.650575 32:-0.455764 33:-0.470899 34:-0.109699 35:-0.497552 36:-0.0462281 37:-0.812444 38:-0.935358 39:-0.803565 40:-0.477657 41:-0.399468 42:-0.521321 43:0.164192 44:-0.738536 45:-0.495276 46:-0.805274 47:-0.90139 48:-0.821857 49:-0.62835 50:-0.513568 51:-0.603849 52:-0.0701339 53:-0.100103 54:-0.113304 55:-0.645041 56:-0.785897 57:-0.856372 58:-0.867776 59:-0.685988 60:-0.441327 61:-0.645171 62:-0.50379 63:0.108067 64:-0.887359 65:-0.505376 66:-0.20641 67:-0.888493 68:-0.663866 69:-0.992427 70:-1 71:-1 72:0.28296 73:1 
3.464771373235605 2:-0.209637 3:-0.0224214 4:-0.840676 5:0.644676 6:-0.1542 7:-0.968888 8:-0.284017 9:0.755366 10:-0.241741 11:-0.941624 12:-0.689561 13:0.190762 14:0.513368 15:-0.594471 16:-0.783142 17:-0.874626 18:-0.304309 19:0.471761 20:0.172934 21:-0.831966 22:-0.866717 23:-0.864599 24:-0.602495 25:-0.0988803 26:0.365077 27:-0.24052 28:-0.791639 29:-0.930668 30:-0.766537 31:-0.796459 32:-0.336676 33:0.164706 34:0.165731 35:-0.53709 36:-0.746157 37:-0.985189 38:-0.772006 39:-0.766681 40:-0.572936 41:-0.154552 42:0.316111 43:-0.163057 44:-0.649571 45:-0.857897 46:-0.86469 47:-0.961958 48:-0.754581 49:-0.70537 50:-0.400771 51:-0.053973 52:-0.0403607 53:-0.227563 54:-0.468843 55:-0.908289 56:-0.916029 57:-0.94991 58:-0.816627 59:-0.67625 60:-0.505067 61:-0.240836 62:0.0236544 63:-0.325611 64:-0.521308 65:-0.770403 66:-0.816921 67:-0.944325 68:-0.937062 69:-0.979981 70:-1 71:-1 72:-0.102404 73:1 
2.59088649554631 2:-0.458066 3:0.203247 4:-0.871346 5:0.173578 6:0.137386 7:-0.707503 8:-0.551169 9:0.219803 10:-0.23371 11:-0.961355 12:-0.607196 13:-0.0911521 14:-0.119438 15:-0.610107 16:-0.805793 17:-0.678303 18:-0.52664 19:0.0987524 20:-0.584148 21:-0.490024 22:-0.823505 23:-0.893707 24:-0.505866 25:-0.31514 26:-0.157785 27:-0.534466 28:-0.296205 29:-0.914804 30:-0.854409 31:-0.64192 32:-0.524148 33:-0.0679284 34:-0.547786 35:-0.389705 36:-0.123793 37:-0.911017 38:-0.841058 39:-0.800315 40:-0.467963 41:-0.381068 42:-0.160992 43:-0.57535 44:-0.177823 45:-0.404531 46:-0.926936 47:-0.806088 48:-0.83262 49:-0.592004 50:-0.538755 51:-0.101835 52:-0.711544 53:-0.369437 54:-0.0343027 55:-0.431782 56:-0.912158 57:-0.943316 58:-0.78485 59:-0.764232 60:-0.367347 61:-0.530362 62:-0.0409313 63:-0.77754 64:-0.407394 65:-0.39478 66:-0.547385 67:-0.897928 68:-0.932692 69:-0.972916 70:-1 71:-1 72:-0.337249 73:1 
2.83558434032705 2:-0.441894 3:0.185344 4:-0.867691 5:0.182753 6:0.0323004 7:-0.823386 8:-0.471654 9:0.182303 10:-0.63399 11:-0.882089 12:-0.602542 13:-0.0776789 14:-0.228931 15:-0.547342 16:-0.906372 17:-0.796043 18:-0.365179 19:0.0440216 20:-0.811187 21:-0.181147 22:-0.870371 23:-0.924233 24:-0.581533 25:-0.162263 26:-0.215123 27:-0.245081 28:0.0283205 29:-0.999527 30:-0.862638 31:-0.708107 32:-0.513654 33:0.0203257 34:-0.743402 35:0.0893661 36:0.0685937 37:-0.995315 38:-0.823048 39:-0.834194 40:-0.482429 41:-0.417818 42:-0.0399272 43:-0.637994 44:0.392016 45:-0.482951 46:-0.976148 47:-0.858334 48:-0.843574 49:-0.666567 50:-0.447646 51:-0.31108 52:-0.602639 53:-0.150394 54:0.326808 55:-0.719115 56:-0.991046 57:-0.818914 58:-0.847034 59:-0.778042 60:-0.428718 61:-0.401551 62:-0.32676 63:-0.762885 64:-0.200602 65:-0.513942 66:-0.533487 67:-1 68:-0.992278 69:-0.976978 70:-1 71:-1 72:-0.378028 73:1 
0.1903765773917802 2:-0.601484 3:0.024822 4:-0.622392 5:0.417926 6:-0.776964 7:-0.824044 8:-0.734288 9:0.00300693 10:0.0744613 11:-0.97756 12:-0.802237 13:0.247011 14:-0.419257 15:-0.141051 16:-0.908166 17:-0.82569 18:-0.517188 19:0.201354 20:0.279342 21:-0.630842 22:-0.542133 23:-0.812539 24:-0.800903 25:0.274768 26:-0.853404 27:-0.518348 28:-0.476698 29:-0.992297 30:-0.838419 31:-0.744862 32:-0.763648 33:0.327157 34:-0.271056 35:-0.518352 36:-0.393075 37:-0.736821 38:-0.544813 39:-0.889514 40:-0.833837 41:-0.019644 42:-0.854731 43:-0.53825 44:-0.0897859 45:-0.658467 46:-0.977711 47:-0.870381 48:-0.949224 49:-0.90552 50:-0.762429 51:0.218673 52:-0.0735197 53:-0.584768 54:-0.372602 55:-0.536295 56:-0.91738 57:-0.653419 58:-0.822723 59:-0.848771 60:-0.93547 61:-0.0253371 62:-0.508572 63:-0.155559 64:-0.717612 65:-0.429091 66:-0.58789 67:-0.963287 68:-0.66008 69:-1 70:-1 71:-1 72:-0.578553 73:1 
4.56877062332733 2:-0.222678 3:-0.0133069 4:-0.795896 5:0.503379 6:-0.273168 7:-0.683445 8:-0.462674 9:0.571395 10:-0.439718 11:-0.637043 12:-0.600628 13:-0.118743 14:0.197535 15:-0.552207 16:-0.782346 17:-0.519016 18:-0.475302 19:0.0566498 20:-0.266498 21:-0.765919 22:-0.937018 23:-0.722047 24:-0.38792 25:-0.386204 26:-0.176044 27:-0.42751 28:-0.918798 29:-0.912431 30:-0.806437 31:-0.527629 32:-0.312342 33:-0.213989 34:-0.521248 35:-0.521937 36:-0.762075 37:-0.998568 38:-0.646115 39:-0.704019 40:-0.395508 41:-0.204556 42:-0.163616 43:-0.546797 44:-0.566032 45:-0.805293 46:-0.963429 47:-0.840215 48:-0.62383 49:-0.609604 50:-0.335571 51:-0.150603 52:-0.458382 53:-0.297859 54:-0.386906 55:-0.906817 56:-0.882168 57:-0.925748 58:-0.684638 59:-0.568166 60:-0.494624 61:-0.15491 62:-0.0966696 63:-0.706492 64:-0.443646 65:-0.466958 66:-0.921186 67:-0.758741 68:-0.647058 69:-0.993094 70:-1 71:-1 72:-0.329306 73:1 
1.827056226035995 2:-0.313183 3:0.040641 4:-0.788497 5:0.394562 6:-0.266796 7:-0.891256 8:-0.349966 9:0.526257 10:-0.384493 11:-0.99788 12:-0.600021 13:-0.0146835 14:0.157955 15:-0.463481 16:-0.970727 17:-0.772609 18:-0.290807 19:0.251342 20:-0.531637 21:-0.76704 22:-0.984933 23:-0.835559 24:-0.562482 25:-0.149147 26:0.216769 27:-0.482175 28:-0.575362 29:-0.985281 30:-0.858827 31:-0.648276 32:-0.406771 33:0.0616693 34:-0.226895 35:-0.605488 36:-0.481705 37:-0.83125 38:-0.927069 39:-0.71773 40:-0.502152 41:-0.246476 42:0.305441 43:-0.689894 44:-0.631163 45:-0.819086 46:-0.799576 47:-0.89696 48:-0.786406 49:-0.554773 50:-0.469002 51:-0.168723 52:-0.0782748 53:-0.458777 54:-0.248771 55:-0.506596 56:-0.885889 57:-0.869129 58:-0.945958 59:-0.628335 60:-0.368928 61:-0.363234 62:-0.0555825 63:-0.562236 64:-0.727435 65:-0.557994 66:-0.558653 67:-0.808334 68:-0.766666 69:-0.965468 70:-1 71:-0.999508 72:-0.236288 73:1 
8 2:-0.475782 3:0.115643 4:-0.871744 5:0.398406 6:-0.315465 7:-0.917745 8:-0.599047 9:0.323559 10:-0.611673 11:-0.934016 12:-0.896477 13:-0.0626593 14:-0.342596 15:-0.423152 16:-0.801297 17:-0.982766 18:-0.598571 19:-0.0760719 20:-0.46956 21:-0.674442 22:-0.914597 23:-0.989 24:-0.810878 25:-0.373665 26:-0.681895 27:-0.373039 28:-0.91194 29:-0.957702 30:-0.910798 31:-0.943627 32:-0.603808 33:-0.407325 34:-0.610597 35:-0.666839 36:-0.685309 37:-0.94323 38:-0.989297 39:-0.941332 40:-0.748594 41:-0.498158 42:-0.812554 43:-0.39755 44:-0.784872 45:-0.774046 46:-0.943316 47:-0.972304 48:-0.923203 49:-0.893183 50:-0.603216 51:-0.635855 52:-0.549167 53:-0.636483 54:-0.541975 55:-0.819794 56:-0.955464 57:-0.951356 58:-0.960722 59:-0.886496 60:-0.715906 61:-0.617394 62:-0.815304 63:-0.46917 64:-0.757382 65:-0.768921 66:-0.699076 67:-0.956336 68:-1 69:-0.987488 70:-1 71:-1 72:-0.622666 73:1 
0.01848194226807892 2:-0.458721 3:0.8611 4:-0.850078 5:-0.850803 6:0.783078 7:-0.472936 8:-0.347614 9:-0.408295 10:-0.268207 11:-0.422278 12:-0.588646 13:-0.253206 14:-0.388495 15:-0.46942 16:-0.944519 17:-0.954595 18:-0.78566 19:-0.646747 20:-0.711977 21:-0.140372 22:-0.654341 23:-0.824818 24:-0.859169 25:-0.891772 26:-0.940776 27:0.058234 28:-0.279319 29:-0.75642 30:-0.835732 31:-0.868618 32:-0.916738 33:-0.838804 34:-0.720335 35:0.284707 36:-0.518165 37:-0.99597 38:-0.951492 39:-0.95785 40:-0.934773 41:-0.959519 42:-0.4953 43:-0.131843 44:0.154274 45:-0.406732 46:-0.957829 47:-0.906041 48:-0.96484 49:-0.966037 50:-0.926192 51:-0.944439 52:-0.54337 53:0.417811 54:-0.683211 55:-0.135265 56:-0.991004 57:-0.960514 58:-0.983387 59:-0.999473 60:-0.938149 61:-0.781273 62:-0.60285 63:-0.89592 64:0.1023 65:-0.411662 66:-0.426566 67:-0.984284 68:-0.986464 69:-0.996971 70:-1 71:-0.999508 72:0.120609 73:1 
0.06373156882495302 2:-0.721592 3:0.350626 4:-0.840063 5:0.0481593 6:0.167073 7:-0.740546 8:-0.965638 9:0.242129 10:-0.506268 11:-0.598667 12:-0.940853 13:-0.648357 14:-0.226286 15:-0.519748 16:-0.90413 17:-0.732918 18:-0.95977 19:-0.463352 20:-0.71303 21:-0.380929 22:-0.739668 23:-0.737354 24:-0.849352 25:-0.777416 26:-0.798479 27:-0.131747 28:-0.492938 29:-0.902038 30:-0.970056 31:-0.686767 32:-0.897469 33:-0.662309 34:-0.401441 35:-0.0305241 36:-0.86509 37:-0.896605 38:-0.969343 39:-0.791584 40:-0.769648 41:-0.754329 42:-0.909922 43:0.183955 44:-0.149433 45:-0.671331 46:-0.951801 47:-0.732417 48:-0.920726 49:-0.728087 50:-0.821506 51:-0.663473 52:-0.392311 53:0.446049 54:-0.502809 55:-0.247883 56:-0.982119 57:-0.808788 58:-0.885278 59:-0.802708 60:-0.788619 61:-0.690832 62:-0.910133 63:0.152413 64:-0.0873786 65:-0.222256 66:-0.241872 67:-0.911677 68:-0.952456 69:-0.995789 70:-1 71:-0.999508 72:-0.6899 73:1 
2.69967004104672 2:-0.314922 3:0.129482 4:-0.994739 5:0.539713 6:-0.012344 7:-0.743624 8:-0.270932 9:0.535123 10:-0.484623 11:-0.835441 12:-0.865456 13:0.273122 14:0.191296 15:-0.664871 16:-0.80334 17:-0.91812 18:-0.351309 19:0.332931 20:-0.455215 21:-0.463809 22:-0.944164 23:-0.971483 24:-0.707761 25:-0.0513065 26:0.0120863 27:-0.907201 28:-0.363479 29:-0.84921 30:-0.880297 31:-0.928508 32:-0.354815 33:-0.0056073 34:-0.501899 35:-0.598736 36:-0.395011 37:-0.946763 38:-0.906244 39:-0.926006 40:-0.68015 41:-0.0950671 42:-0.18321 43:-0.858635 44:-0.375759 45:-0.682623 46:-0.955485 47:-0.976668 48:-0.902475 49:-0.799905 50:-0.429707 51:-0.193566 52:-0.66536 53:-0.33407 54:-0.324538 55:-0.526619 56:-0.969057 57:-0.824749 58:-0.86632 59:-0.890017 60:-0.54906 61:-0.189398 62:-0.530646 63:-0.944735 64:-0.238732 65:-0.621959 66:-0.394049 67:-1 68:-1 69:-0.967626 70:-1 71:-0.999508 72:-0.240666 73:1 
0.4177762522995947 2:-0.804553 3:0.326878 4:-0.991792 5:-0.158671 6:-0.114874 7:-0.638393 8:-0.901496 9:0.250156 10:-0.587155 11:-0.697398 12:-0.797543 13:-0.651956 14:0.0225668 15:0.214887 16:-0.8134 17:-0.654509 18:-0.931971 19:-0.217019 20:-0.858675 21:0.117317 22:-0.663181 23:-0.684185 24:-0.762184 25:-0.865243 26:-0.07914 27:-0.284779 28:-0.353385 29:-0.98254 30:-0.945058 31:-0.556241 32:-0.930096 33:-0.574269 34:-0.342468 35:-0.146768 36:-0.635006 37:-0.776144 38:-0.740659 39:-0.666309 40:-0.669382 41:-0.896718 42:-0.313144 43:-0.700211 44:-0.3928 45:-0.267471 46:-0.895949 47:-0.967437 48:-0.861609 49:-0.574499 50:-0.840105 51:-0.776192 52:-0.519534 53:-0.559353 54:-0.863534 55:0.00128555 56:-0.869628 57:-0.912365 58:-0.921787 59:-0.620459 60:-0.676679 61:-0.741921 62:-0.544918 63:-0.701452 64:-0.666102 65:-0.372738 66:-0.381458 67:-0.987511 68:-0.985882 69:-0.992152 70:-0.999711 71:-0.999508 72:0.260586 73:1 
0.6686422441277367 2:-0.664276 3:0.159477 4:-0.522931 5:0.378663 6:-0.473522 7:-0.941078 8:-0.948776 9:0.0776957 10:-0.412028 11:-0.740777 12:-0.797089 13:-0.230789 14:-0.7935 15:-0.324137 16:-0.692201 17:-0.953525 18:-0.703404 19:-0.266369 20:0.161439 21:-0.762535 22:-0.757235 23:-0.839142 24:-0.92122 25:0.00556608 26:-0.785114 27:-0.283164 28:-0.749224 29:-0.734865 30:-0.896117 31:-0.781596 32:-0.692135 33:0.25992 34:-0.472511 35:-0.777122 36:-0.457443 37:-0.820071 38:-0.559301 39:-0.845851 40:-0.851619 41:-0.108586 42:-0.092575 43:-0.811984 44:0.03728 45:-0.678277 46:-0.896803 47:-0.677335 48:-0.813524 49:-0.787195 50:-0.895688 51:0.136632 52:-0.666947 53:0.145287 54:0.32842 55:-0.778411 56:-0.953995 57:-0.775469 58:-0.873141 59:-0.892225 60:-0.937352 61:-0.453248 62:-0.124307 63:-0.637158 64:0.253781 65:-0.443106 66:-0.742625 67:-1 68:-0.173432 69:-1 70:-1 71:-1 72:-0.679006 73:1 
0.5598802134274601 2:-0.705885 3:0.381769 4:-0.867436 5:-0.210197 6:0.408425 7:-0.639814 8:-0.806352 9:-0.00679129 10:0.00170577 11:-0.843354 12:-0.515708 13:-0.748016 14:-0.153269 15:-0.673934 16:-0.980912 17:-0.807089 18:-0.395517 19:-0.695328 20:-0.69667 21:-0.659303 22:-0.891378 23:-0.893473 24:-0.616818 25:-0.428845 26:-0.813808 27:-0.793135 28:-0.515619 29:-0.87036 30:-0.772167 31:-0.782512 32:-0.534345 33:-0.479994 34:-0.721516 35:-0.616504 36:-0.381943 37:-0.878658 38:-0.971074 39:-0.717592 40:-0.697092 41:-0.481823 42:-0.644927 43:-0.351697 44:-0.653843 45:-0.538102 46:-0.922548 47:-0.90065 48:-0.843475 49:-0.632628 50:-0.693416 51:-0.52934 52:-0.969629 53:-0.0781089 54:-0.742915 55:-0.53879 56:-0.861573 57:-0.837046 58:-0.790688 59:-0.746859 60:-0.558797 61:-0.701232 62:-0.657543 63:-0.591707 64:-0.314973 65:-0.491614 66:-0.772897 67:-0.775546 68:-0.283582 69:-0.993094 70:-1 71:-1 72:-0.52503 73:1 
0.3653975749968331 2:-0.208496 3:0.0604095 4:-0.815446 5:0.523697 6:-0.0559104 7:-0.947835 8:-0.192736 9:0.560758 10:-0.436044 11:-0.720064 12:-0.578702 13:0.111663 14:0.396244 15:-0.775314 16:-0.587289 17:-0.794445 18:-0.19132 19:0.17571 20:-0.119687 21:-0.782761 22:-0.69938 23:-0.879772 24:-0.506128 25:-0.100378 26:0.138103 27:-0.733038 28:-0.79778 29:-0.882864 30:-0.944745 31:-0.572843 32:-0.373996 33:-0.091363 34:0.0255407 35:-0.760093 36:-0.738023 37:-0.879216 38:-0.633781 39:-0.721284 40:-0.390713 41:-0.304425 42:-0.0435262 43:-0.406891 44:-0.618963 45:-0.760863 46:-0.926093 47:-0.789459 48:-0.918681 49:-0.429114 50:-0.458485 51:-0.323651 52:-0.205305 53:-0.831406 54:-0.586538 55:-0.769266 56:-0.986438 57:-0.942073 58:-0.925516 59:-0.611282 60:-0.256401 61:-0.515131 62:-0.271813 63:-0.305483 64:-0.817713 65:-0.617282 66:-0.855945 67:-0.913376 68:-0.91098 69:-0.973525 70:-1 71:-1 72:-0.217393 73:1 
0.4112967980978933 2:-0.895336 3:0.591191 4:-0.592389 5:-0.175187 6:0.439449 7:-0.789459 8:-0.538683 9:0.366056 10:-0.3635 11:-0.815414 12:-0.797432 13:-0.492925 14:0.200053 15:-0.664936 16:-0.864932 17:-0.913313 18:-0.625525 19:-0.00457851 20:-0.0639109 21:-0.252159 22:-0.984035 23:-0.901783 24:-0.822961 25:-0.918253 26:-0.00210005 27:0.131176 28:0.0327222 29:-0.874319 30:-0.911604 31:-0.84963 32:-0.652861 33:-0.553126 34:-0.035862 35:0.20375 36:0.330301 37:-0.945392 38:-0.887548 39:-0.962053 40:-1 41:-0.844463 42:-0.455265 43:0.187741 44:0.318651 45:0.0123163 46:-0.970893 47:-0.927559 48:-0.955588 49:-0.91424 50:-0.810798 51:-0.683064 52:-0.384539 53:0.311239 54:0.332041 55:0.116174 56:-0.976523 57:-0.916545 58:-0.971495 59:-0.982733 60:-0.960436 61:-0.872939 62:-0.481152 63:0.178035 64:-0.2765 65:-0.0912895 66:-0.190888 67:-0.953276 68:-0.915492 69:-0.994861 70:-1 71:-1 72:-0.491983 73:1 
0.7045991940243285 2:-0.42255 3:0.129287 4:-0.703218 5:0.652193 6:-0.156325 7:-0.956428 8:-0.808328 9:0.689188 10:-0.58976 11:-0.358172 12:-0.794476 13:-0.114193 14:0.0202696 15:-0.891252 16:-0.836963 17:-0.840334 18:-0.989341 19:-0.0122355 20:-0.763418 21:-0.947351 22:-0.831211 23:-0.758005 24:-0.889932 25:-0.571124 26:-0.647484 27:-0.852241 28:-0.954088 29:-0.90489 30:-0.925521 31:-0.819585 32:-0.799578 33:-0.401179 34:-0.629855 35:-0.807334 36:-0.949982 37:-0.97958 38:-0.803485 39:-0.874883 40:-0.805604 41:-0.588247 42:-0.764529 43:-0.505876 44:-0.84893 45:-0.978311 46:-0.981959 47:-0.830957 48:-0.846708 49:-0.889645 50:-0.679499 51:-0.449039 52:-0.44547 53:-0.667165 54:-0.802866 55:-0.94928 56:-0.902577 57:-0.851181 58:-0.799687 59:-0.871418 60:-0.881416 61:-0.546642 62:-0.596421 63:-0.422323 64:-0.792466 65:-0.794664 66:-0.932008 67:-0.925244 68:-0.825352 69:-0.997786 70:-1 71:-1 72:-0.684094 73:1 
1.850092078572851 2:-0.387072 3:0.0463012 4:-0.8881 5:0.369231 6:-0.230903 7:-0.869798 8:-0.500312 9:0.379237 10:-0.563025 11:-0.883444 12:-0.615966 13:-0.107398 14:-0.0432517 15:-0.432765 16:-0.822079 17:-0.780656 18:-0.443862 19:0.00219202 20:-0.382874 21:-0.538214 22:-0.941958 23:-0.89598 24:-0.514405 25:-0.305899 26:-0.314784 27:-0.256489 28:-0.683983 29:-0.939421 30:-0.969535 31:-0.697532 32:-0.461137 33:-0.18263 34:-0.77608 35:-0.29162 36:-0.748139 37:-0.879765 38:-0.917225 39:-0.775881 40:-0.476228 41:-0.404788 42:-0.324951 43:-0.46867 44:-0.439159 45:-0.735574 46:-0.963636 47:-0.896356 48:-0.922009 49:-0.613318 50:-0.476394 51:-0.339162 52:-0.861269 53:-0.274978 54:-0.488434 55:-0.74822 56:-0.970229 57:-0.874203 58:-0.924177 59:-0.726941 60:-0.425915 61:-0.510594 62:-0.488401 63:-0.648899 64:-0.586803 65:-0.515475 66:-0.797989 67:-1 68:-1 69:-0.960432 70:-1 71:-1 72:-0.455917 73:1 
6.98355123963542 2:-0.374672 3:0.150226 4:-0.861531 5:0.564098 6:-0.058458 7:-0.848731 8:-0.50998 9:0.561813 10:-0.667097 11:-0.957334 12:-0.963747 13:0.110402 14:0.0119782 15:-0.689305 16:-0.751479 17:-0.968382 18:-0.521789 19:0.22163 20:-0.829864 21:-0.478077 22:-0.866864 23:-0.969079 24:-0.899364 25:-0.0986078 26:-0.208644 27:-0.383893 28:-0.408085 29:-0.961091 30:-0.872902 31:-0.944822 32:-0.645693 33:0.0739511 34:-0.856139 35:-0.147646 36:-0.444113 37:-0.967721 38:-0.923394 39:-0.915655 40:-0.831185 41:-0.335313 42:-0.178999 43:-0.375664 44:-0.0221178 45:-0.71946 46:-0.905057 47:-0.949457 48:-0.898462 49:-0.869528 50:-0.672825 51:-0.238303 52:-0.836813 53:0.0394125 54:-0.186139 55:-0.71229 56:-0.930223 57:-0.957968 58:-0.917795 59:-0.884037 60:-0.755286 61:-0.466137 62:-0.452753 63:-0.424776 64:-0.172554 65:-0.702153 66:-0.683013 67:-0.988849 68:-0.991596 69:-0.993833 70:-1 71:-0.999508 72:-0.0660796 73:1 
0.4228079573618091 2:-0.96993 3:0.553056 4:-0.357022 5:0.147865 6:0.489212 7:-0.657738 8:-0.258201 9:0.610548 10:-0.0248236 11:-0.354258 12:-0.751311 13:-0.797399 14:0.184146 15:-0.794692 16:0.157976 17:-0.542319 18:-0.434897 19:-0.858685 20:-0.801973 21:-0.877685 22:-0.99079 23:-0.913864 24:-0.75288 25:-0.701151 26:-0.77136 27:-0.462463 28:-0.787523 29:-0.323074 30:-0.634475 31:-0.850805 32:-0.911338 33:-0.989152 34:0.0143493 35:-0.299838 36:-0.786148 37:-0.792911 38:-0.519362 39:-0.780974 40:-0.860845 41:-0.692116 42:-0.693921 43:0.395869 44:-0.307933 45:-0.896609 46:-0.862112 47:-0.81921 48:-0.959667 49:-0.843645 50:-0.847573 51:-0.342505 52:-0.180507 53:0.335256 54:-0.552499 55:-0.928904 56:-0.868993 57:-0.495347 58:-0.806165 59:-0.878948 60:-0.744149 61:-0.793097 62:-0.401658 63:0.115042 64:-0.398757 65:-0.938467 66:-0.950585 67:-0.995828 68:-0.996856 69:-0.996326 70:-1 71:-0.999508 72:-0.022397 73:1 
1.703773006324788 2:-0.307094 3:-0.0526232 4:-0.995842 5:0.568163 6:-0.635151 7:-0.969098 8:-0.416958 9:0.441828 10:-0.458976 11:-0.872124 12:-0.848715 13:0.112308 14:-0.249946 15:-0.30187 16:-0.423 17:-0.681642 18:-0.636234 19:0.0931267 20:-0.215633 21:-0.559506 22:-0.507891 23:-0.784355 24:-0.624405 25:-0.402802 26:-0.360367 27:-0.172425 28:-0.65566 29:-0.843105 30:-0.768143 31:-0.44292 32:-0.684506 33:-0.413653 34:-0.0469715 35:-0.549811 36:-0.528732 37:-0.855181 38:-0.657628 39:-0.786131 40:-0.347949 41:-0.661617 42:-0.632878 43:0.0201294 44:-0.795834 45:-0.642014 46:-0.871183 47:-0.812045 48:-0.918817 49:-0.374568 50:-0.578843 51:-0.742549 52:-0.123889 53:-0.44231 54:-0.566041 55:-0.559237 56:-0.992108 57:-0.853473 58:-0.931515 59:-0.754495 60:-0.0972883 61:-0.7821 62:-0.700092 63:0.0114542 64:-0.842142 65:-0.764626 66:-0.548928 67:-0.676923 68:-0.095652 69:-0.973022 70:-1 71:-1 72:-0.373285 73:1 
0.7129360571492884 2:-0.662644 3:0.31506 4:-0.902793 5:0.0929272 6:0.138652 7:-0.741501 8:-0.896774 9:0.306792 10:-0.497235 11:-0.626706 12:-0.894308 13:-0.459473 14:-0.0579109 15:-0.848374 16:-0.943506 17:-0.7558 18:-0.817241 19:-0.183926 20:-0.81179 21:-0.858285 22:-0.847451 23:-0.735026 24:-0.810827 25:-0.472369 26:-0.372807 27:-0.733278 28:-0.796003 29:-0.902737 30:-0.877498 31:-0.702859 32:-0.847633 33:-0.138703 34:-0.715735 35:-0.740387 36:-0.300492 37:-0.898294 38:-0.888963 39:-0.747112 40:-0.706331 41:-0.615373 42:-0.087134 43:-0.579799 44:-0.532221 45:-0.247467 46:-0.989856 47:-0.730243 48:-0.859356 49:-0.733523 50:-0.721419 51:-0.323941 52:-0.443354 53:-0.498077 54:0.164639 55:-0.145244 56:-0.9632 57:-0.822022 58:-0.836145 59:-0.698899 60:-0.778134 61:-0.613742 62:-0.257854 63:-0.523471 64:-0.562665 65:0.168952 66:-0.530415 67:-0.950394 68:-0.89408 69:-0.997215 70:-1 71:-1 72:-0.644915 73:1 
1.045723040326344 2:-0.681349 3:0.185617 4:-0.858494 5:0.090031 6:-0.442943 7:-0.826956 8:-0.835466 9:0.0598777 10:-0.146132 11:-0.880396 12:-0.889788 13:-0.322067 14:-0.612014 15:0.318243 16:-0.974244 17:-0.880057 18:-0.70066 19:-0.131035 20:0.265611 21:-0.0372554 22:-0.59658 23:-0.943241 24:-0.843322 25:-0.322554 26:-0.520067 27:0.438639 28:-0.522378 29:-0.940546 30:-0.830477 31:-0.930381 32:-0.853088 33:-0.0150789 34:-0.274106 35:-0.154653 36:-0.296686 37:-0.982016 38:-0.709245 39:-0.914293 40:-0.82339 41:-0.645357 42:-0.0908424 43:0.0218962 44:-0.951413 45:-0.24154 46:-0.795379 47:-0.838525 48:-0.820686 49:-0.874797 50:-0.804789 51:-0.384204 52:-0.416948 53:-0.292821 54:0.107496 55:-0.229269 56:-0.810165 57:-0.795584 58:-0.807778 59:-0.910484 60:-0.848277 61:-0.694036 62:-0.115439 63:-0.184972 64:-0.695461 65:0.0454822 66:-0.483385 67:-0.84389 68:-0.2 69:-0.993148 70:-1 71:-1 72:-0.646419 73:0.856482 
0.3952428888035077 2:-0.646071 3:0.209996 4:-0.985024 5:0.0609017 6:-0.272883 7:-0.868071 8:-0.720488 9:0.142808 10:-0.325926 11:-0.978047 12:-0.798624 13:-0.284461 14:-0.482468 15:0.264616 16:-0.936735 17:-0.882326 18:-0.60635 19:-0.0840753 20:-0.341944 21:0.10424 22:-0.860718 23:-0.939091 24:-0.759877 25:-0.367425 26:-0.418714 27:0.16945 28:-0.312384 29:-0.954146 30:-0.890853 31:-0.832544 32:-0.650234 33:-0.181964 34:-0.840534 35:0.0188529 36:-0.509594 37:-0.819519 38:-0.942532 39:-0.862353 40:-0.687907 41:-0.489227 42:-0.345136 43:-0.227427 44:-0.420586 45:-0.304209 46:-0.867087 47:-0.911607 48:-0.889248 49:-0.829414 50:-0.554757 51:-0.427401 52:-0.985517 53:-0.0367938 54:-0.615176 55:-0.0573343 56:-0.859123 57:-0.897576 58:-0.90913 59:-0.785874 60:-0.752555 61:-0.38089 62:-0.55865 63:-0.422478 64:-0.525267 65:-0.2626 66:-0.367311 67:-0.930618 68:-0.93464 69:-0.997498 70:-1 71:-0.999017 72:0.211462 73:1 
1.10915483014115 2:-0.587012 3:0.225074 4:-0.693612 5:0.421895 6:-0.0654627 7:-0.749445 8:-0.592511 9:0.383323 10:-0.632382 11:-0.873844 12:-0.89124 13:0.199368 14:-0.260205 15:-0.506189 16:-0.62637 17:-0.740617 18:-0.529493 19:0.269542 20:-0.318698 21:-0.317569 22:-0.565399 23:-0.836993 24:-0.824605 25:0.0634475 26:-0.152912 27:0.0327264 28:-0.160349 29:-0.686491 30:-0.758503 31:-0.761292 32:-0.705604 33:0.0332009 34:-0.080183 35:0.134771 36:-0.0161885 37:-0.887343 38:-0.794561 39:-0.914388 40:-0.915267 41:-0.0863977 42:-0.47054 43:0.0378285 44:0.335182 45:-0.333847 46:-0.929122 47:-0.828225 48:-0.929264 49:-0.803327 50:-0.635486 51:-0.0028749 52:-0.06391 53:-0.0123476 54:0.375294 55:-0.341915 56:-0.977556 57:-0.907449 58:-0.915421 59:-0.903503 60:-0.925968 61:-0.120898 62:-0.251685 63:0.273095 64:-0.441454 65:-0.231863 66:-0.511311 67:-0.947963 68:0.019608 69:-0.991536 70:-1 71:-1 72:-0.44167 73:1 
0.4693832313864367 2:-0.90789 3:0.486806 4:-0.697412 5:-0.315535 6:0.0291451 7:-0.539784 8:-0.4753 9:0.141788 10:-0.851632 11:-0.859836 12:-0.877986 13:-0.748981 14:-0.303627 15:-0.281304 16:-0.232663 17:-0.646733 18:-0.788669 19:-0.745676 20:-0.539251 21:-0.524869 22:-0.799659 23:-0.896938 24:-0.6561 25:-0.764036 26:-0.792262 27:-0.0642026 28:-0.731843 29:-0.783913 30:-0.931798 31:-0.874771 32:-0.826398 33:-0.888413 34:-0.421685 35:-0.368665 36:-0.55921 37:-0.81288 38:-0.592708 39:-0.929247 40:-0.783778 41:-0.709439 42:-0.812156 43:-0.0010783 44:-0.938824 45:-0.728614 46:-0.965086 47:-0.969732 48:-0.885885 49:-0.966262 50:-0.859063 51:-0.557024 52:-0.526304 53:-0.123462 54:-0.0906824 55:-0.69158 56:-0.96381 57:-0.84164 58:-0.868713 59:-0.924545 60:-0.900006 61:-0.744175 62:-0.625137 63:-0.200453 64:-0.830661 65:-0.192761 66:-0.766191 67:-0.971232 68:-0.96748 69:-0.998038 70:-1 71:-1 72:-0.71351 73:1 
0.3999512547266453 2:-0.751636 3:0.337107 4:-0.861253 5:0.0364222 6:0.042496 7:-0.961655 8:-0.787316 9:0.222712 10:-0.668109 11:-0.463281 12:-0.775755 13:-0.352672 14:-0.138843 15:-0.231885 16:-0.758744 17:-0.822545 18:-0.549285 19:-0.0859965 20:-0.318668 21:-0.130041 22:-0.726063 23:-0.815961 24:-0.77549 25:-0.56463 26:-0.217922 27:-0.0131039 28:-0.246752 29:-0.934247 30:-0.956452 31:-0.894928 32:-0.538643 33:-0.523993 34:-0.684163 35:-0.0833769 36:-0.499855 37:-0.929361 38:-0.904152 39:-0.905953 40:-0.753171 41:-0.562724 42:-0.513366 43:-0.664633 44:-0.386786 45:-0.792217 46:-0.868355 47:-0.730225 48:-0.921929 49:-0.934946 50:-0.501813 51:-0.620731 52:-0.759734 53:-0.343352 54:-0.916963 55:-0.77041 56:-0.975918 57:-0.893262 58:-0.950451 59:-0.977629 60:-0.791223 61:-0.556639 62:-0.646686 63:-0.92849 64:-0.536299 65:-0.515991 66:-0.82753 67:-0.953359 68:-0.940246 69:-0.985612 70:-1 71:-0.999017 72:-0.547853 73:1 
6.714525403731505 2:-0.469597 3:-0.00992529 4:-0.918078 5:0.364471 6:-0.454847 7:-0.945754 8:-0.499421 9:0.372784 10:-0.38116 11:-0.894158 12:-0.721615 13:-0.121029 14:-0.169756 15:-0.119835 16:-0.911081 17:-0.96083 18:-0.408814 19:-0.157437 20:-0.451916 21:-0.572046 22:-0.700706 23:-0.975191 24:-0.662647 25:-0.207639 26:-0.541044 27:-0.0987904 28:-0.869146 29:-0.796394 30:-0.977101 31:-0.883147 32:-0.548724 33:-0.3116 34:-0.853513 35:-0.334853 36:-0.778142 37:-0.785047 38:-0.968159 39:-0.900314 40:-0.600122 41:-0.379617 42:-0.778323 43:-0.374912 44:-0.579242 45:-0.550034 46:-0.80067 47:-0.962651 48:-0.960585 49:-0.815247 50:-0.586939 51:-0.396671 52:-0.851551 53:-0.468465 54:-0.680746 55:-0.573575 56:-0.732957 57:-0.810481 58:-0.868285 59:-0.832925 60:-0.540152 61:-0.775624 62:-0.829409 63:-0.483402 64:-0.70491 65:-0.402933 66:-0.786922 67:-1 68:-1 69:-0.954779 70:-1 71:-1 72:-0.445311 73:1 
0.3477933790974505 2:-0.861577 3:0.427133 4:-0.963958 5:-0.321424 6:0.269791 7:-0.917658 8:-0.648571 9:-0.19939 10:-0.438803 11:-0.474201 12:-0.719847 13:-0.495249 14:-0.493718 15:-0.242551 16:-0.814118 17:-0.85463 18:-0.388046 19:-0.598838 20:-0.84158 21:0.074146 22:-0.967681 23:-0.916813 24:-0.782098 25:-0.435 26:-0.817367 27:-0.393777 28:0.146631 29:-0.89511 30:-0.921921 31:-0.997081 32:-0.450712 33:-0.64041 34:-0.382884 35:-0.234556 36:-0.0918725 37:-0.943467 38:-0.886482 39:-0.995569 40:-0.77138 41:-0.376199 42:-0.710408 43:-0.128568 44:-0.172778 45:-0.817199 46:-0.965887 47:-0.970092 48:-0.907773 49:-0.838579 50:-0.571298 51:-0.69286 52:-0.545251 53:-0.195806 54:-0.400183 55:-0.563597 56:-0.969357 57:-0.855134 58:-0.935183 59:-0.972175 60:-0.58594 61:-0.515371 62:-0.605384 63:-0.269941 64:-0.774419 65:-0.808883 66:-0.281901 67:-0.867308 68:-0.325 69:-0.980216 70:-1 71:-1 72:-0.679907 73:1 
0.528732694754834 2:-0.771308 3:0.21224 4:-0.757408 5:0.08851 6:-0.38942 7:-0.783919 8:-0.91441 9:0.165272 10:-0.660532 11:-0.805196 12:-0.957779 13:-0.546458 14:-0.622112 15:-0.45944 16:-0.84449 17:-0.819485 18:-0.973798 19:-0.277807 20:-0.287791 21:-0.681301 22:-0.982037 23:-0.928831 24:-0.856555 25:-0.736885 26:-0.801104 27:-0.37243 28:-0.724832 29:-0.95754 30:-0.950535 31:-0.837236 32:-0.927098 33:-0.503153 34:-0.400008 35:-0.813235 36:-0.551777 37:-0.967449 38:-0.941772 39:-0.917781 40:-0.791981 41:-0.847222 42:-0.762979 43:-0.33278 44:-0.500694 45:-0.565968 46:-0.976343 47:-0.917666 48:-0.91987 49:-0.879624 50:-0.828124 51:-0.725737 52:-0.45509 53:-0.841456 54:-0.114647 55:-0.677616 56:-0.938359 57:-0.925979 58:-0.893432 59:-0.887821 60:-0.83417 61:-0.831235 62:-0.727369 63:-0.239197 64:-0.684293 65:-0.4251 66:-0.973496 67:-0.983684 68:-1 69:-0.997384 70:-1 71:-0.999017 72:-0.263461 73:1 
0.6215248361234158 2:-0.997431 3:0.525919 4:-0.480255 5:0.0667171 6:0.267317 7:-0.839495 8:-0.51274 9:0.66151 10:-0.678378 11:-0.470653 12:-0.690315 13:-0.773975 14:0.392902 15:-0.472474 16:-0.770203 17:-0.82544 18:-0.453762 19:-0.00113087 20:-0.434735 21:-0.363569 22:-0.64892 23:-0.799108 24:-0.79287 25:-0.717894 26:0.11395 27:-0.143222 28:-0.57984 29:-0.989711 30:-0.909134 31:-0.780176 32:-0.506243 33:-0.282613 34:-0.366849 35:0.0255737 36:-0.944684 37:-0.770486 38:-0.553512 39:-0.836638 40:-0.892664 41:-0.583009 42:0.17443 43:-0.418631 44:-0.0836083 45:-0.618673 46:-0.999834 47:-0.912847 48:-0.902532 49:-0.794147 50:-0.685229 51:-0.809268 52:-0.311472 53:0.0459504 54:-0.548313 55:-0.319234 56:-0.859491 57:-0.45424 58:-0.767596 59:-0.862617 60:-0.971585 61:-0.58438 62:-0.168653 63:-0.830415 64:-0.19841 65:-0.520975 66:-0.304355 67:-0.805815 68:0.619512 69:-0.999178 70:-1 71:-1 72:-0.486368 73:1 
0.817454265210674 2:-0.991888 3:0.523553 4:-0.520065 5:-0.0301991 6:0.2875 7:-0.798074 8:-0.529504 9:0.418413 10:-0.565838 11:-0.726579 12:-0.847452 13:-0.917778 14:0.0197084 15:-0.693174 16:-0.739737 17:-0.876727 18:-0.712056 19:-0.434616 20:-0.932893 21:-0.649622 22:-0.976792 23:-0.994597 24:-0.975836 25:-0.985601 26:-0.585283 27:-0.41299 28:-0.9006 29:-0.933479 30:-0.967238 31:-0.990871 32:-0.885077 33:-0.650235 34:-0.736747 35:-0.447778 36:-0.724912 37:-0.999913 38:-0.957792 39:-0.960681 40:-0.949275 41:-0.949173 42:-0.620169 43:-0.148097 44:-0.809959 45:-0.662978 46:-0.939182 47:-0.879156 48:-0.966981 49:-0.970774 50:-0.893223 51:-0.758321 52:-0.85952 53:-0.0224402 54:-0.574213 55:-0.723949 56:-0.984575 57:-0.916397 58:-0.944955 59:-0.947805 60:-0.979735 61:-0.88355 62:-0.650466 63:-0.312509 64:-0.612444 65:-0.4457 66:-0.99038 67:-0.992959 68:-0.986738 69:-0.999072 70:-1 71:-0.999508 72:0.184116 73:1 
1.895899725091559 2:-0.276182 3:-0.0294121 4:-0.83355 5:0.577338 6:-0.375207 7:-0.864254 8:-0.448379 9:0.76675 10:-0.565983 11:-0.592503 12:-0.737185 13:0.049999 14:0.365511 15:-0.658055 16:-0.821134 17:-0.620772 18:-0.600482 19:0.47359 20:-0.245347 21:-0.815205 22:-0.834444 23:-0.694973 24:-0.575183 25:-0.398146 26:0.348298 27:-0.532273 28:-0.891198 29:-0.732937 30:-0.989767 31:-0.454447 32:-0.594113 33:0.0101385 34:-0.126002 35:-0.680594 36:-0.764721 37:-0.763288 38:-0.950901 39:-0.716892 40:-0.403531 41:-0.497192 42:0.24763 43:-0.530896 44:-0.892216 45:-0.791234 46:-0.838249 47:-0.823468 48:-0.817687 49:-0.482415 50:-0.547802 51:-0.294219 52:-0.247764 53:-0.523885 54:-0.737237 55:-0.802481 56:-0.779712 57:-0.837795 58:-0.812535 59:-0.658862 60:-0.304064 61:-0.495478 62:-0.0866858 63:-0.721022 64:-0.838996 65:-0.70141 66:-0.812964 67:-0.882573 68:-0.628318 69:-0.998485 70:-1 71:-1 72:0.145176 73:1 
0.3438183136672886 2:-0.256232 3:-0.261142 4:-0.952261 5:0.410138 6:-0.787947 7:-0.937641 8:-0.276811 9:-0.375714 10:0.0579301 11:-0.956127 12:-0.725521 13:-0.0171536 14:-0.239142 15:-0.479175 16:-0.788919 17:-0.818914 18:-0.200125 19:-0.770954 20:-0.0063378 21:-0.598906 22:-0.772013 23:-0.858534 24:-0.604001 25:-0.163514 26:-0.319781 27:-0.948479 28:-0.420271 29:-0.97165 30:-0.973139 31:-0.743752 32:-0.312827 33:-0.768912 34:-0.458917 35:-0.311883 36:-0.55191 37:-0.941235 38:-0.893699 39:-0.778688 40:-0.582063 41:-0.399245 42:-0.487119 43:-0.419225 44:-0.348752 45:-0.607534 46:-0.988691 47:-0.992045 48:-0.896919 49:-0.643333 50:-0.468744 51:-0.697821 52:-0.915148 53:0.211353 54:-0.853164 55:-0.479958 56:-0.96482 57:-0.812812 58:-0.98853 59:-0.705493 60:-0.484904 61:-0.702312 62:-0.386719 63:-0.205715 64:-0.50809 65:-0.473775 66:-0.593038 67:-0.965423 68:-0.90228 69:-0.994861 70:-1 71:-1 72:-0.390657 73:1 
1.433211103903102 2:-0.580509 3:0.23198 4:-0.868697 5:0.266293 6:-0.0265771 7:-0.861925 8:-0.8491 9:0.428753 10:-0.562994 11:-0.864535 12:-0.863846 13:-0.400168 14:-0.0162992 15:-0.712998 16:-0.777894 17:-0.785284 18:-0.792606 19:-0.151895 20:-0.701219 21:-0.760371 22:-0.90333 23:-0.968084 24:-0.676111 25:-0.702678 26:-0.399195 27:-0.639394 28:-0.787992 29:-0.882575 30:-0.967249 31:-0.822503 32:-0.655104 33:-0.42208 34:-0.945761 35:-0.618741 36:-0.828998 37:-0.968021 38:-0.782765 39:-0.930908 40:-0.655612 41:-0.710143 42:-0.250071 43:-0.660365 44:-0.576233 45:-0.798953 46:-0.951753 47:-0.932012 48:-0.873468 49:-0.841312 50:-0.615599 51:-0.586232 52:-0.562364 53:-0.555518 54:-0.684126 55:-0.566044 56:-0.933265 57:-0.926477 58:-0.860338 59:-0.873277 60:-0.698001 61:-0.686472 62:-0.181713 63:-0.73183 64:-0.56521 65:-0.852074 66:-0.546016 67:-0.976821 68:-0.991266 69:-0.994245 70:-1 71:-1 72:-0.653538 73:1 
1.92606055162016 2:-0.591906 3:0.22066 4:-0.672272 5:0.430431 6:-0.169758 7:-0.772486 8:-0.739822 9:0.49589 10:-0.782329 11:-0.863924 12:-0.795071 13:-0.0938971 14:-0.0484719 15:-0.467699 16:-0.771932 17:-0.880213 18:-0.591592 19:-0.0183559 20:-0.362472 21:-0.549015 22:-0.894906 23:-0.923987 24:-0.90789 25:-0.258474 26:-0.530962 27:-0.372259 28:-0.553474 29:-0.992022 30:-0.949606 31:-0.864029 32:-0.568901 33:-0.291914 34:-0.516866 35:-0.682766 36:-0.266008 37:-0.923725 38:-0.872786 39:-0.956213 40:-0.951905 41:-0.177725 42:-0.754294 43:-0.260957 44:-0.608795 45:-0.414665 46:-0.952152 47:-0.900052 48:-0.943308 49:-0.864031 50:-0.600232 51:-0.193653 52:-0.541486 53:-0.507505 54:-0.048663 55:-0.555136 56:-0.99004 57:-0.929736 58:-0.952579 59:-0.951357 60:-0.949156 61:-0.220672 62:-0.443797 63:-0.323415 64:-0.865073 65:-0.282258 66:-0.886995 67:-0.843182 68:-0.881818 69:-0.994768 70:-1 71:-1 72:-0.628827 73:1 
0.1572175416944379 2:-0.87885 3:0.340282 4:-0.425964 5:0.282925 6:-0.208811 7:-0.984913 8:-0.623068 9:0.619684 10:-0.746155 11:-0.201536 12:-0.515604 13:-0.493091 14:-0.0761692 15:-0.422471 16:-0.901061 17:-0.824396 18:-0.417492 19:-0.0229292 20:-0.391913 21:-0.426214 22:-0.366522 23:-0.650922 24:-0.656778 25:-0.769491 26:-0.388559 27:-0.110166 28:-0.52975 29:-0.950689 30:-0.87216 31:-0.751891 32:-0.54185 33:-0.525753 34:-0.281592 35:-0.384752 36:-0.720846 37:-0.670211 38:-0.359672 39:-0.754679 40:-0.73752 41:-0.701801 42:-0.686781 43:0.0630906 44:-0.817104 45:-0.498714 46:-0.93137 47:-0.714857 48:-0.827774 49:-0.767698 50:-0.679148 51:-0.713638 52:-0.300323 53:-0.191269 54:-0.492131 55:-0.411362 56:-0.857646 57:-0.425099 58:-0.727095 59:-0.790115 60:-0.832446 61:-0.920018 62:-0.779159 63:0.176025 64:-0.772558 65:-0.265102 66:-0.632582 67:-0.897137 68:0.860466 69:-0.998692 70:-1 71:-1 72:-0.661683 73:1 
0.7684087852572877 2:-0.821742 3:0.452995 4:-0.596552 5:-0.234691 6:-0.353748 7:-0.692592 8:-0.435875 9:0.387249 10:0.128368 11:-0.862689 12:-0.914988 13:-0.718844 14:-0.148456 15:0.613356 16:-0.664193 17:-0.816901 18:-0.557961 19:0.0723293 20:-0.0977391 21:-0.0473978 22:-0.920681 23:-0.87745 24:-0.73713 25:-0.638198 26:0.208485 27:0.456554 28:-0.678828 29:-0.894255 30:-0.961314 31:-0.848185 32:-0.519429 33:-0.186493 34:-0.603624 35:-0.0464222 36:-0.0227003 37:-0.964586 38:-0.831116 39:-0.906616 40:-0.874079 41:-0.417013 42:0.543748 43:-0.193839 44:-0.729494 45:-0.23319 46:-0.929617 47:-0.776524 48:-0.859254 49:-0.797467 50:-0.748403 51:-0.863086 52:-0.0549561 53:0.108657 54:0.266327 55:-0.46634 56:-0.948029 57:-0.798734 58:-0.920814 59:-0.939444 60:-0.785872 61:-0.425086 62:-0.0358992 63:-0.893093 64:-0.666632 65:-0.0451297 66:-0.413603 67:-0.942114 68:-0.946308 69:-0.99673 70:-1 71:-1 72:-0.529054 73:1 
0.07687670709845061 2:-0.69277 3:0.376606 4:-0.921146 5:-0.0358901 6:0.379842 7:-0.915877 8:-0.63572 9:0.314422 10:-0.0920897 11:-0.511946 12:-0.588437 13:-0.317758 14:0.410423 15:-0.609937 16:-0.99277 17:-0.955244 18:-0.364725 19:-0.0336523 20:0.118457 21:-0.243436 22:-0.94554 23:-0.97919 24:-0.650215 25:-0.331466 26:-0.00537901 27:-0.265475 28:0.12683 29:-0.94475 30:-0.963336 31:-0.83072 32:-0.456453 33:-0.0740336 34:-0.217394 35:-0.153604 36:0.40092 37:-0.910258 38:-0.816033 39:-0.884891 40:-0.567823 41:-0.367294 42:0.237829 43:-0.686306 44:0.313599 45:-0.112554 46:-0.942913 47:-0.898982 48:-0.99531 49:-0.743657 50:-0.443259 51:-0.219004 52:-0.0411189 53:-0.648796 54:0.702292 55:-0.355806 56:-0.994435 57:-0.969835 58:-0.981182 59:-0.850442 60:-0.471985 61:-0.407979 62:0.133551 63:-0.39469 64:-0.425769 65:0.131588 66:-0.858201 67:-0.957708 68:-0.944224 69:-0.986369 70:-1 71:-1 72:-0.0849937 73:1 
0.6266933098870787 2:-0.872105 3:0.439953 4:-0.883724 5:-0.437255 6:0.30201 7:-0.705437 8:-0.824689 9:-0.284148 10:-0.555742 11:-0.519097 12:-0.488854 13:-0.727609 14:-0.574229 15:-0.175753 16:-0.839619 17:-0.89562 18:-0.375781 19:-0.550955 20:-0.187595 21:0.372021 22:-0.882697 23:-0.934305 24:-0.661776 25:-0.41227 26:-0.524624 27:0.470759 28:0.762953 29:-0.678008 30:-0.888515 31:-0.769093 32:-0.585064 33:-0.390171 34:-0.65872 35:0.726629 36:1 37:-0.84125 38:-0.598977 39:-0.730111 40:-0.633891 41:-0.540094 42:-0.38041 43:-0.606617 44:0.926085 45:0.19623 46:-0.990164 47:-0.956011 48:-0.963446 49:-0.601953 50:-0.581769 51:-0.55619 52:-0.550534 53:-0.427437 54:0.505248 55:-0.106223 56:-0.97191 57:-0.873068 58:-0.936434 59:-0.734371 60:-0.541981 61:-0.472537 62:-0.653324 63:-0.530438 64:-0.665411 65:-0.790584 66:-0.524381 67:-0.751202 68:0.8125 69:-0.997786 70:-1 71:-0.999508 72:-0.449718 73:1 
0.5848953774584775 2:-0.631786 3:0.247989 4:-0.95779 5:0.0958316 6:-0.108742 7:-0.710488 8:-0.846023 9:0.237572 10:-0.859039 11:-0.909313 12:-0.659774 13:-0.498312 14:-0.339082 15:-0.135996 16:-0.336643 17:-0.679756 18:-0.548089 19:-0.218555 20:-0.342711 21:-0.0730097 22:-0.720747 23:-0.896004 24:-0.509287 25:-0.335964 26:-0.469232 27:0.375589 28:-0.252697 29:-0.809665 30:-0.923438 31:-0.758186 32:-0.51634 33:0.0216264 34:-0.66865 35:0.445208 36:-0.628035 37:-0.781196 38:-0.513514 39:-0.930955 40:-0.531043 41:-0.347714 42:0.180194 43:0.17505 44:0.278748 45:-0.831282 46:-0.969229 47:-0.945934 48:-0.85556 49:-0.770755 50:-0.632856 51:-0.0695377 52:-0.515925 53:0.618126 54:-0.408587 55:-0.508619 56:-0.925536 57:-0.729586 58:-0.773323 59:-0.846653 60:-0.465192 61:-0.585994 62:0.260905 63:-0.651996 64:0.0093882 65:-0.787895 66:-0.431025 67:-0.848606 68:0.563758 69:-0.994519 70:-1 71:-1 72:-0.603877 73:1 
8 2:-0.449672 3:0.120536 4:-0.843502 5:0.462904 6:-0.308178 7:-0.885944 8:-0.593847 9:0.398926 10:-0.778104 11:-0.971881 12:-0.964094 13:-0.00979812 14:-0.341066 15:-0.368896 16:-0.925012 17:-0.981989 18:-0.621924 19:0.0582466 20:-0.674227 21:-0.560527 22:-0.940334 23:-0.93859 24:-0.862462 25:-0.3218 26:-0.467243 27:-0.317485 28:-0.934322 29:-0.953964 30:-0.957692 31:-0.893978 32:-0.649034 33:-0.312408 34:-0.775366 35:-0.566329 36:-0.526374 37:-0.960349 38:-0.953332 39:-0.908643 40:-0.77366 41:-0.441208 42:-0.744659 43:-0.329381 44:-0.698718 45:-0.499656 46:-0.984087 47:-0.941942 48:-0.953862 49:-0.847173 50:-0.634159 51:-0.532603 52:-0.634928 53:-0.371211 54:0.00166059 55:-0.578071 56:-0.965731 57:-0.865014 58:-0.995545 59:-0.863579 60:-0.741074 61:-0.511192 62:-0.957182 63:-0.31315 64:-0.672385 65:-0.0951423 66:-0.813545 67:-0.974109 68:-0.965854 69:-0.999298 70:-1 71:-0.999508 72:0.129941 73:1 
2.490810799257166 2:-0.241592 3:-0.0645654 4:-0.968437 5:0.626569 6:-0.479055 7:-0.906723 8:-0.37813 9:0.288827 10:-0.862277 11:-0.873212 12:-0.868954 13:0.131694 14:-0.600628 15:-0.729442 16:-0.985293 17:-0.872678 18:-0.473611 19:-0.125368 20:-0.720471 21:-0.755525 22:-0.982566 23:-0.891072 24:-0.717461 25:-0.199105 26:-0.890159 27:-0.65088 28:-0.803197 29:-0.967968 30:-0.93413 31:-0.774364 32:-0.537676 33:-0.393611 34:-0.652953 35:-0.812755 36:-0.757686 37:-0.970856 38:-0.900024 39:-0.864857 40:-0.63525 41:-0.411446 42:-0.840366 43:-0.77139 44:-0.587026 45:-0.832469 46:-0.954916 47:-0.968264 48:-0.863212 49:-0.722005 50:-0.578368 51:-0.640224 52:-0.578375 53:-0.810844 54:-0.313743 55:-0.785824 56:-0.929527 57:-0.953963 58:-0.891241 59:-0.807261 60:-0.576208 61:-0.572289 62:-0.542455 63:-0.790733 64:-0.442318 65:-0.580425 66:-0.805593 67:-0.960588 68:-0.970298 69:-1 70:-1 71:-0.999508 72:-0.499504 73:1 
6.820695781024351 2:-0.188205 3:0.0277225 4:-0.966333 5:0.638629 6:-0.137155 7:-0.94962 8:-0.314737 9:0.458359 10:-0.517029 11:-0.905032 12:-0.789281 13:0.175922 14:-0.132371 15:-0.931241 16:-0.931699 17:-0.844192 18:-0.398236 19:0.0880895 20:-0.854344 21:-0.910804 22:-0.953354 23:-0.8481 24:-0.646718 25:-0.14226 26:-0.450672 27:-0.756309 28:-0.81495 29:-0.924008 30:-0.858473 31:-0.740689 32:-0.469807 33:-0.176214 34:-0.749445 35:-0.662412 36:-0.723202 37:-0.979724 38:-0.921779 39:-0.792605 40:-0.558387 41:-0.356814 42:-0.532808 43:-0.498613 44:-0.570555 45:-0.773767 46:-0.967554 47:-0.94229 48:-0.841033 49:-0.669781 50:-0.479813 51:-0.481421 52:-0.624017 53:-0.477112 54:-0.425455 55:-0.741916 56:-0.979876 57:-0.940333 58:-0.860483 59:-0.753741 60:-0.481992 61:-0.479498 62:-0.663086 63:-0.431268 64:-0.662125 65:-0.52616 66:-0.79463 67:-0.957987 68:-0.984168 69:-0.999262 70:-1 71:-1 72:-0.522155 73:1 
8 2:-0.174565 3:0.0338732 4:-0.945899 5:0.671774 6:-0.107493 7:-0.963778 8:-0.306491 9:0.608991 10:-0.455306 11:-0.876888 12:-0.781459 13:0.213275 14:0.18304 15:-0.806839 16:-0.918107 17:-0.830736 18:-0.395923 19:0.266215 20:-0.440017 21:-0.869855 22:-0.959015 23:-0.868289 24:-0.630125 25:-0.104441 26:-0.115705 27:-0.779549 28:-0.889019 29:-0.994069 30:-0.855105 31:-0.747532 32:-0.44172 33:0.0010624 34:-0.620472 35:-0.79339 36:-0.904083 37:-0.992479 38:-0.787823 39:-0.830616 40:-0.540704 41:-0.273098 42:-0.226223 43:-0.74848 44:-0.857513 45:-0.91952 46:-0.999278 47:-0.831876 48:-0.826853 49:-0.709938 50:-0.42335 51:-0.270436 52:-0.831798 53:-0.65847 54:-0.847238 55:-0.868834 56:-0.969574 57:-0.94837 58:-0.797299 59:-0.777855 60:-0.502809 61:-0.331341 62:-0.443661 63:-0.719243 64:-0.888681 65:-0.758911 66:-0.840581 67:-0.940063 68:-0.799248 69:-0.997233 70:-1 71:-1 72:-0.608371 73:1 
1.030466998215033 2:-0.486111 3:0.242819 4:-0.682761 5:0.541645 6:0.149679 7:-0.798287 8:-0.744538 9:0.55724 10:-0.144739 11:-0.582217 12:-0.767783 13:-0.125018 14:0.0159862 15:-0.524735 16:-0.929077 17:-0.951133 18:-0.880485 19:-0.151952 20:-0.733919 21:-0.572839 22:-0.676359 23:-0.814241 24:-0.883462 25:-0.510623 26:-0.63218 27:-0.810999 28:-0.501184 29:-0.815784 30:-0.926202 31:-0.897695 32:-0.761185 33:-0.494115 34:-0.412162 35:-0.661927 36:-0.403255 37:-0.967358 38:-0.936441 39:-0.867547 40:-0.808548 41:-0.498996 42:-0.434762 43:-0.260133 44:-0.527318 45:-0.563869 46:-0.909211 47:-0.678784 48:-0.820908 49:-0.894112 50:-0.697808 51:-0.523806 52:-0.142567 53:-0.416242 54:-0.38912 55:-0.498855 56:-0.882206 57:-0.57961 58:-0.920585 59:-0.804187 60:-0.705901 61:-0.552412 62:-0.369327 63:-0.148923 64:-0.753603 65:-0.532277 66:-0.550794 67:-0.97007 68:-0.75188 69:-0.985612 70:-1 71:-1 72:-0.647923 73:1 
8 2:-0.563763 3:0.220444 4:-0.841386 5:0.306408 6:-0.0938145 7:-0.969516 8:-0.77078 9:0.391093 10:-0.833906 11:-0.985461 12:-0.900444 13:-0.259627 14:-0.142739 15:-0.436359 16:-0.894056 17:-0.946627 18:-0.697185 19:-0.0873923 20:-0.525821 21:-0.377007 22:-0.934517 23:-0.960784 24:-0.824231 25:-0.494811 26:-0.453628 27:-0.190498 28:-0.486589 29:-0.924499 30:-0.884029 31:-0.927316 32:-0.676303 33:-0.404671 34:-0.874732 35:-0.242207 36:-0.637011 37:-0.976515 38:-0.943493 39:-0.912053 40:-0.801128 41:-0.554392 42:-0.592273 43:-0.351596 44:-0.468818 45:-0.76357 46:-0.987764 47:-0.946312 48:-0.903165 49:-0.892916 50:-0.681966 51:-0.607184 52:-0.819806 53:-0.215707 54:-0.741721 55:-0.732445 56:-0.988461 57:-0.92494 58:-0.937577 59:-0.863772 60:-0.792694 61:-0.62326 62:-0.827322 63:-0.559948 64:-0.619469 65:-0.657893 66:-0.81105 67:-0.992163 68:-0.996062 69:-0.985115 70:-1 71:-0.999017 72:-0.220717 73:1 
0.6293232599441603 2:-0.590618 3:0.0735814 4:-0.810136 5:0.118428 6:-0.269468 7:-0.824173 8:-0.609549 9:0.464747 10:-0.358017 11:-0.957736 12:-0.594795 13:-0.394047 14:0.101546 15:0.229929 16:-0.777147 17:-0.836873 18:-0.448021 19:-0.078749 20:-0.165642 21:-0.29416 22:-0.59069 23:-0.907021 24:-0.508675 25:-0.418366 26:-0.366744 27:-0.0258849 28:-0.253359 29:-0.371634 30:-0.935203 31:-0.81999 32:-0.300127 33:-0.193058 34:-0.8832 35:-0.20433 36:-0.847389 37:-0.568814 38:-0.887385 39:-0.865956 40:-0.603705 41:-0.373317 42:-0.0547021 43:-0.434839 44:-0.586277 45:-0.0536363 46:-0.421426 47:-0.762354 48:-0.860095 49:-0.673613 50:-0.455544 51:-0.476215 52:-0.803765 53:0.173296 54:-0.2704 55:-0.466522 56:-0.513839 57:-0.898453 58:-0.947443 59:-0.801451 60:-0.448043 61:-0.231926 62:-0.392006 63:-0.68039 64:-0.363018 65:0.0375682 66:0.0795147 67:-1 68:-0.548388 69:-0.967626 70:-1 71:-1 72:-0.425956 73:1 
0.06075593465687987 2:-0.0514311 3:-0.192692 4:-0.935215 5:0.769252 6:-0.641429 7:-0.359223 8:0.227923 9:0.0993998 10:-0.410026 11:-0.274479 12:-0.745733 13:0.597196 14:-0.718833 15:-0.373698 16:-0.651627 17:-0.634126 18:0.223312 19:-0.0381141 20:-0.3408 21:-0.525378 22:-0.388566 23:-0.612738 24:-0.570948 25:0.373754 26:-0.348984 27:-0.485875 28:-0.524241 29:-0.860157 30:-0.912542 31:-0.700173 32:0.0285359 33:-0.0335181 34:-0.196441 35:-0.726271 36:-0.406906 37:-0.834926 38:-0.56363 39:-0.704343 40:-0.448107 41:0.204193 42:-0.0607734 43:-0.613278 44:-0.599613 45:-0.539388 46:-0.902373 47:-0.815013 48:-0.909024 49:-0.634104 50:-0.0966514 51:0.0784445 52:-0.33935 53:-0.690053 54:-0.452393 55:-0.433549 56:-0.936424 57:-0.665326 58:-0.754405 59:-0.719746 60:-0.383576 61:0.119478 62:0.0711795 63:-0.870723 64:-0.536774 65:-0.632757 66:-0.457714 67:-0.99224 68:-0.748538 69:-0.999361 70:-1 71:-1 72:-0.287338 73:1 
0.1057239005822251 2:-0.277078 3:-0.0553172 4:-0.673665 5:0.885361 6:-0.638004 7:-0.372805 8:-0.309346 9:0.533286 10:-0.629592 11:-0.883312 12:-0.653634 13:0.506219 14:-0.497173 15:-0.658507 16:-0.0141087 17:-0.601776 18:-0.506987 19:0.14501 20:-0.423562 21:-0.887831 22:-0.960965 23:-0.910401 24:-0.721265 25:0.0131348 26:-0.837751 27:-0.549499 28:-0.810018 29:-0.678864 30:-0.762013 31:-0.711945 32:-0.517791 33:-0.298554 34:-0.14339 35:-0.949794 36:-0.784635 37:-0.985812 38:-0.83223 39:-0.875266 40:-0.885665 41:-0.147608 42:-0.583878 43:-0.320831 44:-0.68514 45:-0.880616 46:-0.962965 47:-0.899838 48:-0.906892 49:-0.730129 50:-0.558829 51:-0.448506 52:0.00867061 53:-0.692484 54:-0.665357 55:-0.826964 56:-0.995119 57:-0.834409 58:-0.874366 59:-0.901247 60:-0.930033 61:-0.291186 62:-0.328541 63:-0.197331 64:-0.484131 65:-0.964533 66:-0.835375 67:-0.98063 68:-0.985402 69:-0.988489 70:-1 71:-0.999508 72:0.317837 73:1 
1.061163910792946 2:-0.297864 3:-0.0901678 4:-0.958753 5:0.500605 6:-0.766008 7:-0.837164 8:-0.262437 9:0.231949 10:-0.444145 11:-0.735489 12:-0.762223 13:0.213912 14:-0.569639 15:-0.741669 16:-0.99858 17:-0.971186 18:-0.298981 19:0.0450182 20:-0.789386 21:-0.592296 22:-0.746089 23:-0.907264 24:-0.656601 25:-0.0985127 26:-0.55532 27:-0.888297 28:-0.382188 29:-0.96398 30:-0.945615 31:-0.907425 32:-0.409175 33:-0.260443 34:-0.697115 35:-0.404049 36:-0.70684 37:-0.864042 38:-0.657282 39:-0.942151 40:-0.600659 41:-0.3177 42:-0.63956 43:-0.826224 44:-0.111906 45:-0.668986 46:-0.861747 47:-0.769402 48:-0.916728 49:-0.867603 50:-0.485275 51:-0.518418 52:-0.52934 53:-0.171745 54:-0.492101 55:-0.631485 56:-0.981145 57:-0.953301 58:-0.818395 59:-0.907717 60:-0.648646 61:-0.532472 62:-0.636215 63:-0.76619 64:-0.093206 65:-0.825043 66:-0.700976 67:-0.89534 68:-0.88169 69:-0.996614 70:-1 71:-0.999508 72:-0.170328 73:1 
2.750040072976364 2:-0.134042 3:-0.163908 4:-0.625222 5:0.576312 6:-0.143262 7:-0.695225 8:-0.275945 9:0.519965 10:-0.214906 11:-0.908259 12:-0.404277 13:0.0565506 14:0.473832 15:-0.522038 16:-0.728888 17:-0.508559 18:-0.302918 19:0.122569 20:0.229504 21:-0.805683 22:-0.928174 23:-0.827769 24:-0.190397 25:-0.225031 26:0.162375 27:-0.137685 28:-0.766351 29:-0.785945 30:-0.834282 31:-0.480838 32:-0.229996 33:-0.206066 34:0.169569 35:-0.404755 36:-0.774593 37:-0.991442 38:-0.625269 39:-0.737547 40:-0.125993 41:-0.209906 42:-0.1087 43:-0.00459356 44:-0.390653 45:-0.921732 46:-0.98935 47:-0.644593 48:-0.71379 49:-0.492637 50:-0.177741 51:-0.288609 52:-0.268596 53:-0.158068 54:-0.57327 55:-0.919225 56:-0.986897 57:-0.626366 58:-0.732875 59:-0.60427 60:-0.159568 61:-0.127216 62:-0.283551 63:-0.217417 64:-0.252526 65:-0.644081 66:-0.900769 67:-0.930968 68:-0.919076 69:-0.971223 70:-1 71:-1 72:-0.197808 73:1 
1.865371685685009 2:-0.590217 3:0.285461 4:-0.648333 5:0.469988 6:0.0919839 7:-0.750573 8:-0.789352 9:0.630192 10:-0.468274 11:-0.876464 12:-0.774193 13:-0.108364 14:0.215695 15:-0.731916 16:-0.648229 17:-0.846847 18:-0.657138 19:0.0817446 20:-0.358803 21:-0.564621 22:-0.925412 23:-0.905416 24:-0.816128 25:-0.353105 26:-0.214758 27:-0.442388 28:-0.46598 29:-0.978963 30:-0.962901 31:-0.855319 32:-0.534904 33:-0.335085 34:-0.367344 35:-0.408073 36:-0.440655 37:-0.921392 38:-0.861207 39:-0.921862 40:-0.950478 41:-0.229159 42:-0.51815 43:-0.291944 44:-0.33447 45:-0.725935 46:-0.952878 47:-0.876813 48:-0.941659 49:-0.834905 50:-0.527891 51:-0.39601 52:-0.366191 53:-0.36997 54:-0.29968 55:-0.940852 56:-0.969715 57:-0.866754 58:-0.930509 59:-0.931132 60:-0.980673 61:-0.117093 62:-0.90256 63:-0.165238 64:-0.784128 65:-0.595994 66:-0.783553 67:-0.968839 68:-0.976516 69:-0.98741 70:-1 71:-1 72:-0.621018 73:1 
3.564917730828676 2:-0.0723922 3:-0.0982521 4:-0.836363 5:0.672907 6:-0.417329 7:-0.990074 8:-0.157531 9:0.341235 10:-0.873007 11:-0.907478 12:-0.671774 13:0.208719 14:-0.438995 15:-0.768911 16:-0.887028 17:-0.796371 18:-0.207325 19:-0.0803503 20:-0.533042 21:-0.822339 22:-0.94195 23:-0.842824 24:-0.530681 25:-0.0719764 26:-0.757987 27:-0.280255 28:-0.846631 29:-0.990471 30:-0.802606 31:-0.674187 32:-0.269946 33:-0.376913 34:-0.187799 35:-0.424548 36:-0.845353 37:-0.952543 38:-0.817015 39:-0.7721 40:-0.415433 41:-0.184079 42:-0.79396 43:0.198588 44:-0.559389 45:-0.950105 46:-0.938264 47:-0.838492 48:-0.766052 49:-0.605111 50:-0.298709 51:-0.592479 52:-0.159094 53:0.129387 54:-0.615965 55:-0.96725 56:-0.983271 57:-0.754457 58:-0.857186 59:-0.665556 60:-0.313395 61:-0.31215 62:-0.646412 63:0.223554 64:-0.478836 65:-0.839333 66:-0.959198 67:-0.961055 68:-0.681342 69:-0.999315 70:-1 71:-1 72:-0.45722 73:1 
4.894380294970713 2:-0.132028 3:-0.164332 4:-0.660063 5:0.482028 6:-0.730244 7:-0.833973 8:-0.148551 9:0.250609 10:-0.345263 11:-0.985172 12:-0.467702 13:0.100033 14:-0.522719 15:-0.37411 16:-0.839588 17:-0.653494 18:-0.164384 19:-0.00376833 20:-0.266764 21:-0.866735 22:-0.879301 23:-0.84945 24:-0.37283 25:-0.106891 26:-0.563052 27:-0.122739 28:-0.693688 29:-0.971448 30:-0.816659 31:-0.564228 32:-0.311549 33:-0.114968 34:-0.574266 35:-0.591847 36:-0.538139 37:-0.969585 38:-0.66338 39:-0.738825 40:-0.33383 41:-0.340914 42:-0.396574 43:-0.109658 44:-0.586955 45:-0.86928 46:-0.986078 47:-0.809937 48:-0.728074 49:-0.499937 50:-0.430591 51:-0.365145 52:-0.877215 53:-0.282911 54:-0.188587 55:-0.708995 56:-0.959904 57:-0.880789 58:-0.747174 59:-0.633727 60:-0.260958 61:-0.583271 62:-0.407264 63:-0.286626 64:-0.770883 65:-0.699032 66:-0.66962 67:-0.978467 68:-0.963488 69:-0.973208 70:-1 71:-1 72:-0.513512 73:1 
7.494989472582512 2:-0.339869 3:0.123676 4:-0.901946 5:0.55173 6:-0.068229 7:-0.96646 8:-0.557357 9:0.499025 10:-0.594388 11:-0.600051 12:-0.98925 13:-0.0225014 14:-0.0991992 15:-0.826407 16:-0.690228 17:-0.883217 18:-0.611543 19:-0.0848004 20:-0.941556 21:-0.682039 22:-0.923598 23:-0.772121 24:-0.869023 25:-0.208018 26:-0.712862 27:-0.423736 28:-0.671461 29:-0.966246 30:-0.823908 31:-0.800643 32:-0.62964 33:-0.19462 34:-0.482379 35:-0.245842 36:-0.764994 37:-0.890715 38:-0.931521 39:-0.788244 40:-0.7534 41:-0.220332 42:-0.733711 43:0.000754811 44:-0.168869 45:-0.934445 46:-0.962328 47:-0.756965 48:-0.823583 49:-0.77731 50:-0.651583 51:-0.140369 52:-0.506453 53:0.156406 54:-0.362504 55:-0.878732 56:-0.996312 57:-0.725702 58:-0.885546 59:-0.741983 60:-0.685744 61:-0.3543 62:-0.524282 63:-0.0850972 64:-0.28442 65:-0.886518 66:-0.878188 67:-0.890035 68:-0.497238 69:-0.991367 70:-1 71:-1 72:-0.741114 73:1 
1.076664043028505 2:-0.586979 3:0.316871 4:-0.670157 5:0.463816 6:0.20261 7:-0.855717 8:-0.833232 9:0.69959 10:-0.343431 11:-0.936431 12:-0.885282 13:-0.125369 14:0.323993 15:-0.912378 16:-0.941423 17:-0.949923 18:-0.813716 19:0.24473 20:-0.565512 21:-0.563524 22:-0.982694 23:-0.978676 24:-0.954397 25:-0.347479 26:0.0524855 27:-0.596237 28:-0.361499 29:-0.981392 30:-0.9738 31:-0.962904 32:-0.824239 33:0.0540725 34:-0.525018 35:-0.209541 36:-0.246304 37:-0.993217 38:-0.970684 39:-0.971992 40:-0.932699 41:-0.516417 42:0.117074 43:-0.748039 44:0.0893901 45:-0.540512 46:-0.973272 47:-0.934043 48:-0.987186 49:-0.971426 50:-0.812027 51:-0.236213 52:-0.497054 53:-0.245723 54:0.142384 55:-0.668428 56:-0.968033 57:-0.899249 58:-0.962661 59:-0.949599 60:-0.891234 61:-0.591444 62:-0.147647 63:-0.888113 64:-0.285794 65:-0.416367 66:-0.910219 67:-0.956103 68:-0.96391 69:-0.997049 70:-1 71:-1 72:-0.403592 73:1 
0.4439429056979794 2:-0.360689 3:0.0781199 4:-0.925054 5:0.46198 6:-0.185404 7:-0.829058 8:-0.249656 9:0.471754 10:-0.64979 11:-0.563272 12:-0.705649 13:0.298262 14:0.0736551 15:-0.758589 16:-0.600101 17:-0.904172 18:-0.345037 19:0.358125 20:-0.414335 21:-0.598512 22:-0.91914 23:-0.839667 24:-0.447766 25:-0.0190209 26:-0.134177 27:-0.672912 28:-0.363591 29:-0.772183 30:-0.799099 31:-0.790503 32:-0.248495 33:0.257221 34:-0.714136 35:-0.682148 36:-0.105682 37:-0.914124 38:-0.876102 39:-0.939608 40:-0.31975 41:-0.166711 42:0.0665883 43:-0.906531 44:-0.487997 45:-0.339939 46:-0.919165 47:-0.820885 48:-0.889884 49:-0.705849 50:-0.164555 51:-0.104641 52:-0.643119 53:-0.860383 54:-0.365645 55:-0.384651 56:-0.98992 57:-0.915466 58:-0.948786 59:-0.93471 60:-0.217004 61:-0.0638142 62:-0.317462 63:-0.96994 64:-0.580852 65:-0.687983 66:-0.704593 67:-0.863205 68:0.072164 69:-0.984765 70:-1 71:-1 72:-0.319753 73:1 
0.3268620325762825 2:-0.593272 3:0.251148 4:-0.833321 5:0.305817 6:-0.0780381 7:-0.668195 8:-0.510331 9:0.402023 10:-0.727101 11:-0.697223 12:-0.9486 13:0.151683 14:-0.0633314 15:-0.0890944 16:-0.556 17:-0.724573 18:-0.504397 19:0.378887 20:-0.859098 21:0.0380415 22:-0.624716 23:-0.81822 24:-0.981017 25:-0.105936 26:0.0992178 27:-0.353622 28:-0.122208 29:-0.949558 30:-0.89173 31:-0.789259 32:-0.660077 33:0.113998 34:-0.494718 35:-0.175873 36:-0.550431 37:-0.963305 38:-0.827569 39:-0.847898 40:-0.861517 41:-0.383334 42:0.0517856 43:-0.780076 44:-0.24289 45:-0.558318 46:-0.888936 47:-0.7428 48:-0.930109 49:-0.853267 50:-0.59364 51:-0.287463 52:-0.493961 53:-0.357366 54:-0.79659 55:-0.0389124 56:-0.951617 57:-0.88308 58:-0.890859 59:-0.815653 60:-0.871644 61:-0.349235 62:-0.345435 63:-0.548299 64:-0.475598 65:-0.503335 66:-0.0836178 67:-0.954245 68:-0.672414 69:-0.979687 70:-1 71:-0.999508 72:-0.377166 73:1 
0.3191497113949831 2:-0.775548 3:0.331139 4:-0.951692 5:-0.256312 6:0.0595869 7:-0.80311 8:-0.693104 9:-0.343301 10:-0.880548 11:-0.430445 12:-0.538782 13:-0.40138 14:-0.962165 15:-0.182441 16:-0.829723 17:-0.939419 18:-0.40901 19:-0.460517 20:0.116174 21:0.134428 22:-0.992008 23:-0.954185 24:-0.680131 25:-0.420419 26:-0.849997 27:0.560356 28:0.257817 29:-0.641885 30:-0.860578 31:-0.757008 32:-0.656017 33:-0.506103 34:-0.276852 35:0.468776 36:0.187621 37:-0.800906 38:-0.524646 39:-0.795071 40:-0.559261 41:-0.638448 42:-0.793243 43:0.0352057 44:0.230825 45:-0.481588 46:-0.95296 47:-0.907689 48:-0.948707 49:-0.597785 50:-0.64519 51:-0.539693 52:-0.344523 53:-0.0888185 54:-0.549381 55:-0.87243 56:-0.979063 57:-0.858589 58:-0.927815 59:-0.902876 60:-0.339827 61:-0.881676 62:-0.617075 63:-0.0247171 64:-0.774647 65:-0.458818 66:-0.671574 67:-0.938757 68:0.43077 69:-0.97506 70:-1 71:-1 72:-0.588153 73:1 
0.509146807313646 2:-0.948571 3:0.452533 4:-0.95239 5:-0.317331 6:-0.0389644 7:-0.996764 8:-0.818738 9:0.363663 10:-0.319021 11:-0.435674 12:-0.708499 13:-0.765496 14:0.5194 15:0.722087 16:-0.688621 17:-0.829671 18:-0.568273 19:-0.423181 20:-0.0373879 21:0.75864 22:-0.976107 23:-0.887759 24:-0.718662 25:-0.817333 26:-0.141536 27:-0.18709 28:0.432498 29:-0.940471 30:-0.944493 31:-0.882794 32:-0.408845 33:-0.617908 34:-0.2029 35:0.0395827 36:0.10439 37:-0.815755 38:-0.696587 39:-0.951928 40:-0.876026 41:-0.419137 42:-0.436232 43:-0.822863 44:-0.00171815 45:-0.0228229 46:-0.922761 47:-0.805058 48:-0.944114 49:-0.917246 50:-0.57967 51:-0.619037 52:-0.536056 53:-0.407159 54:-0.712443 55:0.363989 56:-0.994968 57:-0.734009 58:-0.777999 59:-0.833652 60:-0.733827 61:-0.438476 62:-0.505232 63:-0.554214 64:-0.165528 65:-0.461598 66:0.119517 67:-0.959789 68:1 69:-0.98705 70:-1 71:-1 72:-0.660188 73:1 
1.544729293803812 2:-0.446402 3:0.0673017 4:-0.934585 5:0.425832 6:-0.404551 7:-0.998596 8:-0.580588 9:0.38341 10:-0.668263 11:-0.800623 12:-0.774557 13:-0.0760126 14:-0.295075 15:-0.496389 16:-0.825546 17:-0.901525 18:-0.536654 19:-0.0382227 20:-0.388266 21:-0.637966 22:-0.716409 23:-0.888099 24:-0.624493 25:-0.395076 26:-0.652617 27:-0.304558 28:-0.717928 29:-0.994173 30:-0.877623 31:-0.859267 32:-0.469523 33:-0.426782 34:-0.584338 35:-0.43422 36:-0.718133 37:-0.847675 38:-0.627761 39:-0.899577 40:-0.54406 41:-0.369249 42:-0.686273 43:-0.450615 44:-0.353014 45:-0.825136 46:-0.929066 47:-0.896668 48:-0.845171 49:-0.90236 50:-0.451034 51:-0.414379 52:-0.163527 53:-0.819644 54:-0.448916 55:-0.939986 56:-0.973004 57:-0.817056 58:-0.788709 59:-0.899804 60:-0.586102 61:-0.425234 62:-0.566287 63:0.0403014 64:-0.604829 65:-0.785285 66:-0.855936 67:-1 68:-0.589744 69:-0.994245 70:-1 71:-1 72:-0.732203 73:1 
