svm_type c_svc
kernel_type rbf
gamma 2
nr_class 2
total_sv 1343
rho 55.1468
label 1 -1
nr_sv 671 672
SV
32768 1:-0.993976 2:-0.999955 3:-0.999998 4:-1 5:-0.998261 6:-0.995009 7:-0.0338219 8:-0.997863 9:-1 10:-0.980995 11:-1 12:-0.999508 13:-0.373446 14:1 
32768 1:-0.994705 2:-0.999958 3:-1 4:-1 5:-0.998261 6:-0.995009 7:-0.0338219 8:-0.979993 9:-0.98906 10:-0.988615 11:-1 12:-0.999508 13:-0.494572 14:1 
32768 1:-0.994081 2:-1 3:-1 4:-1 5:-0.998261 6:-0.995009 7:-0.0338219 8:-0.925365 9:-0.90204 10:-0.996471 11:-1 12:-1 13:-0.449768 14:1 
32768 1:-0.992451 2:-0.999993 3:-1 4:-1 5:-0.998261 6:-0.995009 7:-0.0338219 8:-0.918368 9:-0.85 10:-0.999129 11:-1 12:-1 13:-0.256393 14:1 
32768 1:-0.975634 2:-0.999925 3:-0.999999 4:-1 5:-0.998261 6:-0.995009 7:-0.0338219 8:-0.860414 9:0.480916 10:-0.995294 11:-1 12:-1 13:-0.451985 14:1 
32768 1:-0.991063 2:-0.999983 3:-0.999999 4:-0.999999 5:-0.998261 6:-0.995009 7:-0.0338219 8:-1 9:-1 10:-0.988235 11:-1 12:-0.999508 13:-0.618294 14:1 
32768 1:-0.992506 2:-1 3:-0.999996 4:-0.999999 5:-0.998261 6:-0.995009 7:-0.0338219 8:-0.873893 9:-0.903448 10:-0.996285 11:-1 12:-0.999508 13:-0.585266 14:1 
32768 1:-0.989574 2:-0.999944 3:-0.999982 4:-0.999998 5:-0.998261 6:-0.995009 7:-0.0338219 8:-0.912087 9:-0.912088 10:-0.996863 11:-1 12:-0.999508 13:-0.375911 14:1 
32768 1:-0.991891 2:-0.999995 3:-0.999999 4:-0.999997 5:-0.998261 6:-0.995009 7:-0.0338219 8:-1 9:-1 10:-0.996078 11:-1 12:-0.999508 13:-0.5944 14:1 
32768 1:-0.995333 2:-0.999961 3:-0.999994 4:-1 5:-0.998261 6:-0.995009 7:-0.0338219 8:-0.951767 9:-0.971864 10:-0.997059 11:-1 12:-0.998525 13:-0.113299 14:1 
32768 1:-0.995005 2:-0.999965 3:-0.999999 4:-1 5:-0.998261 6:-0.995009 7:-0.0338219 8:-0.99325 9:-0.996062 10:-0.98783 11:-1 12:-0.999017 13:-0.279122 14:1 
32768 1:-0.993514 2:-0.999994 3:-0.999999 4:-1 5:-0.998261 6:-0.995009 7:-0.0338219 8:-0.992907 9:-0.993794 10:-0.997811 11:-1 12:-0.999017 13:-0.0326134 14:1 
32768 1:-0.985463 2:-0.999765 3:-0.999989 4:-0.999994 5:-0.998261 6:-0.995009 7:-0.0338219 8:-0.980238 9:-0.861672 10:-0.979832 11:-1 12:-1 13:-0.391926 14:1 
32768 1:-0.958265 2:-0.998658 3:-0.999935 4:-0.999975 5:-0.998261 6:-0.995009 7:-0.0338219 8:-0.988795 9:-0.941176 10:-0.997566 11:-1 12:-1 13:0.407058 14:1 
32768 1:-0.988729 2:-0.999855 3:-0.999998 4:-0.999995 5:-0.998261 6:-0.995009 7:-0.0338219 8:-0.938697 9:-0.923372 10:-0.988235 11:-1 12:-1 13:-0.141027 14:1 
32768 1:-0.979118 2:-0.99986 3:-0.999826 4:-0.99999 5:-0.998261 6:-0.995009 7:-0.0338219 8:-1 9:-0.821428 10:-0.992157 11:-1 12:-0.999508 13:0.013374 14:1 
32768 1:-0.993461 2:-0.99998 3:-1 4:-1 5:-0.998261 6:-0.995009 7:-0.0338219 8:-0.992795 9:-0.990544 10:-0.997811 11:-1 12:-0.998525 13:0.385937 14:1 
32768 1:-0.972688 2:-0.999389 3:-0.999992 4:-0.999998 5:-0.998261 6:-0.995009 7:-0.0338219 8:-0.926267 9:-0.51613 10:-0.99095 11:-1 12:-1 13:0.00858619 14:1 
32768 1:-0.985592 2:-0.999927 3:-0.999956 4:-0.999988 5:-0.998261 6:-0.995009 7:-0.0338219 8:-0.916745 9:-0.662252 10:-0.980186 11:-1 12:-1 13:-0.724915 14:1 
32768 1:-0.98829 2:-0.999963 3:-0.999982 4:-0.999988 5:-0.998261 6:-0.995009 7:-0.0338219 8:-0.970315 9:-0.945166 10:-0.984314 11:-1 12:-0.999508 13:-0.291091 14:1 
32768 1:-0.965458 2:-0.999842 3:-0.99948 4:-0.999838 5:-0.998261 6:-0.995007 7:-0.0338219 8:-0.697758 9:0.173554 10:-0.986159 11:-1 12:-1 13:-0.562917 14:1 
32768 1:-0.994056 2:-0.999966 3:-0.999994 4:-0.999999 5:-0.998261 6:-0.995009 7:-0.0338219 8:-0.983922 9:-1 10:-0.983333 11:-1 12:-0.999508 13:-0.428188 14:1 
32768 1:-0.986743 2:-0.999987 3:-0.999861 4:-0.999987 5:-0.998261 6:-0.995009 7:-0.0338219 8:-0.888503 9:-0.829268 10:-0.996285 11:-1 12:-0.999508 13:-0.501117 14:1 
32768 1:-0.937456 2:-0.997324 3:-0.999881 4:-0.999894 5:-0.998261 6:-0.995006 7:-0.0338219 8:-0.987371 9:-0.96685 10:-0.911111 11:-1 12:-1 13:-0.616925 14:1 
32768 1:-0.994037 2:-0.99996 3:-1 4:-1 5:-0.998261 6:-0.995009 7:-0.0338219 8:-0.995031 9:-0.997826 10:-0.984615 11:-1 12:-0.999508 13:-0.149587 14:1 
19947.21866371921 1:-0.972799 2:-0.999864 3:-0.999991 4:-0.999999 5:-0.998261 6:-0.995009 7:-0.0338219 8:-0.566005 9:0.772152 10:-0.993464 11:-1 12:-1 13:-0.28671 14:1 
32768 1:-0.96842 2:-0.99926 3:-0.999813 4:-0.99981 5:-0.998261 6:-0.995004 7:-0.0338219 8:-0.969659 9:-0.893806 10:-0.969118 11:-1 12:-0.999508 13:-0.380681 14:1 
32768 1:-0.991578 2:-0.999997 3:-0.999994 4:-1 5:-0.998261 6:-0.995009 7:-0.0338219 8:-0.98811 9:-0.976592 10:-0.997794 11:-1 12:-0.999508 13:0.0393181 14:1 
32768 1:-0.988807 2:-0.999946 3:-0.999999 4:-1 5:-0.998261 6:-0.995009 7:-0.0338219 8:-0.889296 9:-0.874644 10:-0.998616 11:-1 12:-1 13:-0.208657 14:1 
32768 1:-0.962681 2:-0.999313 3:-0.999634 4:-0.99992 5:-0.998261 6:-0.995007 7:-0.0338219 8:-0.812283 9:-0.661836 10:-0.971242 11:-1 12:-1 13:-0.591785 14:1 
32768 1:-0.990065 2:-0.999974 3:-0.999983 4:-0.999999 5:-0.998261 6:-0.995009 7:-0.0338219 8:-0.991696 9:-0.987284 10:-0.995518 11:-1 12:-0.999508 13:0.297787 14:1 
32768 1:-0.995477 2:-0.99997 3:-1 4:-1 5:-0.998261 6:-0.995009 7:-0.0338219 8:-1 9:-1 10:-0.986057 11:-1 12:-0.999508 13:-0.179807 14:1 
32768 1:-0.983421 2:-0.999661 3:-0.999996 4:-0.999999 5:-0.998261 6:-0.995009 7:-0.0338219 8:-0.988741 9:-0.97537 10:-0.976471 11:-1 12:-1 13:-0.130427 14:1 
32768 1:-0.993944 2:-1 3:-0.999959 4:-0.999995 5:-0.998261 6:-0.995009 7:-0.0338219 8:-0.932441 9:-0.921182 10:-0.997523 11:-1 12:-1 13:-0.368544 14:1 
32768 1:-0.989628 2:-0.9999 3:-0.999958 4:-0.999991 5:-0.998261 6:-0.995009 7:-0.0338219 8:-1 9:-0.955128 10:-0.991816 11:-1 12:-0.999017 13:-0.0754914 14:1 
32768 1:-0.950271 2:-0.999176 3:-0.999826 4:-0.999813 5:-0.998261 6:-0.995013 7:-0.0338219 8:-1 9:-1 10:-0.981586 11:-1 12:-1 13:-0.771406 14:1 
215.5784632865458 1:-0.968658 2:-0.999949 3:-0.999238 4:-0.999848 5:-0.998261 6:-0.99501 7:-0.0338219 8:-0.869918 9:-0.284552 10:-0.996791 11:-1 12:-1 13:-0.545206 14:0.592157 
32768 1:-0.974745 2:-0.999703 3:-0.999707 4:-0.999831 5:-0.998261 6:-0.995011 7:-0.0338219 8:-0.931429 9:-0.46 10:-0.994464 11:-1 12:-1 13:-0.136187 14:1 
32768 1:-0.986786 2:-0.999748 3:-1 4:-1 5:-0.998261 6:-0.995009 7:-0.0338219 8:-1 9:-0.97151 10:-0.972318 11:-1 12:-1 13:-0.260925 14:1 
16163.50549824184 1:-0.984355 2:-0.999867 3:-0.999998 4:-0.999999 5:-0.998261 6:-0.995009 7:-0.0338219 8:-0.965065 9:-0.82096 10:-0.975232 11:-1 12:-1 13:-0.810159 14:1 
32768 1:-0.99457 2:-0.999965 3:-0.999999 4:-1 5:-0.998261 6:-0.995009 7:-0.0338219 8:-0.966821 9:-1 10:-0.988747 11:-1 12:-0.999508 13:-0.562926 14:1 
32768 1:-0.994721 2:-0.999959 3:-1 4:-1 5:-0.998261 6:-0.995009 7:-0.0338219 8:-0.995122 9:-1 10:-0.983333 11:-1 12:-0.999017 13:-0.418489 14:1 
32768 1:-0.985149 2:-0.999734 3:-0.999984 4:-0.99999 5:-0.998261 6:-0.995009 7:-0.0338219 8:-0.984626 9:-0.96861 10:-0.979679 11:-1 12:-1 13:-0.231094 14:1 
32768 1:-0.982552 2:-0.999823 3:-0.999994 4:-0.999997 5:-0.998261 6:-0.995009 7:-0.0338219 8:-0.974603 9:-0.925926 10:-0.985621 11:-1 12:-0.999508 13:-0.568977 14:1 
32768 1:-0.982764 2:-0.999942 3:-0.999999 4:-0.999998 5:-0.998261 6:-0.995009 7:-0.0338219 8:-0.859771 9:-0.386504 10:-0.988927 11:-1 12:-1 13:-0.65831 14:1 
0.2736720761778897 1:-0.978968 2:-0.999951 3:-0.999995 4:-0.999999 5:-0.998261 6:-0.995009 7:-0.0338219 8:-0.970411 9:-0.728156 10:-1 11:-1 12:-1 13:-0.740647 14:0.189611 
32768 1:-0.992876 2:-0.999948 3:-0.999994 4:-0.999999 5:-0.998261 6:-0.995009 7:-0.0338219 8:-0.991429 9:-0.99 10:-0.99287 11:-1 12:-0.999508 13:-0.0806413 14:1 
32768 1:-0.984798 2:-0.999692 3:-1 4:-1 5:-0.998261 6:-0.995009 7:-0.0338219 8:-1 9:-1 10:-0.93369 11:-1 12:-1 13:-0.61992 14:1 
32768 1:-0.992675 2:-0.999999 3:-0.999999 4:-1 5:-0.998261 6:-0.995009 7:-0.0338219 8:-0.957829 9:-0.90775 10:-0.998482 11:-1 12:-0.999508 13:-0.650192 14:1 
32768 1:-0.965863 2:-0.999469 3:-0.999603 4:-0.99993 5:-0.998261 6:-0.995008 7:-0.0338219 8:-0.907833 9:-0.064516 10:-0.978151 11:-1 12:-1 13:-0.608957 14:1 
32768 1:-0.984847 2:-0.999751 3:-0.999989 4:-0.999994 5:-0.998261 6:-0.995009 7:-0.0338219 8:-0.993337 9:-0.906706 10:-0.975232 11:-1 12:-1 13:-0.440458 14:1 
32768 1:-0.993341 2:-0.999989 3:-0.999998 4:-0.999999 5:-0.998261 6:-0.995009 7:-0.0338219 8:-0.889296 9:-0.925926 10:-0.997954 11:-1 12:-0.999508 13:-0.412075 14:1 
24.14588516650775 1:-0.958485 2:-0.999161 3:-0.999815 4:-0.999976 5:-0.998261 6:-0.995009 7:-0.0338219 8:-1 9:-0.442622 10:-0.980392 11:-1 12:-1 13:-0.748253 14:0.262411 
32768 1:-0.962897 2:-0.999007 3:-0.999984 4:-0.999967 5:-0.998261 6:-0.995008 7:-0.0338219 8:-0.897399 9:-0.785536 10:-0.961176 11:-1 12:-1 13:-0.606899 14:1 
32768 1:-0.961155 2:-0.999235 3:-0.999767 4:-0.999933 5:-0.998261 6:-0.99501 7:-0.0338219 8:-0.892183 9:-0.150944 10:-0.978151 11:-1 12:-1 13:-0.449008 14:1 
32768 1:-0.987719 2:-0.999801 3:-0.999973 4:-0.999981 5:-0.998261 6:-0.995009 7:-0.0338219 8:-0.982281 9:-0.963824 10:-0.983193 11:-1 12:-1 13:-0.287558 14:1 
32768 1:-0.994785 2:-0.99997 3:-1 4:-1 5:-0.998261 6:-0.995009 7:-0.0338219 8:-0.983979 9:-0.981308 10:-0.994427 11:-1 12:-1 13:-0.466278 14:1 
32768 1:-0.953144 2:-0.998345 3:-0.999977 4:-0.999962 5:-0.998261 6:-0.995008 7:-0.0338219 8:-1 9:-0.93464 10:-0.934641 11:-1 12:-1 13:-0.544199 14:1 
22959.22430345664 1:-0.992195 2:-0.999998 3:-0.999999 4:-1 5:-0.998261 6:-0.995009 7:-0.0338219 8:-0.873015 9:-0.961112 10:-0.99944 11:-1 12:-0.998033 13:-0.583888 14:1 
32768 1:-0.987484 2:-0.999944 3:-0.999945 4:-0.999995 5:-0.998261 6:-0.995009 7:-0.0338219 8:-0.920761 9:-0.829334 10:-0.992941 11:-1 12:-1 13:-0.391113 14:1 
32768 1:-0.949936 2:-0.998748 3:-0.998791 4:-0.999399 5:-0.99826 6:-0.995001 7:-0.0338222 8:-1 9:-0.263158 10:-0.984314 11:-1 12:-1 13:0.189656 14:1 
32768 1:-0.995761 2:-0.999974 3:-1 4:-1 5:-0.998261 6:-0.995009 7:-0.0338219 8:-0.940055 9:-0.970354 10:-0.997199 11:-1 12:-0.999017 13:-0.257444 14:1 
32768 1:-0.987734 2:-0.999949 3:-0.999949 4:-0.999996 5:-0.998261 6:-0.995009 7:-0.0338219 8:-0.920974 9:-0.81383 10:-0.989916 11:-1 12:-1 13:-0.358235 14:1 
32768 1:-0.991819 2:-0.999958 3:-0.999986 4:-0.999997 5:-0.998261 6:-0.995009 7:-0.0338219 8:-0.913979 9:-0.913978 10:-0.991855 11:-1 12:-0.999508 13:-0.39364 14:1 
32768 1:-0.988179 2:-0.999992 3:-0.999986 4:-0.999995 5:-0.998261 6:-0.995009 7:-0.0338219 8:-0.975019 9:-0.930784 10:-0.99095 11:-1 12:-0.999017 13:-0.290005 14:1 
32768 1:-0.957452 2:-0.99855 3:-1 4:-1 5:-0.998261 6:-0.995009 7:-0.0338219 8:-1 9:-0.937008 10:-0.985621 11:-1 12:-1 13:0.268681 14:1 
32768 1:-0.985441 2:-0.999821 3:-0.9999 4:-0.999971 5:-0.998261 6:-0.995009 7:-0.0338219 8:-0.949488 9:-0.900552 10:-0.981176 11:-1 12:-1 13:-0.190884 14:1 
32768 1:-0.987025 2:-0.999978 3:-0.999996 4:-1 5:-0.998261 6:-0.995009 7:-0.0338219 8:-0.908194 9:-0.950566 10:-0.991176 11:-1 12:-0.999017 13:-0.827057 14:1 
32768 1:-0.988455 2:-0.999848 3:-0.999998 4:-0.999995 5:-0.998261 6:-0.995009 7:-0.0338219 8:-1 9:-0.938462 10:-0.979412 11:-1 12:-1 13:-0.451985 14:1 
32768 1:-0.991063 2:-0.999983 3:-0.999999 4:-0.999999 5:-0.998261 6:-0.995009 7:-0.0338219 8:-1 9:-1 10:-0.988235 11:-1 12:-0.999508 13:-0.618294 14:1 
32768 1:-0.99391 2:-0.999994 3:-0.999996 4:-0.999997 5:-0.998261 6:-0.995009 7:-0.0338219 8:-0.971159 9:-0.946372 10:-0.998482 11:-1 12:-0.999508 13:-0.433832 14:1 
32768 1:-0.947568 2:-0.998063 3:-0.999816 4:-0.999927 5:-0.998261 6:-0.995009 7:-0.0338219 8:-1 9:0.1 10:-0.971765 11:-1 12:-1 13:-0.202783 14:1 
4639.796653315864 1:-0.894062 2:-0.99641 3:-0.998557 4:-0.999539 5:-0.998261 6:-0.995032 7:-0.0338219 8:-0.871721 9:0.704082 10:-0.983773 11:-1 12:-1 13:-0.446782 14:1 
14592.85437622406 1:-0.956065 2:-0.998474 3:-0.999999 4:-0.999999 5:-0.998261 6:-0.995009 7:-0.0338219 8:-1 9:-0.937008 10:-0.974902 11:-1 12:-1 13:-0.00935471 14:1 
32768 1:-0.953144 2:-0.998345 3:-0.999977 4:-0.999962 5:-0.998261 6:-0.995008 7:-0.0338219 8:-1 9:-0.93464 10:-0.934641 11:-1 12:-1 13:-0.544199 14:1 
20692.24704716021 1:-0.931275 2:-0.997106 3:-0.99933 4:-0.999567 5:-0.99826 6:-0.995008 7:-0.033822 8:-0.974318 9:-0.820224 10:-0.937255 11:-1 12:-1 13:-0.495384 14:1 
32768 1:-0.987182 2:-0.999902 3:-0.999995 4:-0.999998 5:-0.998261 6:-0.995009 7:-0.0338219 8:-0.970005 9:-0.963254 10:-0.981699 11:-1 12:-0.999508 13:-0.423895 14:1 
32768 1:-0.994659 2:-0.999959 3:-1 4:-1 5:-0.998261 6:-0.995009 7:-0.0338219 8:-0.977998 9:-0.980748 10:-0.997587 11:-1 12:-0.999017 13:0.168765 14:1 
4387.104513117004 1:-0.920623 2:-0.997605 3:-0.999252 4:-0.999637 5:-0.998261 6:-0.995025 7:-0.0338219 8:-0.92381 9:0.44762 10:-0.98009 11:-1 12:-0.999508 13:-0.660298 14:1 
32768 1:-0.989941 2:-0.999997 3:-1 4:-1 5:-0.998261 6:-0.995009 7:-0.0338219 8:-1 9:-1 10:-0.998824 11:-1 12:-0.999508 13:0.170885 14:1 
32768 1:-0.979244 2:-0.999854 3:-0.999998 4:-0.999998 5:-0.998261 6:-0.995009 7:-0.0338219 8:-0.771429 9:0.15 10:-0.99308 11:-1 12:-1 13:-0.495967 14:1 
32768 1:-0.991606 2:-0.999971 3:-0.999996 4:-0.999999 5:-0.998261 6:-0.995009 7:-0.0338219 8:-0.948981 9:-0.959822 10:-0.993137 11:-1 12:-0.999017 13:-0.438143 14:1 
32768 1:-0.992369 2:-0.999986 3:-0.999983 4:-0.999999 5:-0.998261 6:-0.995009 7:-0.0338219 8:-0.974992 9:-0.969366 10:-0.99457 11:-1 12:-0.999508 13:0.165434 14:1 
32768 1:-0.985649 2:-0.999947 3:-0.999969 4:-0.999997 5:-0.998261 6:-0.995009 7:-0.0338219 8:-0.899273 9:-0.945762 10:-0.979239 11:-1 12:-1 13:-0.704633 14:1 
32768 1:-0.962526 2:-0.998945 3:-0.999994 4:-0.999999 5:-0.998261 6:-0.995009 7:-0.0338219 8:-0.833767 9:0.345454 10:-0.998431 11:-1 12:-1 13:-0.0102646 14:1 
32768 1:-0.985706 2:-0.999975 3:-1 4:-1 5:-0.998261 6:-0.995009 7:-0.0338219 8:-0.838384 9:-0.464646 10:-0.995294 11:-1 12:-1 13:-0.661764 14:1 
32768 1:-0.98533 2:-0.999876 3:-0.999993 4:-0.999996 5:-0.998261 6:-0.995009 7:-0.0338219 8:-0.959022 9:-0.968128 10:-0.983957 11:-1 12:-0.998525 13:-0.51284 14:1 
32768 1:-0.965014 2:-0.999084 3:-0.99999 4:-0.999961 5:-0.998261 6:-0.995008 7:-0.0338219 8:-0.833767 9:0.345454 10:-0.973856 11:-1 12:-1 13:-0.328369 14:1 
32768 1:-0.971312 2:-0.999218 3:-1 4:-1 5:-0.998261 6:-0.995009 7:-0.0338219 8:-1 9:-1 10:-0.882353 11:-1 12:-1 13:-0.672974 14:1 
32768 1:-0.98579 2:-0.999951 3:-0.999879 4:-0.999998 5:-0.998261 6:-0.995009 7:-0.0338219 8:-0.963134 9:-0.930876 10:-0.99095 11:-1 12:-0.999017 13:-0.151274 14:1 
21899.76906341559 1:-0.953739 2:-0.998343 3:-1 4:-1 5:-0.998261 6:-0.995009 7:-0.0338219 8:-0.98275 9:-0.94717 10:-0.997983 11:-1 12:-1 13:0.346195 14:1 
32768 1:-0.968401 2:-0.999097 3:-0.999999 4:-0.999999 5:-0.998261 6:-0.995009 7:-0.0338219 8:-1 9:-0.974522 10:-0.950588 11:-1 12:-1 13:-0.419964 14:1 
32768 1:-0.995338 2:-0.999973 3:-0.999997 4:-1 5:-0.998261 6:-0.995009 7:-0.0338219 8:-0.98264 9:-0.979746 10:-0.990588 11:-1 12:-0.999508 13:-0.124888 14:1 
32566.70557367695 1:-0.990948 2:-0.999982 3:-0.999998 4:-0.999999 5:-0.998261 6:-0.995009 7:-0.0338219 8:-0.997936 9:-1 10:-0.988615 11:-1 12:-0.999508 13:-0.596122 14:1 
32768 1:-0.981328 2:-0.999935 3:-0.999974 4:-0.999997 5:-0.998261 6:-0.995009 7:-0.0338219 8:-0.91133 9:-0.836206 10:-0.988927 11:-1 12:-0.999508 13:-0.0956142 14:1 
32768 1:-0.991789 2:-0.999999 3:-0.999992 4:-0.999999 5:-0.998261 6:-0.995009 7:-0.0338219 8:-0.929339 9:-0.94086 10:-0.997456 11:-1 12:-0.999017 13:-0.719571 14:1 
32768 1:-0.932469 2:-0.997924 3:-0.997821 4:-0.999244 5:-0.998261 6:-0.995014 7:-0.0338225 8:-1 9:-0.9823 10:-0.981373 11:-1 12:-1 13:-0.428744 14:1 
32768 1:-0.996592 2:-0.999986 3:-1 4:-1 5:-0.998261 6:-0.995009 7:-0.0338219 8:-0.993385 9:-0.985528 10:-0.993028 11:-1 12:-0.999508 13:0.0416854 14:1 
32768 1:-0.991135 2:-0.999963 3:-0.99994 4:-0.999998 5:-0.998261 6:-0.995009 7:-0.0338219 8:-1 9:-0.97543 10:-0.9939 11:-1 12:-0.999508 13:-0.0944393 14:1 
32768 1:-0.988568 2:-0.999974 3:-0.999925 4:-0.999994 5:-0.998261 6:-0.995009 7:-0.0338219 8:-0.910946 9:-0.896104 10:-0.997479 11:-1 12:-1 13:-0.275209 14:1 
32768 1:-0.945977 2:-0.997862 3:-1 4:-0.999999 5:-0.998261 6:-0.995009 7:-0.0338219 8:-0.880597 9:-0.820896 10:-0.849412 11:-1 12:-1 13:-0.729252 14:1 
32768 1:-0.969195 2:-0.999224 3:-0.99998 4:-0.999996 5:-0.998261 6:-0.995009 7:-0.0338219 8:-0.978837 9:-0.74074 10:-0.993808 11:-0.999711 12:-1 13:0.106736 14:1 
32768 1:-0.99307 2:-0.999931 3:-0.999988 4:-0.999999 5:-0.998261 6:-0.995009 7:-0.0338219 8:-1 9:-1 10:-0.982353 11:-1 12:-0.999508 13:-0.350453 14:1 
32768 1:-0.992148 2:-0.999933 3:-1 4:-1 5:-0.998261 6:-0.995009 7:-0.0338219 8:-0.97915 9:-0.979476 10:-0.990892 11:-1 12:-0.999508 13:0.0358023 14:1 
32768 1:-0.994627 2:-0.999964 3:-0.999999 4:-1 5:-0.998261 6:-0.995009 7:-0.0338219 8:-0.95576 9:-1 10:-0.985434 11:-1 12:-0.999508 13:-0.595292 14:1 
29.47791440510076 1:-0.994734 2:-0.999998 3:-0.999999 4:-1 5:-0.998261 6:-0.995009 7:-0.0338219 8:-0.732304 9:-0.972972 10:-1 11:-1 12:-1 13:-0.673256 14:1 
32768 1:-0.982724 2:-0.999633 3:-1 4:-1 5:-0.998261 6:-0.995009 7:-0.0338219 8:-1 9:-0.990268 10:-0.961765 11:-1 12:-1 13:-0.381282 14:1 
32768 1:-0.956785 2:-0.999226 3:-0.999287 4:-0.998772 5:-0.99826 6:-0.994982 7:-0.0338221 8:-0.858558 9:-0.717822 10:-0.973756 11:-1 12:-0.999017 13:-0.630829 14:1 
32768 1:-0.979781 2:-0.999604 3:-0.999944 4:-0.999948 5:-0.998261 6:-0.995008 7:-0.0338219 8:-0.96253 9:-0.983606 10:-0.966387 11:-1 12:-1 13:-0.416271 14:1 
32768 1:-0.954808 2:-0.998408 3:-0.999983 4:-0.999975 5:-0.998261 6:-0.995008 7:-0.0338219 8:-1 9:-0.942446 10:-0.890196 11:-1 12:-1 13:-0.633682 14:1 
32768 1:-0.996575 2:-0.999984 3:-1 4:-1 5:-0.998261 6:-0.995009 7:-0.0338219 8:-0.931609 9:-0.981102 10:-0.991855 11:-1 12:-0.999508 13:-0.521549 14:1 
32768 1:-0.967113 2:-0.999038 3:-1 4:-1 5:-0.998261 6:-0.995009 7:-0.0338219 8:-1 9:-0.793104 10:-0.967647 11:-1 12:-1 13:-0.172996 14:1 
152.2045458526932 1:-0.987733 2:-0.999988 3:-0.999997 4:-1 5:-0.998261 6:-0.995009 7:-0.0338219 8:-0.997781 9:-0.957282 10:-0.998852 11:-1 12:-0.999508 13:-0.602624 14:0.786668 
32768 1:-0.993553 2:-0.999954 3:-1 4:-1 5:-0.998261 6:-0.995009 7:-0.0338219 8:-0.949733 9:-0.997412 10:-0.984314 11:-1 12:-0.999508 13:-0.539905 14:1 
32768 1:-0.994833 2:-0.999994 3:-0.999999 4:-1 5:-0.998261 6:-0.995009 7:-0.0338219 8:-0.924199 9:-0.938776 10:-0.996791 11:-1 12:-0.999017 13:-0.213621 14:1 
87.30357762847794 1:-0.977398 2:-0.999918 3:-0.999993 4:-0.99999 5:-0.998261 6:-0.995009 7:-0.0338219 8:-0.976873 9:-0.969646 10:-0.991855 11:-1 12:-0.999017 13:-0.564507 14:0.741293 
32768 1:-0.981036 2:-0.999902 3:-0.99997 4:-0.999969 5:-0.998261 6:-0.995009 7:-0.0338219 8:-0.843266 9:-0.691428 10:-0.993277 11:-1 12:-1 13:-0.479864 14:1 
32768 1:-0.993497 2:-0.999954 3:-0.999999 4:-1 5:-0.998261 6:-0.995009 7:-0.0338219 8:-0.955646 9:-0.981888 10:-0.990588 11:-1 12:-0.999508 13:-0.343333 14:1 
5621.030751606685 1:-0.932048 2:-0.997968 3:-0.997677 4:-0.999235 5:-0.998261 6:-0.995016 7:-0.0338225 8:-1 9:-1 10:-0.988235 11:-1 12:-1 13:-0.336566 14:1 
32768 1:-0.940724 2:-0.997491 3:-0.999999 4:-0.999997 5:-0.998261 6:-0.995009 7:-0.0338219 8:-1 9:-1 10:-0.932026 11:-1 12:-1 13:-0.490023 14:1 
32768 1:-0.991693 2:-0.999946 3:-0.999964 4:-0.999997 5:-0.998261 6:-0.995009 7:-0.0338219 8:-0.991895 9:-0.971632 10:-0.991765 11:-1 12:-0.999508 13:-0.141089 14:1 
32768 1:-0.995067 2:-0.999999 3:-1 4:-0.999999 5:-0.998261 6:-0.995009 7:-0.0338219 8:-0.955531 9:-0.96109 10:-0.997386 11:-1 12:-0.999508 13:-0.515295 14:1 
32768 1:-0.948862 2:-0.998056 3:-0.999996 4:-0.999998 5:-0.998261 6:-0.995009 7:-0.0338219 8:-0.757575 9:0.09091 10:-0.952941 11:-1 12:-1 13:-0.360108 14:1 
32768 1:-0.980146 2:-0.999932 3:-0.999991 4:-0.999999 5:-0.998261 6:-0.995009 7:-0.0338219 8:-0.485714 9:0.0125 10:-0.997861 11:-1 12:-0.999017 13:-0.748509 14:1 
32768 1:-0.95366 2:-0.998331 3:-1 4:-1 5:-0.998261 6:-0.995009 7:-0.0338219 8:-1 9:-1 10:-0.825882 11:-1 12:-1 13:-0.783163 14:1 
32768 1:-0.995307 2:-0.999966 3:-0.999999 4:-1 5:-0.998261 6:-0.995009 7:-0.0338219 8:-1 9:-1 10:-0.98552 11:-1 12:-0.999508 13:-0.364092 14:1 
32768 1:-0.986929 2:-0.999751 3:-1 4:-1 5:-0.998261 6:-0.995009 7:-0.0338219 8:-1 9:-0.971428 10:-0.9939 11:-1 12:-1 13:0.552087 14:1 
32768 1:-0.993412 2:-0.99998 3:-1 4:-1 5:-0.998261 6:-0.995009 7:-0.0338219 8:-0.996395 9:-0.992114 10:-0.99281 11:-1 12:-0.998525 13:-0.0556159 14:1 
32768 1:-0.987041 2:-0.999912 3:-0.999999 4:-1 5:-0.998261 6:-0.995009 7:-0.0338219 8:-0.993515 9:-1 10:-0.982609 11:-1 12:-0.999017 13:-0.572802 14:1 
32768 1:-0.952093 2:-0.999649 3:-0.999301 4:-0.999446 5:-0.998261 6:-0.995018 7:-0.0338219 8:-0.822469 9:0.650486 10:-0.997759 11:-1 12:-1 13:-0.253673 14:1 
32768 1:-0.982775 2:-0.999634 3:-1 4:-1 5:-0.998261 6:-0.995009 7:-0.0338219 8:-1 9:-0.980536 10:-0.976471 11:-1 12:-1 13:-0.111364 14:1 
32768 1:-0.974942 2:-0.999356 3:-1 4:-1 5:-0.998261 6:-0.995009 7:-0.0338219 8:-1 9:-1 10:-0.898039 11:-1 12:-1 13:-0.645396 14:1 
32768 1:-0.986476 2:-0.999993 3:-0.999981 4:-0.999993 5:-0.998261 6:-0.995009 7:-0.0338219 8:-0.959595 9:-0.873738 10:-0.991816 11:-1 12:-0.999508 13:-0.251605 14:1 
32768 1:-0.996108 2:-0.999981 3:-0.999999 4:-1 5:-0.998261 6:-0.995009 7:-0.0338219 8:-0.945253 9:-0.991018 10:-0.991529 11:-1 12:-0.999508 13:-0.553898 14:1 
32768 1:-0.979716 2:-0.999998 3:-0.999998 4:-0.999995 5:-0.998261 6:-0.995009 7:-0.0338219 8:-0.93496 9:-0.130082 10:-0.999189 11:-1 12:-0.999017 13:-0.641562 14:1 
26.21941881856275 1:-0.957565 2:-0.999939 3:-0.999978 4:-0.999988 5:-0.998261 6:-0.995009 7:-0.0338219 8:-0.85803 9:-0.006212 10:-0.999059 11:-1 12:-1 13:-0.787889 14:-0.516667 
32768 1:-0.996596 2:-0.999986 3:-1 4:-1 5:-0.998261 6:-0.995009 7:-0.0338219 8:-0.996688 9:-0.988406 10:-0.996078 11:-1 12:-0.999508 13:0.213241 14:1 
32768 1:-0.978976 2:-0.999953 3:-0.999995 4:-0.999999 5:-0.998261 6:-0.995009 7:-0.0338219 8:-0.881646 9:-0.605178 10:-0.998655 11:-1 12:-0.999017 13:-0.496913 14:1 
32768 1:-0.974295 2:-0.999337 3:-1 4:-1 5:-0.998261 6:-0.995009 7:-0.0338219 8:-1 9:-1 10:-0.89281 11:-1 12:-1 13:-0.658398 14:1 
32768 1:-0.963292 2:-0.999075 3:-0.999622 4:-0.999517 5:-0.99826 6:-0.994996 7:-0.0338219 8:-0.870619 9:-0.849056 10:-0.952941 11:-1 12:-1 13:-0.508008 14:1 
7167.209654313243 1:-0.961881 2:-0.999952 3:-0.999966 4:-0.999975 5:-0.998261 6:-0.995009 7:-0.0338219 8:-0.743026 9:1 10:-0.998377 11:-1 12:-1 13:-0.623833 14:1 
32768 1:-0.991972 2:-0.999969 3:-0.999959 4:-0.999998 5:-0.998261 6:-0.995009 7:-0.0338219 8:-0.936827 9:-0.954774 10:-0.992839 11:-1 12:-0.999508 13:-0.206908 14:1 
9448.380829416736 1:-0.970021 2:-0.999242 3:-0.999979 4:-0.99999 5:-0.998261 6:-0.995009 7:-0.0338219 8:-0.886846 9:-0.70297 10:-0.993464 11:-1 12:-1 13:0.289731 14:1 
32768 1:-0.984671 2:-0.999688 3:-1 4:-1 5:-0.998261 6:-0.995009 7:-0.0338219 8:-1 9:-0.962616 10:-0.971242 11:-1 12:-1 13:-0.260748 14:1 
32768 1:-0.969633 2:-0.999267 3:-0.999869 4:-0.999856 5:-0.998261 6:-0.995005 7:-0.0338219 8:-0.989886 9:-0.946902 10:-0.959664 11:-1 12:-1 13:-0.456959 14:1 
1561.217435236036 1:-0.987988 2:-0.999986 3:-0.999996 4:-1 5:-0.998261 6:-0.995009 7:-0.0338219 8:-0.992105 9:-0.979274 10:-0.997456 11:-1 12:-0.999017 13:-0.416607 14:0.815112 
32768 1:-0.971738 2:-0.999319 3:-0.999998 4:-0.999999 5:-0.998261 6:-0.995009 7:-0.0338219 8:-0.889401 9:-0.548388 10:-0.988235 11:-1 12:-1 13:0.122883 14:1 
32768 1:-0.978186 2:-0.999765 3:-0.999959 4:-0.999988 5:-0.998261 6:-0.995009 7:-0.0338219 8:-0.879698 9:-0.407894 10:-0.974661 11:-1 12:-1 13:-0.661278 14:1 
32768 1:-0.991076 2:-0.999992 3:-1 4:-1 5:-0.998261 6:-0.995009 7:-0.0338219 8:-1 9:-1 10:-0.999216 11:-1 12:-0.999508 13:0.0985822 14:1 
32768 1:-0.958359 2:-0.999487 3:-0.998684 4:-0.999898 5:-0.998261 6:-0.995007 7:-0.0338219 8:-0.711278 9:0.621052 10:-0.988235 11:-1 12:-1 13:-0.324297 14:1 
17.65485356483902 1:-0.973725 2:-0.999886 3:-0.999992 4:-0.999997 5:-0.998261 6:-0.995009 7:-0.0338219 8:-0.671177 9:-0.291228 10:-0.99432 11:-1 12:-1 13:-0.843761 14:0.674074 
32768 1:-0.977765 2:-0.99998 3:-0.999879 4:-0.999982 5:-0.998261 6:-0.995009 7:-0.0338219 8:-0.874754 9:-0.545206 10:-0.994687 11:-1 12:-0.999017 13:-0.752034 14:1 
32768 1:-0.995024 2:-0.999965 3:-0.999999 4:-1 5:-0.998261 6:-0.995009 7:-0.0338219 8:-0.991001 9:-1 10:-0.98552 11:-1 12:-0.999017 13:-0.384824 14:1 
32768 1:-0.990657 2:-0.999995 3:-0.999998 4:-0.999999 5:-0.998261 6:-0.995009 7:-0.0338219 8:-0.973474 9:-0.957446 10:-0.99638 11:-1 12:-0.999508 13:0.120322 14:1 
32768 1:-0.952593 2:-0.999502 3:-0.999085 4:-0.999871 5:-0.998261 6:-0.995009 7:-0.0338219 8:-0.850608 9:1 10:-0.98977 11:-1 12:-1 13:-0.615459 14:1 
32768 1:-0.958517 2:-0.99897 3:-0.999477 4:-0.999869 5:-0.998261 6:-0.995012 7:-0.0338219 8:-0.865545 9:0.294118 10:-0.990196 11:-1 12:-1 13:-0.196414 14:1 
32768 1:-0.987951 2:-0.999806 3:-0.999973 4:-0.99998 5:-0.998261 6:-0.995009 7:-0.0338219 8:-0.982281 9:-0.989664 10:-0.972059 11:-1 12:-1 13:-0.486436 14:1 
32768 1:-0.990528 2:-0.999991 3:-0.999999 4:-1 5:-0.998261 6:-0.995009 7:-0.0338219 8:-0.931429 9:-0.8 10:-0.994118 11:-1 12:-1 13:-0.555408 14:1 
32768 1:-0.99518 2:-0.999973 3:-0.999996 4:-0.999999 5:-0.998261 6:-0.995009 7:-0.0338219 8:-0.994206 9:-1 10:-0.985294 11:-1 12:-0.999508 13:-0.386988 14:1 
32768 1:-0.992743 2:-0.999884 3:-1 4:-1 5:-0.998261 6:-0.995009 7:-0.0338219 8:-1 9:-1 10:-0.963025 11:-1 12:-1 13:-0.48618 14:1 
32768 1:-0.952274 2:-0.998249 3:-1 4:-1 5:-0.998261 6:-0.995009 7:-0.0338219 8:-1 9:-1 10:-0.821176 11:-1 12:-1 13:-0.787792 14:1 
32768 1:-0.949842 2:-0.998505 3:-0.999844 4:-0.999929 5:-0.998261 6:-0.995008 7:-0.0338219 8:-0.781154 9:0.042554 10:-0.972549 11:-1 12:-1 13:-0.535021 14:1 
32768 1:-0.971581 2:-0.999263 3:-0.999999 4:-1 5:-0.998261 6:-0.995009 7:-0.0338219 8:-1 9:-0.777778 10:-0.955882 11:-1 12:-1 13:-0.454786 14:1 
32768 1:-0.934745 2:-0.998021 3:-0.996204 4:-0.994859 5:-0.998243 6:-0.994814 7:-0.0338247 8:-0.964005 9:-0.007874 10:-0.973529 11:-1 12:-1 13:-0.43188 14:1 
32768 1:-0.995513 2:-0.99997 3:-1 4:-1 5:-0.998261 6:-0.995009 7:-0.0338219 8:-1 9:-1 10:-0.986057 11:-1 12:-0.999508 13:-0.164604 14:1 
32768 1:-0.993763 2:-0.999952 3:-1 4:-1 5:-0.998261 6:-0.995009 7:-0.0338219 8:-0.925735 9:-0.938628 10:-0.998092 11:-1 12:-0.999017 13:-0.201617 14:1 
32768 1:-0.988361 2:-0.999964 3:-0.999983 4:-0.999988 5:-0.998261 6:-0.995009 7:-0.0338219 8:-0.986807 9:-0.959596 10:-0.984615 11:-1 12:-0.999508 13:-0.314783 14:1 
32768 1:-0.984748 2:-0.999799 3:-0.999985 4:-0.999999 5:-0.998261 6:-0.995009 7:-0.0338219 8:-0.926562 9:-0.90763 10:-0.986555 11:-1 12:-1 13:-0.347944 14:1 
32768 1:-0.981295 2:-0.999691 3:-0.999895 4:-0.999947 5:-0.998261 6:-0.995008 7:-0.0338219 8:-1 9:-0.927602 10:-0.993583 11:-1 12:-0.999508 13:-0.0184886 14:1 
32768 1:-0.950271 2:-0.999176 3:-0.999826 4:-0.999813 5:-0.998261 6:-0.995013 7:-0.0338219 8:-1 9:-1 10:-0.981586 11:-1 12:-1 13:-0.771406 14:1 
25289.46373140292 1:-0.925748 2:-0.998738 3:-0.99433 4:-0.99684 5:-0.998254 6:-0.994945 7:-0.0338288 8:-0.924647 9:1 10:-0.985621 11:-1 12:-1 13:-0.41674 14:1 
16536.28533632882 1:-0.987594 2:-0.999952 3:-0.999994 4:-0.999999 5:-0.998261 6:-0.995009 7:-0.0338219 8:-0.995326 9:-1 10:-0.984314 11:-1 12:-1 13:-0.785928 14:1 
32768 1:-0.974295 2:-0.999337 3:-1 4:-1 5:-0.998261 6:-0.995009 7:-0.0338219 8:-1 9:-1 10:-0.89281 11:-1 12:-1 13:-0.658398 14:1 
12151.32905757574 1:-0.969935 2:-0.999264 3:-0.999992 4:-0.99999 5:-0.998261 6:-0.995009 7:-0.0338219 8:-0.845035 9:-0.18644 10:-0.99276 11:-1 12:-1 13:0.149154 14:1 
32768 1:-0.994138 2:-0.999999 3:-0.999997 4:-0.999998 5:-0.998261 6:-0.995009 7:-0.0338219 8:-0.913639 9:-0.889168 10:-1 11:-1 12:-1 13:-0.264617 14:1 
32768 1:-0.984933 2:-0.999753 3:-0.999988 4:-0.999993 5:-0.998261 6:-0.995009 7:-0.0338219 8:-1 9:-0.906432 10:-0.975232 11:-1 12:-1 13:-0.418471 14:1 
32768 1:-0.963166 2:-0.9989 3:-0.999983 4:-0.999984 5:-0.998261 6:-0.995008 7:-0.0338219 8:-0.922078 9:-0.795454 10:-0.994353 11:-0.999711 12:-1 13:-0.0184267 14:1 
32768 1:-0.991798 2:-0.999995 3:-0.999999 4:-0.999997 5:-0.998261 6:-0.995009 7:-0.0338219 8:-0.991417 9:-0.984982 10:-0.996324 11:-1 12:-0.999508 13:-0.553474 14:1 
32768 1:-0.988572 2:-0.999959 3:-0.99986 4:-0.999998 5:-0.998261 6:-0.995009 7:-0.0338219 8:-0.939047 9:-0.906666 10:-0.993412 11:-1 12:-1 13:-0.177254 14:1 
32768 1:-0.991355 2:-0.999978 3:-0.99999 4:-0.999998 5:-0.998261 6:-0.995009 7:-0.0338219 8:-0.957961 9:-0.974114 10:-0.999229 11:-1 12:-0.999017 13:-0.566539 14:1 
28297.36473887129 1:-0.941486 2:-0.99764 3:-0.999825 4:-0.999887 5:-0.998261 6:-0.995007 7:-0.0338219 8:-0.986864 9:-0.908046 10:-0.999241 11:-1 12:-1 13:0.588048 14:1 
32768 1:-0.994709 2:-0.999958 3:-1 4:-1 5:-0.998261 6:-0.995009 7:-0.0338219 8:-0.982514 9:-0.989072 10:-0.987451 11:-1 12:-0.999508 13:-0.553368 14:1 
32768 1:-0.98948 2:-0.999986 3:-0.999999 4:-1 5:-0.998261 6:-0.995009 7:-0.0338219 8:-0.850933 9:-0.937888 10:-0.993583 11:-1 12:-0.999508 13:-0.75691 14:1 
32768 1:-0.989767 2:-0.999902 3:-0.999962 4:-0.999993 5:-0.998261 6:-0.995009 7:-0.0338219 8:-0.970882 9:-0.980892 10:-0.985139 11:-1 12:-0.999017 13:-0.238391 14:1 
32768 1:-0.969389 2:-0.999357 3:-0.999749 4:-0.999765 5:-0.998261 6:-0.995004 7:-0.0338219 8:-0.842128 9:-0.963964 10:-0.960784 11:-1 12:-1 13:-0.507707 14:1 
32768 1:-0.993559 2:-0.999947 3:-0.999998 4:-0.999999 5:-0.998261 6:-0.995009 7:-0.0338219 8:-0.982073 9:-0.97255 10:-0.993005 11:-1 12:-0.999508 13:0.0418621 14:1 
32768 1:-0.973681 2:-0.999321 3:-1 4:-1 5:-0.998261 6:-0.995009 7:-0.0338219 8:-1 9:-0.933334 10:-0.963399 11:-1 12:-1 13:-0.218542 14:1 
27555.54323333979 1:-0.925066 2:-0.99884 3:-0.994363 4:-0.997422 5:-0.998257 6:-0.994971 7:-0.0338276 8:-0.547881 9:1 10:-0.985621 11:-1 12:-1 13:-0.430043 14:1 
32768 1:-0.987707 2:-0.99997 3:-0.999982 4:-0.999988 5:-0.998261 6:-0.995009 7:-0.0338219 8:-0.97131 9:-0.933054 10:-0.987018 11:-1 12:-0.999508 13:-0.29746 14:1 
118.6986850063618 1:-0.958357 2:-0.99909 3:-0.999094 4:-0.999522 5:-0.998261 6:-0.995015 7:-0.0338221 8:-0.976677 9:-0.265306 10:-0.988927 11:-1 12:-1 13:-0.123599 14:0.573333 
32768 1:-0.994222 2:-0.999954 3:-1 4:-1 5:-0.998261 6:-0.995009 7:-0.0338219 8:-0.984896 9:-0.984582 10:-0.989804 11:-1 12:-0.999017 13:-0.119765 14:1 
32768 1:-0.985719 2:-0.99976 3:-0.999991 4:-0.999996 5:-0.998261 6:-0.995009 7:-0.0338219 8:-0.954738 9:-0.90099 10:-0.989542 11:-1 12:-1 13:-0.314915 14:1 
32768 1:-0.991082 2:-0.999885 3:-0.999995 4:-0.999995 5:-0.998261 6:-0.995009 7:-0.0338219 8:-1 9:-0.979382 10:-0.98009 11:-1 12:-1 13:-0.416148 14:1 
32768 1:-0.993897 2:-0.999959 3:-1 4:-1 5:-0.998261 6:-0.995009 7:-0.0338219 8:-0.992546 9:-0.98913 10:-0.996732 11:-1 12:-0.999508 13:0.193278 14:1 
28.13966077148791 1:-0.958215 2:-0.999942 3:-0.999968 4:-0.999977 5:-0.998261 6:-0.995009 7:-0.0338219 8:-0.93003 9:-0.47619 10:-0.997148 11:-1 12:-1 13:-0.769922 14:-0.57725 
32768 1:-0.959691 2:-0.998703 3:-0.999958 4:-0.999983 5:-0.998261 6:-0.995009 7:-0.0338219 8:-1 9:-1 10:-0.922689 11:-1 12:-1 13:-0.559286 14:1 
32768 1:-0.97558 2:-0.999765 3:-0.999897 4:-0.999956 5:-0.998261 6:-0.995009 7:-0.0338219 8:-0.851163 9:-0.460466 10:-0.994958 11:-1 12:-1 13:-0.482479 14:1 
32768 1:-0.971209 2:-0.99934 3:-0.999924 4:-0.999887 5:-0.998261 6:-0.995007 7:-0.0338219 8:-0.907335 9:-0.68919 10:-0.986928 11:-1 12:-1 13:-0.0493529 14:1 
32768 1:-0.99209 2:-0.999998 3:-0.999999 4:-1 5:-0.998261 6:-0.995009 7:-0.0338219 8:-0.892407 9:-0.967854 10:-0.997811 11:-1 12:-0.998033 13:-0.717177 14:1 
17.3222538193878 1:-0.98163 2:-0.999993 3:-1 4:-1 5:-0.998261 6:-0.995009 7:-0.0338219 8:-1 9:-0.757848 10:-0.994958 11:-1 12:-1 13:-0.806086 14:0.450824 
32768 1:-0.992903 2:-0.999983 3:-0.999996 4:-0.999998 5:-0.998261 6:-0.995009 7:-0.0338219 8:-0.975497 9:-0.95712 10:-0.997794 11:-1 12:-0.998525 13:-0.417649 14:1 
32768 1:-0.978432 2:-0.999851 3:-0.999996 4:-0.999999 5:-0.998261 6:-0.995009 7:-0.0338219 8:-0.884754 9:0.445378 10:-0.992157 11:-1 12:-1 13:-0.5766 14:1 
32768 1:-0.968701 2:-0.99937 3:-0.999852 4:-0.999939 5:-0.998261 6:-0.99501 7:-0.0338219 8:-0.824176 9:0.076924 10:-0.986275 11:-1 12:-1 13:-0.100437 14:1 
32768 1:-0.968401 2:-0.999097 3:-0.999999 4:-0.999999 5:-0.998261 6:-0.995009 7:-0.0338219 8:-1 9:-0.974522 10:-0.950588 11:-1 12:-1 13:-0.419964 14:1 
32768 1:-0.961099 2:-0.999581 3:-0.998753 4:-0.999914 5:-0.998261 6:-0.995008 7:-0.0338219 8:-0.904761 9:0.375 10:-0.990311 11:-1 12:-1 13:-0.335869 14:1 
32768 1:-0.980818 2:-0.999772 3:-0.999897 4:-0.99999 5:-0.998261 6:-0.995009 7:-0.0338219 8:-0.89571 9:-0.923954 10:-0.977778 11:-1 12:-0.999508 13:-0.535065 14:1 
32768 1:-0.988339 2:-0.999975 3:-0.999906 4:-0.999992 5:-0.998261 6:-0.995009 7:-0.0338219 8:-0.968254 9:-0.938888 10:-0.991176 11:-1 12:-0.999508 13:-0.0878671 14:1 
18983.19252296563 1:-0.981628 2:-0.999899 3:-0.999929 4:-0.999994 5:-0.998261 6:-0.995009 7:-0.0338219 8:-0.95667 9:-0.876778 10:-0.990311 11:-1 12:-0.999508 13:0.097107 14:1 
32768 1:-0.986875 2:-0.999749 3:-1 4:-1 5:-0.998261 6:-0.995009 7:-0.0338219 8:-1 9:-1 10:-0.941176 11:-1 12:-1 13:-0.594152 14:1 
32768 1:-0.981378 2:-0.999608 3:-0.999992 4:-0.999993 5:-0.998261 6:-0.995009 7:-0.0338219 8:-1 9:-1 10:-0.952941 11:-1 12:-1 13:-0.519403 14:1 
32768 1:-0.994106 2:-0.99996 3:-0.999999 4:-1 5:-0.998261 6:-0.995009 7:-0.0338219 8:-1 9:-1 10:-0.983333 11:-1 12:-0.999508 13:-0.377201 14:1 
494.8094707742766 1:-0.940724 2:-0.997491 3:-0.999999 4:-0.999997 5:-0.998261 6:-0.995009 7:-0.0338219 8:-1 9:-1 10:-0.932026 11:-1 12:-1 13:-0.490023 14:1 
32768 1:-0.984778 2:-0.999751 3:-0.999988 4:-0.999993 5:-0.998261 6:-0.995009 7:-0.0338219 8:-0.97995 9:-0.900584 10:-0.977647 11:-1 12:-1 13:-0.410371 14:1 
19125.9863876884 1:-0.992109 2:-0.999997 3:-0.999999 4:-0.999998 5:-0.998261 6:-0.995009 7:-0.0338219 8:-1 9:-0.986206 10:-0.999059 11:-1 12:-0.999508 13:-0.481321 14:1 
32768 1:-0.970095 2:-0.999171 3:-0.999994 4:-0.999998 5:-0.998261 6:-0.995009 7:-0.0338219 8:-1 9:-1 10:-0.910588 11:-1 12:-1 13:-0.620158 14:1 
32768 1:-0.990677 2:-0.999978 3:-0.999999 4:-0.999999 5:-0.998261 6:-0.995009 7:-0.0338219 8:-0.989703 9:-0.99099 10:-0.993967 11:-1 12:-0.999017 13:-0.467214 14:1 
32768 1:-0.977315 2:-0.999973 3:-0.999999 4:-1 5:-0.998261 6:-0.995009 7:-0.0338219 8:-0.903031 9:-0.418182 10:-0.995294 11:-1 12:-1 13:-0.411263 14:1 
32768 1:-0.993066 2:-0.999996 3:-1 4:-1 5:-0.998261 6:-0.995009 7:-0.0338219 8:-1 9:-0.980392 10:-0.995518 11:-1 12:-0.999508 13:0.0854733 14:1 
32768 1:-0.987556 2:-0.999885 3:-0.999909 4:-0.99998 5:-0.998261 6:-0.995009 7:-0.0338219 8:-0.981303 9:-0.9591 10:-0.994296 11:-1 12:-0.999508 13:0.159445 14:1 
32768 1:-0.963455 2:-0.998866 3:-1 4:-1 5:-0.998261 6:-0.995009 7:-0.0338219 8:-1 9:-0.255814 10:-0.943529 11:-1 12:-1 13:-0.39924 14:1 
2118.587641384542 1:-0.953223 2:-0.999172 3:-0.999264 4:-0.999787 5:-0.998261 6:-0.995004 7:-0.0338219 8:-0.858615 9:0.628866 10:-0.987543 11:-1 12:-1 13:-0.496339 14:1 
32768 1:-0.995115 2:-0.999999 3:-1 4:-0.999999 5:-0.998261 6:-0.995009 7:-0.0338219 8:-0.885273 9:-0.92278 10:-0.998762 11:-1 12:-0.999508 13:-0.48769 14:1 
32768 1:-0.983203 2:-0.999995 3:-0.999998 4:-0.999999 5:-0.998261 6:-0.995009 7:-0.0338219 8:-0.838181 9:-0.026548 10:-0.998693 11:-1 12:-1 13:-0.318643 14:1 
6750.932232795391 1:-0.906025 2:-0.995326 3:-0.997305 4:-0.996868 5:-0.998254 6:-0.994914 7:-0.0338238 8:-0.947815 9:-0.634704 10:-0.974588 11:-1 12:-1 13:-0.362988 14:1 
9659.556950333155 1:-0.987594 2:-0.999952 3:-0.999994 4:-0.999999 5:-0.998261 6:-0.995009 7:-0.0338219 8:-0.995326 9:-1 10:-0.984314 11:-1 12:-1 13:-0.785928 14:1 
44.99327749821679 1:-0.834127 2:-0.984885 3:-0.990979 4:-0.982546 5:-0.99809 6:-0.993109 7:-0.0338211 8:-0.939849 9:1 10:-0.963636 11:-1 12:-1 13:-0.25642 14:0.0755543 
32768 1:-0.952274 2:-0.998249 3:-1 4:-1 5:-0.998261 6:-0.995009 7:-0.0338219 8:-1 9:-1 10:-0.821176 11:-1 12:-1 13:-0.787792 14:1 
32768 1:-0.950283 2:-0.999175 3:-0.999858 4:-0.999836 5:-0.998261 6:-0.995013 7:-0.0338219 8:-1 9:-1 10:-0.982353 11:-1 12:-1 13:-0.754808 14:1 
32768 1:-0.987149 2:-0.999969 3:-1 4:-0.999996 5:-0.998261 6:-0.995009 7:-0.0338219 8:-0.789819 9:-0.7318 10:-0.995475 11:-1 12:-0.999508 13:-0.577625 14:1 
32768 1:-0.958517 2:-0.99897 3:-0.999477 4:-0.999869 5:-0.998261 6:-0.995012 7:-0.0338219 8:-0.865545 9:0.294118 10:-0.990196 11:-1 12:-1 13:-0.196414 14:1 
32768 1:-0.99048 2:-0.999868 3:-0.999999 4:-1 5:-0.998261 6:-0.995009 7:-0.0338219 8:-1 9:-0.825504 10:-0.98914 11:-1 12:-1 13:-0.385381 14:1 
32768 1:-0.979058 2:-0.999525 3:-1 4:-1 5:-0.998261 6:-0.995009 7:-0.0338219 8:-1 9:-0.937008 10:-0.959216 11:-1 12:-1 13:-0.546425 14:1 
32768 1:-0.97951 2:-0.999574 3:-1 4:-0.999999 5:-0.998261 6:-0.995009 7:-0.0338219 8:-0.970994 9:-0.883248 10:-0.97754 11:-1 12:-1 13:-0.431871 14:1 
32768 1:-0.993211 2:-0.999927 3:-1 4:-1 5:-0.998261 6:-0.995009 7:-0.0338219 8:-0.989179 9:-1 10:-0.976471 11:-1 12:-0.999017 13:-0.279087 14:1 
32768 1:-0.99164 2:-0.999998 3:-1 4:-1 5:-0.998261 6:-0.995009 7:-0.0338219 8:-0.997634 9:-0.99586 10:-0.999364 11:-1 12:-0.999508 13:0.281021 14:1 
32768 1:-0.992893 2:-0.999984 3:-0.999996 4:-0.999998 5:-0.998261 6:-0.995009 7:-0.0338219 8:-0.975422 9:-0.975422 10:-0.997059 11:-1 12:-0.999017 13:-0.400663 14:1 
20509.68420206448 1:-0.980289 2:-0.999555 3:-1 4:-1 5:-0.998261 6:-0.995009 7:-0.0338219 8:-1 9:-1 10:-0.917647 11:-1 12:-1 13:-0.658398 14:1 
32768 1:-0.97733 2:-0.999967 3:-0.999709 4:-0.99996 5:-0.998261 6:-0.995009 7:-0.0338219 8:-0.780571 9:-0.408 10:-0.995046 11:-1 12:-0.999508 13:-0.361097 14:1 
32768 1:-0.991571 2:-0.999963 3:-0.999948 4:-0.999998 5:-0.998261 6:-0.995009 7:-0.0338219 8:-0.977646 9:-0.96577 10:-0.991855 11:-1 12:-0.999508 13:-0.121488 14:1 
32768 1:-0.995496 2:-0.99997 3:-1 4:-1 5:-0.998261 6:-0.995009 7:-0.0338219 8:-1 9:-1 10:-0.984 11:-1 12:-0.999508 13:-0.245634 14:1 
32768 1:-0.994722 2:-0.999998 3:-1 4:-1 5:-0.998261 6:-0.995009 7:-0.0338219 8:-1 9:-1 10:-0.997386 11:-1 12:-0.999508 13:0.16388 14:1 
30696.47135271191 1:-0.940291 2:-0.998273 3:-0.998547 4:-0.99932 5:-0.99826 6:-0.995006 7:-0.0338215 8:-1 9:0.460674 10:-0.992157 11:-1 12:-1 13:-0.136125 14:1 
32768 1:-0.985175 2:-0.999734 3:-0.999984 4:-0.999989 5:-0.998261 6:-0.995009 7:-0.0338219 8:-0.994853 9:-0.972972 10:-0.994853 11:-1 12:-1 13:0.319085 14:1 
32768 1:-0.98989 2:-0.999997 3:-1 4:-1 5:-0.998261 6:-0.995009 7:-0.0338219 8:-0.986146 9:-0.963636 10:-0.997647 11:-1 12:-0.999508 13:0.143218 14:1 
32768 1:-0.976005 2:-0.999959 3:-0.999661 4:-0.999959 5:-0.998261 6:-0.995009 7:-0.0338219 8:-0.890286 9:-0.504 10:-0.994771 11:-1 12:-0.999508 13:-0.42219 14:1 
32768 1:-0.991445 2:-0.999947 3:-0.999969 4:-0.999996 5:-0.998261 6:-0.995009 7:-0.0338219 8:-0.945762 9:-0.962712 10:-0.989542 11:-1 12:-0.999508 13:-0.344146 14:1 
32768 1:-0.986537 2:-0.999947 3:-0.999971 4:-0.999999 5:-0.998261 6:-0.995009 7:-0.0338219 8:-0.92992 9:-0.93868 10:-0.984706 11:-1 12:-0.999508 13:-0.35237 14:1 
5.659646988387747 1:-0.98813 2:-0.999994 3:-0.999985 4:-0.999995 5:-0.998261 6:-0.995009 7:-0.0338219 8:-0.957751 9:-0.922366 10:-0.99276 11:-1 12:-0.999508 13:-0.330127 14:1 
32768 1:-0.968331 2:-0.999754 3:-0.999142 4:-0.99998 5:-0.998261 6:-0.995009 7:-0.0338219 8:-0.862514 9:-0.383458 10:-0.996078 11:-1 12:-1 13:-0.107425 14:1 
32768 1:-0.990444 2:-0.999957 3:-0.999997 4:-0.999999 5:-0.998261 6:-0.995009 7:-0.0338219 8:-0.948491 9:-0.915492 10:-0.988854 11:-1 12:-0.999508 13:-0.391299 14:1 
32768 1:-0.991891 2:-0.999995 3:-0.999999 4:-0.999997 5:-0.998261 6:-0.995009 7:-0.0338219 8:-1 9:-1 10:-0.996078 11:-1 12:-0.999508 13:-0.5944 14:1 
244.2245509461904 1:-0.97425 2:-0.99986 3:-0.999998 4:-0.999996 5:-0.998261 6:-0.995009 7:-0.0338219 8:-0.98205 9:-1 10:-0.983391 11:-1 12:-0.999017 13:-0.258213 14:0.589474 
32768 1:-0.993174 2:-0.999927 3:-1 4:-1 5:-0.998261 6:-0.995009 7:-0.0338219 8:-0.994597 9:-1 10:-0.977494 11:-1 12:-0.999017 13:-0.242657 14:1 
32768 1:-0.991838 2:-0.999983 3:-0.999995 4:-0.999998 5:-0.998261 6:-0.995009 7:-0.0338219 8:-0.967769 9:-0.955346 10:-0.991912 11:-1 12:-0.999508 13:-0.417782 14:1 
32768 1:-0.949599 2:-0.998087 3:-1 4:-1 5:-0.998261 6:-0.995009 7:-0.0338219 8:-1 9:-0.95 10:-0.896471 11:-1 12:-1 13:-0.617959 14:1 
32768 1:-0.986894 2:-0.99975 3:-1 4:-1 5:-0.998261 6:-0.995009 7:-0.0338219 8:-1 9:-0.97159 10:-0.976471 11:-1 12:-1 13:-0.200936 14:1 
32768 1:-0.977538 2:-0.999883 3:-0.999838 4:-0.999964 5:-0.998261 6:-0.995009 7:-0.0338219 8:-0.755895 9:-0.126214 10:-0.988235 11:-1 12:-0.999508 13:-0.537918 14:1 
32768 1:-0.989553 2:-0.999984 3:-0.999996 4:-0.999998 5:-0.998261 6:-0.995009 7:-0.0338219 8:-0.756071 9:-0.881422 10:-0.993277 11:-1 12:-1 13:-0.711205 14:1 
32768 1:-0.994104 2:-0.999986 3:-0.999978 4:-1 5:-0.998261 6:-0.995009 7:-0.0338219 8:-1 9:-0.973334 10:-0.993862 11:-1 12:-0.999508 13:-0.177156 14:1 
32768 1:-0.983718 2:-0.99998 3:-0.999845 4:-0.999975 5:-0.998261 6:-0.995009 7:-0.0338219 8:-0.829787 9:-0.106382 10:-0.995294 11:-1 12:-1 13:-0.349667 14:1 
32768 1:-0.994414 2:-0.999972 3:-1 4:-1 5:-0.998261 6:-0.995009 7:-0.0338219 8:-0.996725 9:-0.985674 10:-0.993277 11:-1 12:-0.999508 13:0.0870986 14:1 
32768 1:-0.994523 2:-0.999987 3:-0.999993 4:-0.999999 5:-0.998261 6:-0.995009 7:-0.0338219 8:-0.948553 9:-0.935692 10:-0.995908 11:-1 12:-1 13:-0.429159 14:1 
32768 1:-0.992998 2:-0.999996 3:-1 4:-1 5:-0.998261 6:-0.995009 7:-0.0338219 8:-0.977591 9:-0.941176 10:-0.996791 11:-1 12:-0.999508 13:0.103167 14:1 
32768 1:-0.974386 2:-0.999341 3:-1 4:-1 5:-0.998261 6:-0.995009 7:-0.0338219 8:-1 9:-1 10:-0.89281 11:-1 12:-1 13:-0.658398 14:1 
32768 1:-0.994041 2:-0.999996 3:-0.999999 4:-0.999999 5:-0.998261 6:-0.995009 7:-0.0338219 8:-0.957515 9:-0.94052 10:-0.998977 11:-1 12:-1 13:-0.287001 14:1 
32768 1:-0.994429 2:-0.999973 3:-1 4:-1 5:-0.998261 6:-0.995009 7:-0.0338219 8:-0.993451 9:-0.99427 10:-0.987724 11:-1 12:-0.999508 13:-0.190009 14:1 
32768 1:-0.956295 2:-0.998731 3:-0.999698 4:-0.999915 5:-0.998261 6:-0.995011 7:-0.0338219 8:-1 9:1 10:-0.966387 11:-1 12:-1 13:-0.28421 14:1 
30129.57620930418 1:-0.925307 2:-0.99786 3:-0.999991 4:-0.999995 5:-0.998261 6:-0.995009 7:-0.0338219 8:-0.838181 9:1 10:-0.992513 11:-1 12:-1 13:-0.510596 14:1 
10886.22968909586 1:-0.980093 2:-0.999951 3:-0.999946 4:-0.999987 5:-0.998261 6:-0.995009 7:-0.0338219 8:-0.683515 9:0.446154 10:-0.998762 11:-1 12:-0.999508 13:-0.718988 14:1 
24408.17028024532 1:-0.983136 2:-0.999985 3:-0.99999 4:-0.999994 5:-0.998261 6:-0.995009 7:-0.0338219 8:-0.775911 9:-0.45098 10:-0.996471 11:-1 12:-1 13:-0.650537 14:1 
29329.61920251096 1:-0.9152 2:-0.998199 3:-0.998292 4:-0.998504 5:-0.998261 6:-0.995033 7:-0.0338234 8:-0.763547 9:0.408866 10:-0.986057 11:-1 12:-1 13:-0.665518 14:1 
9398.366642013634 1:-0.987594 2:-0.999952 3:-0.999994 4:-0.999999 5:-0.998261 6:-0.995009 7:-0.0338219 8:-0.995326 9:-1 10:-0.984314 11:-1 12:-1 13:-0.785928 14:1 
0.993213208286284 1:-0.933865 2:-0.997488 3:-0.995781 4:-0.992981 5:-0.998231 6:-0.994698 7:-0.0338221 8:-0.72789 9:0.333334 10:-0.966013 11:-1 12:-1 13:-0.283715 14:0.292516 
32768 1:-0.943428 2:-0.997767 3:-0.999817 4:-0.999853 5:-0.998261 6:-0.995005 7:-0.0338219 8:-0.973728 9:-0.931034 10:-0.972549 11:-1 12:-1 13:-0.0432578 14:1 
32768 1:-0.972683 2:-0.999727 3:-0.999934 4:-0.999983 5:-0.998261 6:-0.995009 7:-0.0338219 8:-0.682539 9:0.777778 10:-0.996791 11:-1 12:-1 13:-0.384797 14:1 
32768 1:-0.991707 2:-0.999999 3:-0.999947 4:-0.999991 5:-0.998261 6:-0.995009 7:-0.0338219 8:-0.910363 9:-0.921568 10:-0.997861 11:-1 12:-0.999508 13:-0.381556 14:1 
32768 1:-0.968494 2:-0.999291 3:-0.999822 4:-0.99984 5:-0.998261 6:-0.995006 7:-0.0338219 8:-0.959328 9:-0.921708 10:-0.966013 11:-1 12:-1 13:-0.534332 14:1 
32768 1:-0.992909 2:-0.999919 3:-0.999998 4:-0.999999 5:-0.998261 6:-0.995009 7:-0.0338219 8:-0.91885 9:-0.970414 10:-0.982805 11:-1 12:-0.999508 13:-0.546654 14:1 
32768 1:-0.991783 2:-0.999982 3:-1 4:-1 5:-0.998261 6:-0.995009 7:-0.0338219 8:-1 9:-1 10:-0.997176 11:-1 12:-0.999508 13:0.0583631 14:1 
32768 1:-0.99344 2:-0.99998 3:-1 4:-1 5:-0.998261 6:-0.995009 7:-0.0338219 8:-1 9:-1 10:-0.988235 11:-1 12:-0.999017 13:-0.261031 14:1 
32768 1:-0.989739 2:-0.999934 3:-0.999957 4:-0.999996 5:-0.998261 6:-0.995009 7:-0.0338219 8:-0.932203 9:-0.864406 10:-0.987543 11:-1 12:-0.999017 13:-0.336204 14:1 
32768 1:-0.994708 2:-0.999965 3:-0.999992 4:-1 5:-0.998261 6:-0.995009 7:-0.0338219 8:-0.9628 9:-0.9783 10:-0.99432 11:-1 12:-0.998525 13:-0.326823 14:1 
32768 1:-0.992134 2:-0.999933 3:-1 4:-1 5:-0.998261 6:-0.995009 7:-0.0338219 8:-0.997399 9:-0.993174 10:-0.986555 11:-1 12:-0.999508 13:-0.0616227 14:1 
32768 1:-0.984969 2:-0.999872 3:-0.999993 4:-0.999994 5:-0.998261 6:-0.995009 7:-0.0338219 8:-0.940091 9:-0.939516 10:-0.980952 11:-1 12:-0.999508 13:-0.601413 14:1 
32768 1:-0.993408 2:-0.999959 3:-1 4:-1 5:-0.998261 6:-0.995009 7:-0.0338219 8:-0.981817 9:-0.988636 10:-0.988641 11:-1 12:-0.999508 13:-0.495411 14:1 
32768 1:-0.971898 2:-0.999942 3:-0.999822 4:-0.999971 5:-0.998261 6:-0.995009 7:-0.0338219 8:-0.599584 9:0.226278 10:-0.990093 11:-1 12:-1 13:-0.748121 14:1 
32768 1:-0.981558 2:-0.999618 3:-0.999986 4:-0.999991 5:-0.998261 6:-0.995009 7:-0.0338219 8:-1 9:-1 10:-0.955556 11:-1 12:-1 13:-0.522936 14:1 
32768 1:-0.984798 2:-0.999692 3:-1 4:-1 5:-0.998261 6:-0.995009 7:-0.0338219 8:-1 9:-1 10:-0.93369 11:-1 12:-1 13:-0.61992 14:1 
32768 1:-0.987721 2:-0.999969 3:-0.999983 4:-0.99999 5:-0.998261 6:-0.995009 7:-0.0338219 8:-0.980898 9:-0.94429 10:-0.987018 11:-1 12:-0.999508 13:-0.29746 14:1 
23471.95087716273 1:-0.997074 2:-1 3:-0.999999 4:-1 5:-0.998261 6:-0.995009 7:-0.0338219 8:-0.922971 9:-1 10:-0.999426 11:-1 12:-0.999017 13:-0.760823 14:1 
32768 1:-0.976808 2:-0.999698 3:-0.999861 4:-0.999967 5:-0.998261 6:-0.995009 7:-0.0338219 8:-0.748361 9:-0.59633 10:-0.997386 11:-1 12:-1 13:-0.363191 14:1 
32768 1:-0.993478 2:-0.999959 3:-0.999999 4:-1 5:-0.998261 6:-0.995009 7:-0.0338219 8:-0.992181 9:-1 10:-0.984 11:-1 12:-0.999508 13:-0.558606 14:1 
32768 1:-0.974219 2:-0.999384 3:-0.999971 4:-0.999977 5:-0.998261 6:-0.995009 7:-0.0338219 8:-0.907959 9:-0.932886 10:-0.952941 11:-1 12:-1 13:-0.534005 14:1 
32768 1:-0.993314 2:-0.999956 3:-0.999997 4:-1 5:-0.998261 6:-0.995009 7:-0.0338219 8:-0.997125 9:-0.992452 10:-0.986928 11:-1 12:-0.999508 13:-0.241385 14:1 
32768 1:-0.98965 2:-0.999997 3:-0.999912 4:-0.999988 5:-0.998261 6:-0.995009 7:-0.0338219 8:-0.902546 9:-0.891472 10:-0.998118 11:-1 12:-1 13:-0.259414 14:1 
32768 1:-0.993295 2:-0.999986 3:-1 4:-1 5:-0.998261 6:-0.995009 7:-0.0338219 8:-0.973333 9:-0.97 10:-0.997647 11:-1 12:-0.999017 13:-0.119906 14:1 
32768 1:-0.99468 2:-0.999958 3:-1 4:-1 5:-0.998261 6:-0.995009 7:-0.0338219 8:-0.987522 9:-1 10:-0.983059 11:-1 12:-0.999508 13:-0.641244 14:1 
32768 1:-0.990461 2:-0.999992 3:-0.999998 4:-0.999999 5:-0.998261 6:-0.995009 7:-0.0338219 8:-0.9312 9:-0.81271 10:-0.995643 11:-1 12:-1 13:-0.332918 14:1 
32768 1:-0.984583 2:-0.999752 3:-0.99999 4:-0.999994 5:-0.998261 6:-0.995009 7:-0.0338219 8:-0.973525 9:-0.776062 10:-0.980623 11:-1 12:-1 13:-0.450015 14:1 
32768 1:-0.97506 2:-0.999657 3:-0.999973 4:-0.999981 5:-0.998261 6:-0.995009 7:-0.0338219 8:-0.866261 9:-0.425532 10:-0.987675 11:-1 12:-1 13:-0.406519 14:1 
32768 1:-0.993117 2:-1 3:-1 4:-1 5:-0.998261 6:-0.995009 7:-0.0338219 8:-1 9:-1 10:-0.99888 11:-1 12:-0.999508 13:0.0494943 14:1 
32768 1:-0.976581 2:-0.999503 3:-0.999998 4:-0.999999 5:-0.998261 6:-0.995009 7:-0.0338219 8:-0.900622 9:-0.652174 10:-0.989916 11:-1 12:-1 13:-0.0228258 14:1 
32768 1:-0.959563 2:-0.999204 3:-0.999634 4:-0.999901 5:-0.998261 6:-0.99501 7:-0.0338219 8:-0.753502 9:0.72549 10:-0.971041 11:-1 12:-1 13:-0.504598 14:1 
32768 1:-0.973737 2:-0.999359 3:-0.999969 4:-0.999974 5:-0.998261 6:-0.995008 7:-0.0338219 8:-0.984661 9:-0.973154 10:-0.952941 11:-1 12:-1 13:-0.519403 14:1 
32768 1:-0.966357 2:-0.999748 3:-0.999405 4:-0.999968 5:-0.998261 6:-0.995009 7:-0.0338219 8:-0.809525 9:-0.119048 10:-0.99276 11:-0.999711 12:-0.999508 13:-0.496029 14:1 
29107.5232633729 1:-0.980289 2:-0.999555 3:-1 4:-1 5:-0.998261 6:-0.995009 7:-0.0338219 8:-1 9:-1 10:-0.917647 11:-1 12:-1 13:-0.658398 14:1 
32768 1:-0.98249 2:-0.999977 3:-0.999988 4:-0.999999 5:-0.998261 6:-0.995009 7:-0.0338219 8:-0.995897 9:-0.971274 10:-0.995943 11:-1 12:-0.999508 13:0.34873 14:1 
32768 1:-0.969374 2:-0.999358 3:-0.999758 4:-0.999781 5:-0.998261 6:-0.995004 7:-0.0338219 8:-0.931566 9:-0.928144 10:-0.965325 11:-1 12:-1 13:-0.482196 14:1 
9012.566241645747 1:-0.972533 2:-0.99977 3:-0.999904 4:-0.99996 5:-0.998261 6:-0.995009 7:-0.0338219 8:-0.932441 9:-0.487684 10:-0.973529 11:-1 12:-1 13:-0.709492 14:1 
32768 1:-0.975647 2:-0.999923 3:-0.999998 4:-0.999994 5:-0.998261 6:-0.995009 7:-0.0338219 8:-0.858249 9:-0.069768 10:-0.999059 11:-1 12:-0.999508 13:-0.303317 14:1 
32768 1:-0.993257 2:-0.999996 3:-1 4:-1 5:-0.998261 6:-0.995009 7:-0.0338219 8:-0.988823 9:-0.99022 10:-0.995518 11:-1 12:-0.999508 13:0.120048 14:1 
32768 1:-0.963263 2:-0.999361 3:-0.999198 4:-0.999759 5:-0.998261 6:-0.995011 7:-0.0338218 8:-0.847618 9:-0.333334 10:-0.98009 11:-1 12:-1 13:-0.339314 14:1 
32768 1:-0.994586 2:-0.999958 3:-0.999999 4:-0.999999 5:-0.998261 6:-0.995009 7:-0.0338219 8:-0.918277 9:-0.964246 10:-0.991003 11:-1 12:-0.999017 13:-0.561609 14:1 
32768 1:-0.966861 2:-0.999388 3:-0.999852 4:-0.99994 5:-0.998261 6:-0.995008 7:-0.0338219 8:-0.874016 9:-0.307086 10:-0.979608 11:-1 12:-1 13:-0.486374 14:1 
32768 1:-0.984671 2:-0.999688 3:-1 4:-1 5:-0.998261 6:-0.995009 7:-0.0338219 8:-1 9:-0.962616 10:-0.971242 11:-1 12:-1 13:-0.260748 14:1 
32768 1:-0.994109 2:-0.999987 3:-0.999984 4:-0.999999 5:-0.998261 6:-0.995009 7:-0.0338219 8:-0.964379 9:-0.963636 10:-0.998118 11:-1 12:-0.999508 13:0.0201316 14:1 
32768 1:-0.994689 2:-0.999969 3:-0.999999 4:-1 5:-0.998261 6:-0.995009 7:-0.0338219 8:-0.954178 9:-1 10:-0.985294 11:-1 12:-0.999508 13:-0.571662 14:1 
32768 1:-0.992714 2:-0.999935 3:-0.999975 4:-0.99999 5:-0.998261 6:-0.995009 7:-0.0338219 8:-1 9:-1 10:-0.984 11:-1 12:-0.999508 13:-0.322883 14:1 
32768 1:-0.994663 2:-0.999954 3:-0.999993 4:-1 5:-0.998261 6:-0.995009 7:-0.0338219 8:-0.980976 9:-0.980976 10:-0.990133 11:-1 12:-0.999017 13:-0.276772 14:1 
8152.355540751353 1:-0.913636 2:-0.998153 3:-0.994025 4:-0.997321 5:-0.998257 6:-0.994938 7:-0.0338281 8:-0.971607 9:0.565218 10:-0.986275 11:-1 12:-1 13:-0.488238 14:1 
32768 1:-0.98693 2:-0.999751 3:-1 4:-1 5:-0.998261 6:-0.995009 7:-0.0338219 8:-1 9:-0.97159 10:-0.986701 11:-1 12:-1 13:0.130657 14:1 
32768 1:-0.991158 2:-0.999946 3:-0.999987 4:-0.999998 5:-0.998261 6:-0.995009 7:-0.0338219 8:-0.850649 9:-0.914772 10:-0.991816 11:-1 12:-0.999017 13:-0.567413 14:1 
32768 1:-0.951723 2:-0.99836 3:-0.999765 4:-0.999661 5:-0.99826 6:-0.994997 7:-0.0338219 8:-0.929454 9:-0.901234 10:-0.942647 11:-1 12:-1 13:-0.5919 14:1 
32768 1:-0.98707 2:-0.999883 3:-0.999978 4:-0.999994 5:-0.998261 6:-0.995009 7:-0.0338219 8:-0.9052 9:-0.930876 10:-0.991912 11:-1 12:-1 13:-0.258575 14:1 
32768 1:-0.974211 2:-0.999911 3:-0.999683 4:-0.999951 5:-0.998261 6:-0.995009 7:-0.0338219 8:-0.81955 9:0.526316 10:-0.99276 11:-1 12:-1 13:-0.535568 14:1 
32768 1:-0.979086 2:-0.999936 3:-0.99998 4:-0.99998 5:-0.998261 6:-0.995009 7:-0.0338219 8:-0.878789 9:-0.348484 10:-0.997059 11:-1 12:-0.999508 13:-0.445449 14:1 
32768 1:-0.974996 2:-0.999915 3:-0.999517 4:-0.999976 5:-0.998261 6:-0.995009 7:-0.0338219 8:-0.929671 9:-0.492308 10:-0.992157 11:-1 12:-1 13:-0.333766 14:1 
32768 1:-0.993386 2:-0.999956 3:-0.999997 4:-0.999999 5:-0.998261 6:-0.995009 7:-0.0338219 8:-0.98557 9:-0.989898 10:-0.986057 11:-1 12:-0.999508 13:-0.223038 14:1 
32768 1:-0.990294 2:-0.999972 3:-0.99993 4:-0.999999 5:-0.998261 6:-0.995009 7:-0.0338219 8:-0.956974 9:-0.938824 10:-0.991529 11:-1 12:-0.999508 13:-0.0425953 14:1 
32768 1:-0.989365 2:-0.999875 3:-0.99995 4:-0.999987 5:-0.998261 6:-0.995009 7:-0.0338219 8:-0.943861 9:-0.97193 10:-0.983059 11:-1 12:-1 13:-0.483327 14:1 
5643.376795296124 1:-0.992243 2:-0.999979 3:-0.999999 4:-1 5:-0.998261 6:-0.995009 7:-0.0338219 8:-0.946471 9:-0.948478 10:-0.997176 11:-1 12:-0.999508 13:-0.354993 14:1 
30211.95189922094 1:-0.938216 2:-0.998291 3:-0.997592 4:-0.99672 5:-0.998253 6:-0.994889 7:-0.0338221 8:-0.928439 9:-0.808472 10:-0.993981 11:-1 12:-0.999017 13:-0.249556 14:1 
32768 1:-0.981045 2:-0.999646 3:-0.999999 4:-0.999999 5:-0.998261 6:-0.995009 7:-0.0338219 8:-0.979591 9:-0.723214 10:-0.997479 11:-1 12:-1 13:0.216386 14:1 
32768 1:-0.978927 2:-0.999521 3:-1 4:-1 5:-0.998261 6:-0.995009 7:-0.0338219 8:-0.993984 9:-0.936842 10:-0.970279 11:-1 12:-1 13:-0.393437 14:1 
32768 1:-0.993342 2:-0.999956 3:-0.999997 4:-0.999999 5:-0.998261 6:-0.995009 7:-0.0338219 8:-0.991287 9:-0.987294 10:-0.991373 11:-1 12:-0.999508 13:-0.176132 14:1 
32768 1:-0.977356 2:-0.999962 3:-0.999731 4:-0.999939 5:-0.998261 6:-0.995009 7:-0.0338219 8:-0.762286 9:-0.472 10:-0.994771 11:-1 12:-1 13:-0.491939 14:1 
32670.27034633021 1:-0.978172 2:-0.999881 3:-0.999958 4:-0.999995 5:-0.998261 6:-0.995009 7:-0.0338219 8:-0.633961 9:-0.231316 10:-0.998616 11:-1 12:-0.999017 13:-0.685765 14:1 
3402.217401831206 1:-0.885894 2:-0.992935 3:-0.999325 4:-0.998304 5:-0.998259 6:-0.994883 7:-0.0338219 8:-0.986231 9:-0.608434 10:-0.983957 11:-1 12:-1 13:-0.35373 14:1 
32768 1:-0.963597 2:-0.998959 3:-0.999943 4:-0.999972 5:-0.998261 6:-0.995008 7:-0.0338219 8:-0.940887 9:-0.655172 10:-0.997954 11:-1 12:-1 13:0.398728 14:1 
32768 1:-0.99367 2:-0.999999 3:-1 4:-1 5:-0.998261 6:-0.995009 7:-0.0338219 8:-0.962734 9:-0.923914 10:-0.997954 11:-1 12:-0.999508 13:-0.483309 14:1 
32768 1:-0.954431 2:-0.99868 3:-0.999952 4:-0.999989 5:-0.998261 6:-0.995009 7:-0.0338219 8:-0.907086 9:-0.268292 10:-0.95508 11:-1 12:-1 13:-0.549746 14:1 
14368.31724272651 1:-0.991484 2:-0.999985 3:-1 4:-1 5:-0.998261 6:-0.995009 7:-0.0338219 8:-0.916469 9:-0.833888 10:-0.994652 11:-1 12:-1 13:-0.622234 14:1 
18698.91601925836 1:-0.986749 2:-0.999962 3:-0.999944 4:-0.999999 5:-0.998261 6:-0.995009 7:-0.0338219 8:-0.975941 9:-0.898948 10:-0.992437 11:-1 12:-0.999508 13:-0.621245 14:1 
32768 1:-0.993907 2:-0.999999 3:-0.999959 4:-0.999997 5:-0.998261 6:-0.995009 7:-0.0338219 8:-0.956521 9:-0.929348 10:-0.998257 11:-1 12:-0.999017 13:-0.0319332 14:1 
32768 1:-0.965099 2:-0.999054 3:-0.99996 4:-0.999964 5:-0.998261 6:-0.995009 7:-0.0338219 8:-0.94195 9:-0.949206 10:-0.954412 11:-1 12:-1 13:-0.543086 14:1 
32768 1:-0.99344 2:-0.99998 3:-1 4:-1 5:-0.998261 6:-0.995009 7:-0.0338219 8:-1 9:-1 10:-0.988235 11:-1 12:-0.999017 13:-0.261031 14:1 
32768 1:-0.967191 2:-0.999409 3:-0.999858 4:-0.999942 5:-0.998261 6:-0.995008 7:-0.0338219 8:-0.857143 9:-0.53125 10:-0.988235 11:-1 12:-0.999508 13:-0.357846 14:1 
32768 1:-0.984006 2:-0.999722 3:-0.999986 4:-0.999992 5:-0.998261 6:-0.995009 7:-0.0338219 8:-1 9:-0.940828 10:-0.972549 11:-1 12:-1 13:-0.35986 14:1 
32768 1:-0.970326 2:-0.99918 3:-0.999998 4:-0.999999 5:-0.998261 6:-0.995009 7:-0.0338219 8:-1 9:-0.986578 10:-0.901961 11:-1 12:-1 13:-0.63499 14:1 
32768 1:-0.991383 2:-0.999916 3:-0.99997 4:-0.999992 5:-0.998261 6:-0.995009 7:-0.0338219 8:-0.977808 9:-0.990292 10:-0.983193 11:-1 12:-1 13:-0.388773 14:1 
32768 1:-0.995318 2:-0.999966 3:-1 4:-1 5:-0.998261 6:-0.995009 7:-0.0338219 8:-0.995522 9:-0.992164 10:-0.994118 11:-1 12:-0.999508 13:0.0513052 14:1 
32768 1:-0.979122 2:-0.999516 3:-1 4:-1 5:-0.998261 6:-0.995009 7:-0.0338219 8:-1 9:-1 10:-0.955882 11:-1 12:-1 13:-0.411086 14:1 
32768 1:-0.940838 2:-0.997492 3:-1 4:-1 5:-0.998261 6:-0.995009 7:-0.0338219 8:-1 9:-1 10:-0.782353 11:-1 12:-1 13:-0.816307 14:1 
32768 1:-0.971983 2:-0.999249 3:-1 4:-1 5:-0.998261 6:-0.995009 7:-0.0338219 8:-1 9:-0.931972 10:-0.971041 11:-1 12:-1 13:-0.145833 14:1 
32768 1:-0.984933 2:-0.999753 3:-0.999988 4:-0.999993 5:-0.998261 6:-0.995009 7:-0.0338219 8:-1 9:-0.906432 10:-0.975232 11:-1 12:-1 13:-0.418471 14:1 
32768 1:-0.995286 2:-0.999966 3:-1 4:-1 5:-0.998261 6:-0.995009 7:-0.0338219 8:-1 9:-1 10:-0.987395 11:-1 12:-0.999508 13:-0.297619 14:1 
4086.287962676222 1:-0.96373 2:-0.998879 3:-1 4:-1 5:-0.998261 6:-0.995009 7:-0.0338219 8:-1 9:-0.875 10:-0.99085 11:-1 12:-1 13:0.457895 14:1 
32768 1:-0.990523 2:-0.999992 3:-0.999984 4:-0.999998 5:-0.998261 6:-0.995009 7:-0.0338219 8:-0.802103 9:-0.800866 10:-0.99888 11:-1 12:-0.999508 13:-0.224937 14:1 
32768 1:-0.994171 2:-0.999959 3:-1 4:-1 5:-0.998261 6:-0.995009 7:-0.0338219 8:-0.995019 9:-0.989106 10:-0.991651 11:-1 12:-0.999508 13:-0.0261296 14:1 
32768 1:-0.988427 2:-0.999789 3:-1 4:-1 5:-0.998261 6:-0.995009 7:-0.0338219 8:-1 9:-0.984252 10:-0.979608 11:-1 12:-1 13:-0.255024 14:1 
32768 1:-0.994867 2:-0.999998 3:-0.999997 4:-0.999999 5:-0.998261 6:-0.995009 7:-0.0338219 8:-0.927333 9:-0.942196 10:-0.99902 11:-1 12:-0.999508 13:-0.327768 14:1 
32768 1:-0.990172 2:-0.999972 3:-0.99993 4:-0.999999 5:-0.998261 6:-0.995009 7:-0.0338219 8:-0.968107 9:-0.948838 10:-0.992471 11:-1 12:-0.999508 13:-0.151159 14:1 
32768 1:-0.99416 2:-0.999999 3:-0.999999 4:-1 5:-0.998261 6:-0.995009 7:-0.0338219 8:-0.925365 9:-0.90204 10:-0.997861 11:-1 12:-1 13:-0.395972 14:1 
32768 1:-0.982797 2:-0.999635 3:-1 4:-1 5:-0.998261 6:-0.995009 7:-0.0338219 8:-1 9:-0.970732 10:-0.993928 11:-1 12:-1 13:0.538077 14:1 
32768 1:-0.991762 2:-0.999982 3:-0.999975 4:-0.999994 5:-0.998261 6:-0.995009 7:-0.0338219 8:-0.682256 9:-0.86547 10:-0.997759 11:-1 12:-0.999508 13:-0.567925 14:1 
32768 1:-0.966977 2:-0.999151 3:-0.999963 4:-0.999969 5:-0.998261 6:-0.995008 7:-0.0338219 8:-0.794407 9:-0.693122 10:-0.99457 11:-0.999423 12:-1 13:-0.345559 14:1 
32768 1:-0.978484 2:-0.999583 3:-0.999924 4:-0.999935 5:-0.998261 6:-0.995008 7:-0.0338219 8:-0.99067 9:-0.991836 10:-0.960181 11:-1 12:-1 13:-0.481162 14:1 
32768 1:-0.942287 2:-0.997673 3:-0.999826 4:-0.999742 5:-0.998261 6:-0.994999 7:-0.0338219 8:-0.922953 9:0.033708 10:-0.989542 11:-1 12:-1 13:0.0988384 14:1 
31053.73589928868 1:-0.987196 2:-0.999979 3:-0.999996 4:-1 5:-0.998261 6:-0.995009 7:-0.0338219 8:-0.917184 9:-0.99586 10:-0.99257 11:-1 12:-1 13:-0.864396 14:1 
32768 1:-0.970124 2:-0.999219 3:-0.999978 4:-0.999989 5:-0.998261 6:-0.995009 7:-0.0338219 8:-0.976437 9:-0.773196 10:-0.985882 11:-1 12:-1 13:0.119915 14:1 
32768 1:-0.99112 2:-0.999992 3:-1 4:-1 5:-0.998261 6:-0.995009 7:-0.0338219 8:-0.993936 9:-0.97878 10:-0.996863 11:-1 12:-0.999508 13:0.07588 14:1 
32768 1:-0.992868 2:-0.999932 3:-0.999991 4:-0.999999 5:-0.998261 6:-0.995009 7:-0.0338219 8:-0.915751 9:-0.958334 10:-0.998762 11:-1 12:-0.999508 13:-0.253125 14:1 
32768 1:-0.992776 2:-0.999936 3:-0.999976 4:-0.99999 5:-0.998261 6:-0.995009 7:-0.0338219 8:-1 9:-1 10:-0.981586 11:-1 12:-0.999508 13:-0.382315 14:1 
32768 1:-0.993532 2:-1 3:-0.999999 4:-0.999999 5:-0.998261 6:-0.995009 7:-0.0338219 8:-1 9:-0.994918 10:-1 11:-1 12:-0.999508 13:-0.535109 14:1 
32768 1:-0.994676 2:-0.999958 3:-1 4:-1 5:-0.998261 6:-0.995009 7:-0.0338219 8:-0.995122 9:-1 10:-0.984941 11:-1 12:-0.999017 13:-0.403851 14:1 
32768 1:-0.984355 2:-0.999867 3:-0.999998 4:-0.999999 5:-0.998261 6:-0.995009 7:-0.0338219 8:-0.965065 9:-0.82096 10:-0.975232 11:-1 12:-1 13:-0.810159 14:1 
32768 1:-0.994232 2:-0.999986 3:-0.999985 4:-0.999999 5:-0.998261 6:-0.995009 7:-0.0338219 8:-0.976313 9:-0.968912 10:-0.993862 11:-1 12:-0.999508 13:0.0934588 14:1 
32768 1:-0.995746 2:-0.999986 3:-1 4:-1 5:-0.998261 6:-0.995009 7:-0.0338219 8:-0.962361 9:-0.982036 10:-0.997148 11:-1 12:-0.999508 13:-0.532812 14:1 
32768 1:-0.991563 2:-0.999992 3:-1 4:-1 5:-0.998261 6:-0.995009 7:-0.0338219 8:-0.94053 9:-0.938914 10:-0.992388 11:-1 12:-0.999508 13:-0.637799 14:1 
32768 1:-0.988822 2:-0.999995 3:-0.999995 4:-0.999999 5:-0.998261 6:-0.995009 7:-0.0338219 8:-0.949815 9:-0.888224 10:-0.99451 11:-1 12:-0.999508 13:-0.511912 14:1 
5895.67331406093 1:-0.976746 2:-0.999615 3:-0.99987 4:-0.999924 5:-0.998261 6:-0.995008 7:-0.0338219 8:-0.979771 9:-0.716814 10:-0.996078 11:-1 12:-1 13:-0.052957 14:1 
32768 1:-0.991418 2:-0.999945 3:-0.999962 4:-0.999996 5:-0.998261 6:-0.995009 7:-0.0338219 8:-0.909232 9:-0.877256 10:-0.984775 11:-1 12:-0.999508 13:-0.28421 14:1 
32768 1:-0.972538 2:-0.999948 3:-0.999529 4:-0.999936 5:-0.998261 6:-0.995009 7:-0.0338219 8:-0.70909 9:-0.054546 10:-0.995046 11:-1 12:-1 13:-0.490243 14:1 
32768 1:-0.993405 2:-0.999959 3:-1 4:-1 5:-0.998261 6:-0.995009 7:-0.0338219 8:-0.971298 9:-0.972602 10:-0.993583 11:-1 12:-0.999508 13:-0.429857 14:1 
32768 1:-0.995281 2:-0.999973 3:-0.999997 4:-1 5:-0.998261 6:-0.995009 7:-0.0338219 8:-0.994213 9:-0.979746 10:-0.994853 11:-1 12:-0.999017 13:-0.117433 14:1 
32768 1:-0.976375 2:-0.999961 3:-0.999684 4:-0.999942 5:-0.998261 6:-0.995009 7:-0.0338219 8:-0.760368 9:-0.145162 10:-0.996471 11:-1 12:-1 13:-0.377271 14:1 
32768 1:-0.994722 2:-0.999998 3:-1 4:-1 5:-0.998261 6:-0.995009 7:-0.0338219 8:-1 9:-1 10:-0.997386 11:-1 12:-0.999508 13:0.16388 14:1 
24391.37574670657 1:-0.946058 2:-0.997857 3:-1 4:-0.999999 5:-0.998261 6:-0.995009 7:-0.0338219 8:-1 9:-0.973684 10:-0.942246 11:-1 12:-1 13:-0.420547 14:1 
16824.72056186499 1:-0.971525 2:-0.999848 3:-0.999964 4:-0.999993 5:-0.998261 6:-0.995009 7:-0.0338219 8:-0.67347 9:0.802198 10:-0.997523 11:-1 12:-1 13:-0.512663 14:1 
32768 1:-0.988356 2:-0.999839 3:-1 4:-1 5:-0.998261 6:-0.995009 7:-0.0338219 8:-0.952133 9:-0.853404 10:-0.990311 11:-1 12:-1 13:-0.255183 14:1 
32768 1:-0.9799 2:-0.999645 3:-0.999955 4:-0.999986 5:-0.998261 6:-0.995009 7:-0.0338219 8:-0.927438 9:-0.650794 10:-0.991696 11:-1 12:-1 13:-0.194691 14:1 
32768 1:-0.987243 2:-0.99998 3:-0.999995 4:-1 5:-0.998261 6:-0.995009 7:-0.0338219 8:-0.895753 9:-0.993244 10:-0.991075 11:-1 12:-1 13:-0.858239 14:1 
32768 1:-0.968051 2:-0.999478 3:-0.999453 4:-0.999806 5:-0.998261 6:-0.995007 7:-0.0338219 8:-0.817573 9:-0.784038 10:-0.996078 11:-0.999711 12:-1 13:-0.298485 14:1 
32768 1:-0.993007 2:-0.999984 3:-0.999996 4:-0.999998 5:-0.998261 6:-0.995009 7:-0.0338219 8:-0.975609 9:-0.939024 10:-0.997794 11:-1 12:-0.999017 13:-0.426766 14:1 
32768 1:-0.993068 2:-0.999922 3:-0.999998 4:-0.999999 5:-0.998261 6:-0.995009 7:-0.0338219 8:-0.925833 9:-0.973452 10:-0.987451 11:-1 12:-0.999017 13:-0.407623 14:1 
32768 1:-0.95763 2:-0.99856 3:-0.999999 4:-0.999999 5:-0.998261 6:-0.995009 7:-0.0338219 8:-0.98379 9:-0.978724 10:-0.862185 11:-1 12:-1 13:-0.726903 14:1 
32768 1:-0.978432 2:-0.999851 3:-0.999996 4:-0.999999 5:-0.998261 6:-0.995009 7:-0.0338219 8:-0.884754 9:0.445378 10:-0.992157 11:-1 12:-1 13:-0.5766 14:1 
32768 1:-0.972595 2:-0.999767 3:-0.999926 4:-0.999972 5:-0.998261 6:-0.995009 7:-0.0338219 8:-0.843902 9:-0.443902 10:-0.977778 11:-1 12:-1 13:-0.682885 14:1 
32768 1:-0.991614 2:-0.999963 3:-0.999946 4:-0.999998 5:-0.998261 6:-0.995009 7:-0.0338219 8:-0.972057 9:-0.96088 10:-0.990588 11:-1 12:-0.999017 13:-0.155744 14:1 
32768 1:-0.986532 2:-0.999761 3:-0.999992 4:-0.999995 5:-0.998261 6:-0.995009 7:-0.0338219 8:-0.99067 9:-0.983674 10:-0.974118 11:-1 12:-1 13:-0.326143 14:1 
32768 1:-0.993345 2:-0.99998 3:-1 4:-1 5:-0.998261 6:-0.995009 7:-0.0338219 8:-1 9:-1 10:-0.988615 11:-1 12:-0.999017 13:-0.218745 14:1 
32207.21674971463 1:-0.885894 2:-0.992935 3:-0.999325 4:-0.998304 5:-0.998259 6:-0.994883 7:-0.0338219 8:-0.986231 9:-0.608434 10:-0.983957 11:-1 12:-1 13:-0.35373 14:1 
32768 1:-0.993471 2:-1 3:-0.999999 4:-0.999999 5:-0.998261 6:-0.995009 7:-0.0338219 8:-0.976766 9:-0.949174 10:-0.998616 11:-1 12:-0.999508 13:-0.468336 14:1 
32768 1:-0.993568 2:-0.999948 3:-0.999998 4:-0.999999 5:-0.998261 6:-0.995009 7:-0.0338219 8:-0.995499 9:-1 10:-0.979294 11:-1 12:-0.999508 13:-0.358403 14:1 
32768 1:-0.987378 2:-0.999761 3:-1 4:-1 5:-0.998261 6:-0.995009 7:-0.0338219 8:-1 9:-1 10:-0.942857 11:-1 12:-1 13:-0.571026 14:1 
32768 1:-0.98874 2:-0.999987 3:-0.999995 4:-0.999999 5:-0.998261 6:-0.995009 7:-0.0338219 8:-0.990005 9:-0.932944 10:-0.996324 11:-1 12:-0.999508 13:-0.582412 14:1 
23.15064788476042 1:-0.967125 2:-0.999564 3:-0.999989 4:-0.999995 5:-0.998261 6:-0.995009 7:-0.0338219 8:-1 9:-0.218182 10:-0.974332 11:-1 12:-1 13:-0.710004 14:0.596899 
32768 1:-0.962323 2:-0.999158 3:-0.999982 4:-0.999995 5:-0.998261 6:-0.995009 7:-0.0338219 8:-0.883531 9:-0.401274 10:-0.999129 11:-1 12:-1 13:-0.169091 14:1 
28335.00528817061 1:-0.966763 2:-0.999788 3:-0.999974 4:-0.999926 5:-0.998261 6:-0.99501 7:-0.0338219 8:-1 9:-1 10:-0.989076 11:-1 12:-1 13:-0.806413 14:1 
10.99121602834474 1:-0.980289 2:-0.999555 3:-1 4:-1 5:-0.998261 6:-0.995009 7:-0.0338219 8:-1 9:-1 10:-0.917647 11:-1 12:-1 13:-0.658398 14:1 
25012.21646621109 1:-0.935275 2:-0.998049 3:-0.996268 4:-0.995017 5:-0.998244 6:-0.994821 7:-0.0338245 8:-0.965627 9:0.022556 10:-0.983529 11:-0.999711 12:-1 13:-0.317671 14:1 
32768 1:-0.992285 2:-0.999993 3:-0.999998 4:-0.999998 5:-0.998261 6:-0.995009 7:-0.0338219 8:-0.968379 9:-0.905138 10:-0.99638 11:-1 12:-0.999508 13:-0.578181 14:1 
32768 1:-0.982569 2:-0.999854 3:-0.999998 4:-0.999999 5:-0.998261 6:-0.995009 7:-0.0338219 8:-0.979259 9:-0.894736 10:-0.978517 11:-1 12:-1 13:-0.774657 14:1 
32768 1:-0.961468 2:-0.999015 3:-0.999944 4:-0.999945 5:-0.998261 6:-0.995009 7:-0.0338219 8:-0.780823 9:0.369864 10:-0.98552 11:-1 12:-1 13:-0.243187 14:1 
32768 1:-0.981058 2:-0.999934 3:-0.99997 4:-0.999996 5:-0.998261 6:-0.995009 7:-0.0338219 8:-0.960421 9:-0.722944 10:-0.988235 11:-1 12:-0.999508 13:-0.184038 14:1 
32768 1:-0.993084 2:-0.999977 3:-0.999969 4:-0.999999 5:-0.998261 6:-0.995009 7:-0.0338219 8:-0.95493 9:-0.952112 10:-0.992647 11:-1 12:-0.999508 13:-0.214531 14:1 
32768 1:-0.993933 2:-0.999955 3:-0.999998 4:-1 5:-0.998261 6:-0.995009 7:-0.0338219 8:-0.995723 9:-0.988774 10:-0.985579 11:-1 12:-0.999508 13:-0.202005 14:1 
32768 1:-0.996485 2:-0.999986 3:-1 4:-1 5:-0.998261 6:-0.995009 7:-0.0338219 8:-0.993394 9:-0.99711 10:-0.991529 11:-1 12:-0.999508 13:-0.0852083 14:1 
32768 1:-0.969987 2:-0.999201 3:-0.999995 4:-0.999991 5:-0.998261 6:-0.995009 7:-0.0338219 8:-0.954738 9:-0.821782 10:-0.967059 11:-1 12:-0.999508 13:-0.359657 14:1 
32768 1:-0.971059 2:-0.999324 3:-0.999997 4:-0.999997 5:-0.998261 6:-0.995009 7:-0.0338219 8:-0.963134 9:-0.548388 10:-0.973529 11:-1 12:-1 13:-0.468336 14:1 
32768 1:-0.974295 2:-0.999337 3:-1 4:-1 5:-0.998261 6:-0.995009 7:-0.0338219 8:-1 9:-1 10:-0.89281 11:-1 12:-1 13:-0.658398 14:1 
32768 1:-0.974386 2:-0.999341 3:-1 4:-1 5:-0.998261 6:-0.995009 7:-0.0338219 8:-1 9:-1 10:-0.89281 11:-1 12:-1 13:-0.658398 14:1 
32768 1:-0.982953 2:-0.999653 3:-0.999992 4:-0.999997 5:-0.998261 6:-0.995009 7:-0.0338219 8:-1 9:-1 10:-0.954622 11:-1 12:-1 13:-0.515127 14:1 
32768 1:-0.970366 2:-0.999278 3:-0.999955 4:-0.999986 5:-0.998261 6:-0.995009 7:-0.0338219 8:-0.97619 9:-0.729166 10:-0.983193 11:-1 12:-1 13:0.224001 14:1 
32768 1:-0.997243 2:-0.999997 3:-1 4:-1 5:-0.998261 6:-0.995009 7:-0.0338219 8:-0.92381 9:-0.988618 10:-0.995548 11:-1 12:-0.998525 13:-0.737953 14:1 
32768 1:-0.99483 2:-0.999998 3:-0.999998 4:-0.999999 5:-0.998261 6:-0.995009 7:-0.0338219 8:-0.927751 9:-0.95977 10:-0.998977 11:-1 12:-0.999017 13:-0.382518 14:1 
27935.75774517861 1:-0.96628 2:-0.999827 3:-0.999518 4:-0.999883 5:-0.998261 6:-0.995008 7:-0.0338219 8:-0.782313 9:0.190476 10:-0.988235 11:-1 12:-1 13:-0.536496 14:1 
32768 1:-0.995302 2:-0.999973 3:-0.999997 4:-1 5:-0.998261 6:-0.995009 7:-0.0338219 8:-0.994199 9:-1 10:-0.984655 11:-1 12:-0.999508 13:-0.418118 14:1 
32768 1:-0.978602 2:-0.999961 3:-0.999991 4:-0.999995 5:-0.998261 6:-0.995009 7:-0.0338219 8:-0.905625 9:-0.919436 10:-0.994538 11:-1 12:-0.998033 13:-0.650024 14:1 
32768 1:-0.992684 2:-0.999946 3:-0.999994 4:-0.999999 5:-0.998261 6:-0.995009 7:-0.0338219 8:-0.99144 9:-0.995006 10:-0.985185 11:-1 12:-0.999508 13:-0.283415 14:1 
32768 1:-0.99113 2:-0.999992 3:-1 4:-1 5:-0.998261 6:-0.995009 7:-0.0338219 8:-0.993936 9:-0.986738 10:-0.999241 11:-1 12:-0.999508 13:0.0941036 14:1 
32768 1:-0.992746 2:-0.999999 3:-1 4:-1 5:-0.998261 6:-0.995009 7:-0.0338219 8:-0.974318 9:-0.94382 10:-0.995798 11:-1 12:-0.999508 13:-0.658902 14:1 
32768 1:-0.961492 2:-0.999357 3:-0.999056 4:-0.999743 5:-0.998261 6:-0.995013 7:-0.0338219 8:-0.87013 9:-0.431818 10:-0.994464 11:-1 12:-1 13:-0.217632 14:1 
32768 1:-0.990383 2:-0.999903 3:-0.999958 4:-0.999991 5:-0.998261 6:-0.995009 7:-0.0338219 8:-0.987712 9:-0.935484 10:-0.996285 11:-1 12:-1 13:-0.110711 14:1 
32768 1:-0.990189 2:-0.999866 3:-0.999975 4:-0.999989 5:-0.998261 6:-0.995009 7:-0.0338219 8:-0.988713 9:-0.97037 10:-0.977709 11:-1 12:-1 13:-0.309377 14:1 
32768 1:-0.978766 2:-0.999703 3:-0.999989 4:-0.999996 5:-0.998261 6:-0.995009 7:-0.0338219 8:-0.894631 9:-0.90071 10:-0.977855 11:-1 12:-1 13:-0.609973 14:1 
32768 1:-0.966915 2:-0.999643 3:-0.999086 4:-0.999749 5:-0.998261 6:-0.995013 7:-0.0338219 8:-0.973109 9:-0.035294 10:-0.987451 11:-1 12:-1 13:-0.0403781 14:1 
6664.485017914392 1:-0.964744 2:-0.999973 3:-0.999646 4:-0.999919 5:-0.998261 6:-0.995009 7:-0.0338219 8:-0.52653 9:0.828572 10:-0.997954 11:-1 12:-0.999508 13:-0.763791 14:1 
32768 1:-0.969633 2:-0.999267 3:-0.999869 4:-0.999856 5:-0.998261 6:-0.995005 7:-0.0338219 8:-0.989886 9:-0.946902 10:-0.959664 11:-1 12:-1 13:-0.456959 14:1 
32768 1:-0.981992 2:-0.999767 3:-0.999845 4:-0.999954 5:-0.998261 6:-0.995009 7:-0.0338219 8:-0.946345 9:-0.906104 10:-0.982007 11:-1 12:-1 13:-0.290323 14:1 
32768 1:-0.98879 2:-0.99997 3:-0.999991 4:-0.999997 5:-0.998261 6:-0.995009 7:-0.0338219 8:-0.942078 9:-0.97271 10:-0.993277 11:-1 12:-0.999017 13:-0.737361 14:1 
32768 1:-0.990142 2:-0.999993 3:-0.999982 4:-0.999996 5:-0.998261 6:-0.995009 7:-0.0338219 8:-0.940112 9:-0.895196 10:-0.997523 11:-1 12:-0.999508 13:-0.461464 14:1 
32768 1:-0.977056 2:-0.999927 3:-0.999998 4:-1 5:-0.998261 6:-0.995009 7:-0.0338219 8:-0.810955 9:0.037594 10:-0.999059 11:-1 12:-1 13:-0.36236 14:1 
32768 1:-0.957008 2:-0.99862 3:-0.999924 4:-0.999868 5:-0.998261 6:-0.995005 7:-0.0338219 8:-0.888889 9:-0.805556 10:-0.956863 11:-1 12:-0.999508 13:-0.449044 14:1 
32768 1:-0.989564 2:-0.999955 3:-0.999996 4:-0.999999 5:-0.998261 6:-0.995009 7:-0.0338219 8:-0.949207 9:-0.923232 10:-0.991176 11:-1 12:-0.999508 13:-0.433983 14:1 
32768 1:-0.992083 2:-0.999995 3:-0.999987 4:-0.999998 5:-0.998261 6:-0.995009 7:-0.0338219 8:-0.78987 9:-0.906192 10:-0.999328 11:-1 12:-0.999017 13:-0.631545 14:1 
32768 1:-0.986434 2:-0.999994 3:-0.999857 4:-0.999967 5:-0.998261 6:-0.995009 7:-0.0338219 8:-0.890505 9:-0.497006 10:-0.996639 11:-1 12:-1 13:-0.450121 14:1 
32768 1:-0.986631 2:-0.999947 3:-0.999913 4:-0.999999 5:-0.998261 6:-0.995009 7:-0.0338219 8:-0.951625 9:-0.798942 10:-0.997759 11:-1 12:-0.999508 13:0.0627976 14:1 
32768 1:-0.991082 2:-0.999885 3:-0.999995 4:-0.999995 5:-0.998261 6:-0.995009 7:-0.0338219 8:-1 9:-0.979382 10:-0.98009 11:-1 12:-1 13:-0.416148 14:1 
32768 1:-0.97841 2:-0.999997 3:-0.99997 4:-0.999954 5:-0.998261 6:-0.995009 7:-0.0338219 8:-0.711963 9:-0.560976 10:-0.992839 11:-1 12:-0.999508 13:-0.768023 14:1 
32768 1:-0.984809 2:-0.999957 3:-1 4:-0.999999 5:-0.998261 6:-0.995009 7:-0.0338219 8:-0.838021 9:-0.519686 10:-0.99457 11:-1 12:-1 13:-0.563606 14:1 
17728.70423954591 1:-0.886055 2:-0.992957 3:-0.999397 4:-0.998471 5:-0.998259 6:-0.994896 7:-0.0338219 8:-0.826839 9:-0.430304 10:-0.934759 11:-1 12:-1 13:-0.666455 14:1 
32768 1:-0.99344 2:-0.99998 3:-1 4:-1 5:-0.998261 6:-0.995009 7:-0.0338219 8:-1 9:-1 10:-0.988235 11:-1 12:-0.999017 13:-0.261031 14:1 
32768 1:-0.99562 2:-1 3:-1 4:-1 5:-0.998261 6:-0.995009 7:-0.0338219 8:-0.995239 9:-1 10:-0.998574 11:-1 12:-1 13:-0.837967 14:1 
32768 1:-0.990558 2:-0.999968 3:-0.999985 4:-0.999997 5:-0.998261 6:-0.995009 7:-0.0338219 8:-0.81011 9:-0.913846 10:-0.992471 11:-1 12:-0.999508 13:-0.580955 14:1 
32768 1:-0.989941 2:-0.999997 3:-1 4:-1 5:-0.998261 6:-0.995009 7:-0.0338219 8:-1 9:-1 10:-0.998824 11:-1 12:-0.999508 13:0.170885 14:1 
26218.74407157517 1:-0.993136 2:-0.999995 3:-1 4:-1 5:-0.998261 6:-0.995009 7:-0.0338219 8:-1 9:-1 10:-0.995294 11:-1 12:-0.999508 13:-0.0676295 14:1 
32768 1:-0.986525 2:-0.999966 3:-1 4:-0.999995 5:-0.998261 6:-0.995009 7:-0.0338219 8:-0.780219 9:-0.761538 10:-0.994771 11:-1 12:-0.999508 13:-0.491939 14:1 
32768 1:-0.982949 2:-0.999638 3:-1 4:-1 5:-0.998261 6:-0.995009 7:-0.0338219 8:-1 9:-1 10:-0.927059 11:-1 12:-1 13:-0.635069 14:1 
32768 1:-0.991528 2:-0.999962 3:-0.999946 4:-0.999998 5:-0.998261 6:-0.995009 7:-0.0338219 8:-0.988823 9:-0.96577 10:-0.991855 11:-1 12:-0.999508 13:-0.121488 14:1 
32768 1:-0.978078 2:-0.99977 3:-0.999953 4:-0.999987 5:-0.998261 6:-0.995009 7:-0.0338219 8:-0.789474 9:0.144736 10:-0.995908 11:-1 12:-0.999508 13:-0.319641 14:1 
32768 1:-0.982743 2:-0.999978 3:-0.999825 4:-0.99998 5:-0.998261 6:-0.995009 7:-0.0338219 8:-0.761904 10:-0.991597 11:-1 12:-1 13:-0.359481 14:1 
32768 1:-0.993065 2:-0.99998 3:-0.999964 4:-1 5:-0.998261 6:-0.995009 7:-0.0338219 8:-1 9:-1 10:-0.992605 11:-1 12:-0.999508 13:-0.0721346 14:1 
32768 1:-0.994713 2:-1 3:-0.999999 4:-0.999998 5:-0.998261 6:-0.995009 7:-0.0338219 8:-1 9:-0.987916 10:-1 11:-1 12:-0.999508 13:-0.541761 14:1 
32768 1:-0.973934 2:-0.999928 3:-0.999811 4:-0.999959 5:-0.998261 6:-0.995009 7:-0.0338219 8:-0.770688 9:-0.45631 10:-0.996435 11:-1 12:-0.999017 13:-0.658602 14:1 
32768 1:-0.984886 2:-0.999704 3:-0.999996 4:-0.999999 5:-0.998261 6:-0.995009 7:-0.0338219 8:-0.988309 9:-0.953964 10:-0.992437 11:-1 12:-1 13:0.196899 14:1 
32768 1:-0.988223 2:-0.999976 3:-0.999903 4:-0.999993 5:-0.998261 6:-0.995009 7:-0.0338219 8:-0.981161 9:-0.945054 10:-0.996639 11:-1 12:-0.999508 13:0.0579745 14:1 
32768 1:-0.988836 2:-0.999974 3:-0.999997 4:-1 5:-0.998261 6:-0.995009 7:-0.0338219 8:-0.973378 9:-0.936772 10:-0.99276 11:-1 12:-0.999508 13:-0.528033 14:1 
32768 1:-0.994248 2:-0.999962 3:-1 4:-1 5:-0.998261 6:-0.995009 7:-0.0338219 8:-0.988437 9:-0.969646 10:-0.989647 11:-1 12:-0.999508 13:-0.51927 14:1 
6997.860089778919 1:-0.962959 2:-0.999789 3:-0.999811 4:-0.999754 5:-0.998261 6:-0.99501 7:-0.0338219 8:-1 9:0.487804 10:-0.996863 11:-1 12:-1 13:-0.462241 14:1 
32768 1:-0.993591 2:-0.999994 3:-0.999999 4:-0.999999 5:-0.998261 6:-0.995009 7:-0.0338219 8:-0.982199 9:-0.965732 10:-0.998431 11:-1 12:-0.999508 13:-0.518025 14:1 
32768 1:-0.981458 2:-0.99959 3:-1 4:-1 5:-0.998261 6:-0.995009 7:-0.0338219 8:-1 9:-1 10:-0.921569 11:-1 12:-1 13:-0.629398 14:1 
32768 1:-0.991416 2:-0.999985 3:-0.999947 4:-0.999987 5:-0.998261 6:-0.995009 7:-0.0338219 8:-0.946046 9:-0.948498 10:-0.995132 11:-1 12:-0.999508 13:-0.334217 14:1 
32768 1:-0.988233 2:-0.999983 3:-0.999998 4:-1 5:-0.998261 6:-0.995009 7:-0.0338219 8:-0.872128 9:-0.79021 10:-0.9939 11:-1 12:-0.999508 13:-0.493194 14:1 
32768 1:-0.990496 2:-0.999974 3:-0.999932 4:-0.999999 5:-0.998261 6:-0.995009 7:-0.0338219 8:-0.994647 9:-0.97658 10:-0.990588 11:-1 12:-0.999508 13:-0.137423 14:1 
32768 1:-0.973125 2:-0.999729 3:-0.999985 4:-0.999976 5:-0.998261 6:-0.995009 7:-0.0338219 8:-1 9:-1 10:-0.981699 11:-1 12:-1 13:-0.779886 14:1 
32768 1:-0.980721 2:-0.99992 3:-0.999975 4:-0.999998 5:-0.998261 6:-0.995009 7:-0.0338219 8:-0.930736 9:-0.887446 10:-0.986765 11:-1 12:-0.999508 13:-0.201025 14:1 
32768 1:-0.993927 2:-0.999964 3:-0.999993 4:-0.999999 5:-0.998261 6:-0.995009 7:-0.0338219 8:-0.983922 9:-1 10:-0.984941 11:-1 12:-0.999508 13:-0.403851 14:1 
29176.81571735189 1:-0.908602 2:-0.995572 3:-0.997358 4:-0.996865 5:-0.998254 6:-0.994914 7:-0.0338238 8:-0.927602 9:-0.710408 10:-0.951634 11:-1 12:-1 13:-0.539367 14:1 
32768 1:-0.993992 2:-0.999987 3:-0.999977 4:-1 5:-0.998261 6:-0.995009 7:-0.0338219 8:-0.99392 9:-0.978724 10:-0.993862 11:-1 12:-0.999508 13:-0.196687 14:1 
32768 1:-0.989132 2:-0.999992 3:-0.999989 4:-0.999998 5:-0.998261 6:-0.995009 7:-0.0338219 8:-0.908327 9:-0.839572 10:-1 11:-1 12:-0.999017 13:-0.199691 14:1 
32768 1:-0.967821 2:-0.999266 3:-0.999713 4:-0.999836 5:-0.998261 6:-0.995007 7:-0.0338219 8:-0.910946 9:-0.87013 10:-0.971242 11:-1 12:-1 13:-0.400866 14:1 
459.0434918347248 1:-0.958913 2:-0.998687 3:-0.999915 4:-0.999891 5:-0.998261 6:-0.995007 7:-0.0338219 8:-1 9:-0.801652 10:-0.929412 11:-1 12:-1 13:-0.563579 14:0.804695 
32768 1:-0.980289 2:-0.999555 3:-1 4:-1 5:-0.998261 6:-0.995009 7:-0.0338219 8:-1 9:-1 10:-0.917647 11:-1 12:-1 13:-0.658398 14:1 
32768 1:-0.997078 2:-1 3:-0.999999 4:-1 5:-0.998261 6:-0.995009 7:-0.0338219 8:-0.913559 9:-0.976728 10:-0.99904 11:-1 12:-0.998525 13:-0.644415 14:1 
11.38238441075352 1:-0.966772 2:-0.999961 3:-0.999989 4:-0.999987 5:-0.998261 6:-0.995009 7:-0.0338219 8:-0.911888 9:-0.628118 10:-0.993583 11:-1 12:-1 13:-0.852613 14:0.349216 
32768 1:-0.992916 2:-0.99992 3:-0.999998 4:-0.999999 5:-0.998261 6:-0.995009 7:-0.0338219 8:-0.921886 9:-0.997028 10:-0.97861 11:-1 12:-1 13:-0.67679 14:1 
32527.27106165819 1:-0.972753 2:-0.999357 3:-0.999992 4:-0.999991 5:-0.998261 6:-0.995009 7:-0.0338219 8:-0.81341 9:-0.734694 10:-0.99308 11:-1 12:-1 13:0.258001 14:1 
7802.311471981415 1:-0.992191 2:-0.999998 3:-0.999999 4:-1 5:-0.998261 6:-0.995009 7:-0.0338219 8:-0.878352 9:-0.946778 10:-1 11:-1 12:-0.999017 13:-0.744411 14:1 
23897.12712701084 1:-0.940724 2:-0.997491 3:-0.999999 4:-0.999997 5:-0.998261 6:-0.995009 7:-0.0338219 8:-1 9:-1 10:-0.932026 11:-1 12:-1 13:-0.490023 14:1 
32768 1:-0.976775 2:-0.999625 3:-0.999884 4:-0.999947 5:-0.998261 6:-0.995008 7:-0.0338219 8:-0.898862 9:-0.628318 10:-0.998762 11:-1 12:-1 13:0.0582041 14:1 
32768 1:-0.975616 2:-0.999625 3:-0.999733 4:-0.999917 5:-0.998261 6:-0.995009 7:-0.0338219 8:-0.884754 9:-0.647058 10:-0.984314 11:-1 12:-1 13:0.0441235 14:1 
32768 1:-0.987862 2:-0.999989 3:-0.999997 4:-0.999999 5:-0.998261 6:-0.995009 7:-0.0338219 8:-0.977872 9:-0.953534 10:-0.997199 11:-1 12:-0.999017 13:-0.553606 14:1 
32768 1:-0.993211 2:-0.999927 3:-1 4:-1 5:-0.998261 6:-0.995009 7:-0.0338219 8:-0.989179 9:-1 10:-0.976471 11:-1 12:-0.999017 13:-0.279087 14:1 
11955.19696487595 1:-0.991465 2:-0.999999 3:-1 4:-1 5:-0.998261 6:-0.995009 7:-0.0338219 8:-0.98259 9:-0.978238 10:-1 11:-1 12:-0.999508 13:0.0881852 14:1 
32768 1:-0.995478 2:-0.99997 3:-1 4:-1 5:-0.998261 6:-0.995009 7:-0.0338219 8:-0.997623 9:-0.991684 10:-0.989804 11:-1 12:-0.999508 13:-0.0704209 14:1 
32768 1:-0.961231 2:-0.99899 3:-0.999572 4:-0.99943 5:-0.99826 6:-0.994993 7:-0.0338219 8:-0.912647 9:-0.757962 10:-0.958371 11:-1 12:-1 13:-0.453222 14:1 
32768 1:-0.953144 2:-0.998345 3:-0.999977 4:-0.999962 5:-0.998261 6:-0.995008 7:-0.0338219 8:-1 9:-0.93464 10:-0.934641 11:-1 12:-1 13:-0.544199 14:1 
32768 1:-0.969673 2:-0.99916 3:-0.999994 4:-0.999997 5:-0.998261 6:-0.995009 7:-0.0338219 8:-1 9:-0.955156 10:-0.926797 11:-1 12:-1 13:-0.563844 14:1 
32768 1:-0.988685 2:-0.999849 3:-0.999999 4:-1 5:-0.998261 6:-0.995009 7:-0.0338219 8:-0.957671 9:-0.80247 10:-0.995294 11:-1 12:-1 13:-0.194258 14:1 
32768 1:-0.993996 2:-0.999997 3:-0.999999 4:-1 5:-0.998261 6:-0.995009 7:-0.0338219 8:-0.748361 9:-0.80734 10:-0.998824 11:-1 12:-1 13:-0.583216 14:1 
32768 1:-0.977853 2:-0.999661 3:-0.999927 4:-0.999979 5:-0.998261 6:-0.995009 7:-0.0338219 8:-0.898974 9:-0.812154 10:-0.977591 11:-1 12:-1 13:-0.525418 14:1 
20248.39271456764 1:-0.949609 2:-0.998077 3:-1 4:-1 5:-0.998261 6:-0.995009 7:-0.0338219 8:-1 9:-1 10:-0.811765 11:-1 12:-1 13:-0.78402 14:1 
32768 1:-0.989457 2:-0.999985 3:-0.999996 4:-0.999998 5:-0.998261 6:-0.995009 7:-0.0338219 8:-0.8028 9:-0.843138 10:-0.996639 11:-1 12:-0.999508 13:-0.748748 14:1 
21908.97507952825 1:-0.946411 2:-0.998727 3:-0.998474 4:-0.999332 5:-0.99826 6:-0.995001 7:-0.0338223 8:-0.919328 9:0.788236 10:-0.994118 11:-1 12:-1 13:0.136823 14:1 
32768 1:-0.992436 2:-1 3:-0.999994 4:-0.999999 5:-0.998261 6:-0.995009 7:-0.0338219 8:-0.858128 9:-0.855172 10:-0.998039 11:-1 12:-0.999508 13:-0.266896 14:1 
32768 1:-0.972593 2:-0.999841 3:-0.999921 4:-0.999897 5:-0.998261 6:-0.995009 7:-0.0338219 8:-0.761904 9:0.013888 10:-0.986928 11:-1 12:-1 13:-0.584259 14:1 
32768 1:-0.976467 2:-0.999524 3:-0.999895 4:-0.999889 5:-0.998261 6:-0.995007 7:-0.0338219 8:-0.97619 9:-0.986112 10:-0.957983 11:-1 12:-1 13:-0.509986 14:1 
752.5006375868862 1:-0.983714 2:-0.999973 3:-1 4:-1 5:-0.998261 6:-0.995009 7:-0.0338219 8:-1 9:-1 10:-0.997861 11:-1 12:-0.999508 13:0.0585487 14:0.684849 
32768 1:-0.994106 2:-0.99996 3:-0.999999 4:-1 5:-0.998261 6:-0.995009 7:-0.0338219 8:-1 9:-1 10:-0.983333 11:-1 12:-0.999508 13:-0.377201 14:1 
32768 1:-0.973672 2:-0.999828 3:-0.999993 4:-0.999998 5:-0.998261 6:-0.995009 7:-0.0338219 8:-0.591838 9:0.785714 10:-0.991597 11:-1 12:-1 13:-0.583084 14:1 
32768 1:-0.978936 2:-0.999593 3:-0.999985 4:-0.999996 5:-0.998261 6:-0.995009 7:-0.0338219 8:-0.963719 9:-0.666666 10:-0.988235 11:-1 12:-1 13:-0.209319 14:1 
32768 1:-0.992096 2:-0.999967 3:-0.999998 4:-0.999999 5:-0.998261 6:-0.995009 7:-0.0338219 8:-0.945577 9:-0.959184 10:-0.990311 11:-1 12:-0.999508 13:-0.52488 14:1 
18870.42976433435 1:-0.951017 2:-0.999147 3:-0.999683 4:-0.999738 5:-0.998261 6:-0.995013 7:-0.0338219 8:-0.916882 9:0.50909 10:-0.992941 11:-1 12:-0.999508 13:-0.432278 14:1 
39.64993545798974 1:-0.978968 2:-0.999951 3:-0.999995 4:-0.999999 5:-0.998261 6:-0.995009 7:-0.0338219 8:-0.970411 9:-0.728156 10:-1 11:-1 12:-1 13:-0.740647 14:0.189611 
32768 1:-0.974942 2:-0.999356 3:-1 4:-1 5:-0.998261 6:-0.995009 7:-0.0338219 8:-1 9:-1 10:-0.898039 11:-1 12:-1 13:-0.645396 14:1 
32768 1:-0.99344 2:-0.99998 3:-1 4:-1 5:-0.998261 6:-0.995009 7:-0.0338219 8:-1 9:-1 10:-0.988235 11:-1 12:-0.999017 13:-0.261031 14:1 
641.115021808935 1:-0.991171 2:-0.99999 3:-0.999999 4:-1 5:-0.998261 6:-0.995009 7:-0.0338219 8:-0.822222 9:-0.996296 10:-0.999216 11:-1 12:-0.999508 13:-0.829398 14:1 
32768 1:-0.986856 2:-0.999881 3:-0.999925 4:-0.999987 5:-0.998261 6:-0.995009 7:-0.0338219 8:-0.944757 9:-0.848942 10:-0.991529 11:-1 12:-1 13:-0.391643 14:1 
32768 1:-0.987962 2:-0.999952 3:-0.999996 4:-0.999999 5:-0.998261 6:-0.995009 7:-0.0338219 8:-0.993374 9:-0.962318 10:-0.988235 11:-1 12:-0.999017 13:-0.23347 14:1 
32768 1:-0.993976 2:-0.999955 3:-0.999998 4:-1 5:-0.998261 6:-0.995009 7:-0.0338219 8:-0.997863 9:-1 10:-0.980995 11:-1 12:-0.999508 13:-0.373446 14:1 
32768 1:-0.986509 2:-0.99976 3:-0.999992 4:-0.999994 5:-0.998261 6:-0.995009 7:-0.0338219 8:-0.995353 9:-0.979674 10:-0.994296 11:-1 12:-1 13:0.340444 14:1 
5801.456374576809 1:-0.957831 2:-0.998677 3:-0.999768 4:-0.999702 5:-0.99826 6:-0.995 7:-0.0338219 8:-0.81341 9:-0.061224 10:-0.992157 11:-1 12:-1 13:0.249335 14:1 
32768 1:-0.991364 2:-0.999997 3:-1 4:-1 5:-0.998261 6:-0.995009 7:-0.0338219 8:-0.993403 9:-0.994228 10:-0.996639 11:-1 12:-0.999508 13:0.0833002 14:1 
32768 1:-0.992211 2:-1 3:-0.999995 4:-0.999999 5:-0.998261 6:-0.995009 7:-0.0338219 8:-0.880953 9:-0.854166 10:-0.995908 11:-1 12:-0.999508 13:-0.334941 14:1 
32768 1:-0.967256 2:-0.999139 3:-0.999924 4:-0.999929 5:-0.998261 6:-0.995007 7:-0.0338219 8:-0.945577 9:-0.869048 10:-0.964706 11:-1 12:-1 13:-0.398746 14:1 
32768 1:-0.991082 2:-0.999885 3:-0.999995 4:-0.999995 5:-0.998261 6:-0.995009 7:-0.0338219 8:-1 9:-0.979382 10:-0.98009 11:-1 12:-1 13:-0.416148 14:1 
32768 1:-0.988361 2:-0.999964 3:-0.999983 4:-0.999988 5:-0.998261 6:-0.995009 7:-0.0338219 8:-0.986807 9:-0.959596 10:-0.984615 11:-1 12:-0.999508 13:-0.314783 14:1 
4485.276763839662 1:-0.882301 2:-0.995337 3:-0.99476 4:-0.994019 5:-0.998247 6:-0.994916 7:-0.0338402 8:-0.929015 9:0.453416 10:-0.995425 11:-1 12:-1 13:-0.215353 14:1 
16408.59120523353 1:-0.983861 2:-0.99992 3:-0.999999 4:-1 5:-0.998261 6:-0.995009 7:-0.0338219 8:-0.815127 9:-0.117648 10:-0.997386 11:-1 12:-1 13:-0.592041 14:1 
32768 1:-0.991534 2:-0.999962 3:-0.999946 4:-0.999998 5:-0.998261 6:-0.995009 7:-0.0338219 8:-1 9:-0.985294 10:-0.99276 11:-1 12:-0.999508 13:-0.0895897 14:1 
32768 1:-0.953121 2:-0.998307 3:-0.999998 4:-0.999997 5:-0.998261 6:-0.995009 7:-0.0338219 8:-0.912759 9:-0.91603 10:-0.900654 11:-1 12:-1 13:-0.638523 14:1 
32768 1:-0.9723 2:-0.99996 3:-0.999572 4:-0.999971 5:-0.998261 6:-0.995009 7:-0.0338219 8:-0.485714 9:0.55 10:-1 11:-1 12:-0.999508 13:-0.529455 14:1 
32768 1:-0.980289 2:-0.999555 3:-1 4:-1 5:-0.998261 6:-0.995009 7:-0.0338219 8:-1 9:-1 10:-0.917647 11:-1 12:-1 13:-0.658398 14:1 
32768 1:-0.981751 2:-0.9996 3:-1 4:-1 5:-0.998261 6:-0.995009 7:-0.0338219 8:-1 9:-1 10:-0.922689 11:-1 12:-1 13:-0.633603 14:1 
32768 1:-0.972392 2:-0.999844 3:-0.999993 4:-1 5:-0.998261 6:-0.995009 7:-0.0338219 8:-0.828571 9:1 10:-0.998529 11:-1 12:-1 13:-0.443487 14:1 
32768 1:-0.98737 2:-0.999762 3:-1 4:-1 5:-0.998261 6:-0.995009 7:-0.0338219 8:-1 9:-0.97619 10:-0.981513 11:-1 12:-1 13:0.0480809 14:1 
12700.49588964299 1:-0.950784 2:-0.998423 3:-0.99999 4:-0.999993 5:-0.998261 6:-0.995009 7:-0.0338219 8:-1 9:-0.305264 10:-0.997954 11:-1 12:-1 13:0.119315 14:1 
32768 1:-0.985109 2:-0.999701 3:-1 4:-1 5:-0.998261 6:-0.995009 7:-0.0338219 8:-1 9:-0.980392 10:-0.968627 11:-1 12:-1 13:-0.287558 14:1 
32768 1:-0.992724 2:-0.999946 3:-0.999993 4:-0.999999 5:-0.998261 6:-0.995009 7:-0.0338219 8:-0.991417 9:-0.994994 10:-0.985714 11:-1 12:-0.999017 13:-0.199099 14:1 
32768 1:-0.995312 2:-0.999966 3:-1 4:-1 5:-0.998261 6:-0.995009 7:-0.0338219 8:-1 9:-1 10:-0.984 11:-1 12:-0.999508 13:-0.378676 14:1 
32768 1:-0.986471 2:-0.999991 3:-0.999982 4:-0.999993 5:-0.998261 6:-0.995009 7:-0.0338219 8:-0.982683 9:-0.878788 10:-0.992839 11:-1 12:-0.999508 13:-0.242692 14:1 
32768 1:-0.981751 2:-0.9996 3:-1 4:-1 5:-0.998261 6:-0.995009 7:-0.0338219 8:-1 9:-1 10:-0.922689 11:-1 12:-1 13:-0.633603 14:1 
32768 1:-0.990763 2:-0.999943 3:-0.999967 4:-0.999993 5:-0.998261 6:-0.995009 7:-0.0338219 8:-1 9:-0.985258 10:-0.996078 11:-1 12:-0.999508 13:-0.052957 14:1 
32768 1:-0.984798 2:-0.999692 3:-1 4:-1 5:-0.998261 6:-0.995009 7:-0.0338219 8:-1 9:-1 10:-0.93369 11:-1 12:-1 13:-0.61992 14:1 
22936.90200082491 1:-0.993412 2:-0.99998 3:-1 4:-1 5:-0.998261 6:-0.995009 7:-0.0338219 8:-1 9:-1 10:-0.988235 11:-1 12:-0.999017 13:-0.261031 14:1 
32768 1:-0.994013 2:-0.99996 3:-1 4:-1 5:-0.998261 6:-0.995009 7:-0.0338219 8:-0.997513 9:-0.991294 10:-0.991651 11:-1 12:-0.999508 13:0.0114306 14:1 
10323.87166011785 1:-0.957633 2:-0.999314 3:-0.999928 4:-0.999949 5:-0.998261 6:-0.99501 7:-0.0338219 8:-0.951367 9:-0.03546 10:-0.974661 11:-1 12:-1 13:-0.689342 14:1 
32768 1:-0.990727 2:-0.999987 3:-0.999999 4:-1 5:-0.998261 6:-0.995009 7:-0.0338219 8:-0.810402 9:-0.834102 10:-0.991765 11:-1 12:-1 13:-0.494589 14:1 
32768 1:-0.980979 2:-0.999899 3:-0.999975 4:-0.999968 5:-0.998261 6:-0.995009 7:-0.0338219 8:-0.894302 9:-0.49133 10:-0.994885 11:-1 12:-1 13:-0.419849 14:1 
32768 1:-0.994023 2:-0.999966 3:-0.999994 4:-0.999999 5:-0.998261 6:-0.995009 7:-0.0338219 8:-0.986633 9:-0.985964 10:-1 11:-1 12:-0.999508 13:0.155885 14:1 
32768 1:-0.953998 2:-0.998366 3:-0.999986 4:-0.99998 5:-0.998261 6:-0.995008 7:-0.0338219 8:-0.967346 9:-0.942858 10:-0.934641 11:-1 12:-1 13:-0.460536 14:1 
32768 1:-0.990107 2:-0.999827 3:-1 4:-1 5:-0.998261 6:-0.995009 7:-0.0338219 8:-1 9:-1 10:-0.952941 11:-1 12:-1 13:-0.531955 14:1 
32768 1:-0.968724 2:-0.999306 3:-0.999909 4:-0.999968 5:-0.998261 6:-0.995009 7:-0.0338219 8:-0.836734 9:-0.2 10:-0.980749 11:-1 12:-1 13:-0.0937591 14:1 
32768 1:-0.968712 2:-0.999818 3:-0.99976 4:-0.999996 5:-0.998261 6:-0.995009 7:-0.0338219 8:-0.824176 9:-0.025642 10:-0.988796 11:-1 12:-0.999508 13:-0.584815 14:1 
32768 1:-0.991383 2:-0.999916 3:-0.99997 4:-0.999992 5:-0.998261 6:-0.995009 7:-0.0338219 8:-0.977808 9:-0.990292 10:-0.983193 11:-1 12:-1 13:-0.388773 14:1 
32768 1:-0.95641 2:-0.998491 3:-1 4:-1 5:-0.998261 6:-0.995009 7:-0.0338219 8:-1 9:-1 10:-0.835294 11:-1 12:-1 13:-0.776971 14:1 
32768 1:-0.991492 2:-0.999963 3:-0.99999 4:-0.999998 5:-0.998261 6:-0.995009 7:-0.0338219 8:-0.834446 9:-0.906542 10:-0.994771 11:-1 12:-0.999508 13:-0.627287 14:1 
32768 1:-0.99378 2:-0.999981 3:-0.999996 4:-1 5:-0.998261 6:-0.995009 7:-0.0338219 8:-0.890354 9:-0.90406 10:-0.997059 11:-1 12:-0.999017 13:-0.547599 14:1 
32768 1:-0.970986 2:-0.999447 3:-0.999706 4:-0.999918 5:-0.998261 6:-0.99501 7:-0.0338219 8:-0.834921 9:-0.766666 10:-0.971765 11:-1 12:-0.999508 13:-0.293476 14:1 
32768 1:-0.995417 2:-0.999999 3:-0.999997 4:-0.999999 5:-0.998261 6:-0.995009 7:-0.0338219 8:-0.815296 9:-0.973064 10:-0.99893 11:-1 12:-0.999017 13:-0.313785 14:1 
24504.80982225025 1:-0.971953 2:-0.999355 3:-0.999996 4:-0.99998 5:-0.998261 6:-0.995009 7:-0.0338219 8:-0.852535 9:-0.193548 10:-0.994958 11:-1 12:-1 13:0.179648 14:1 
32768 1:-0.99278 2:-0.999981 3:-0.999996 4:-0.999998 5:-0.998261 6:-0.995009 7:-0.0338219 8:-0.989634 9:-0.97279 10:-0.992513 11:-1 12:-0.999017 13:-0.387713 14:1 
32768 1:-0.939519 2:-0.998035 3:-0.998977 4:-0.999705 5:-0.998261 6:-0.99502 7:-0.0338219 8:-0.931429 9:-0.3 10:-0.962745 11:-1 12:-1 13:-0.395539 14:1 
32768 1:-0.989428 2:-0.999872 3:-0.999954 4:-0.999988 5:-0.998261 6:-0.995009 7:-0.0338219 8:-0.923943 9:-0.964974 10:-0.98371 11:-1 12:-1 13:-0.423312 14:1 
32768 1:-0.987378 2:-0.999761 3:-1 4:-1 5:-0.998261 6:-0.995009 7:-0.0338219 8:-1 9:-1 10:-0.942857 11:-1 12:-1 13:-0.571026 14:1 
32768 1:-0.980494 2:-0.999974 3:-0.999722 4:-0.999958 5:-0.998261 6:-0.995009 7:-0.0338219 8:-0.867769 9:-0.809918 10:-0.991176 11:-1 12:-0.999508 13:-0.268619 14:1 
32768 1:-0.987622 2:-0.9998 3:-0.999973 4:-0.999981 5:-0.998261 6:-0.995009 7:-0.0338219 8:-0.994094 9:-0.979328 10:-0.978824 11:-1 12:-0.999508 13:-0.201475 14:1 
625.6688742876664 1:-0.987733 2:-0.999988 3:-0.999997 4:-1 5:-0.998261 6:-0.995009 7:-0.0338219 8:-0.997781 9:-0.957282 10:-0.998852 11:-1 12:-0.999508 13:-0.602624 14:0.786668 
14663.52294619465 1:-0.971244 2:-0.999633 3:-0.999942 4:-0.999956 5:-0.998261 6:-0.995009 7:-0.0338219 8:-0.863541 9:-0.559702 10:-0.990045 11:-1 12:-0.999508 13:-0.700049 14:1 
32768 1:-0.980214 2:-0.999582 3:-0.999997 4:-0.999999 5:-0.998261 6:-0.995009 7:-0.0338219 8:-0.969525 9:-0.813334 10:-0.987059 11:-1 12:-1 13:-0.197668 14:1 
32768 1:-0.985961 2:-0.999949 3:-0.999969 4:-0.999997 5:-0.998261 6:-0.995009 7:-0.0338219 8:-0.900622 9:-0.913044 10:-0.980392 11:-1 12:-0.999508 13:-0.665359 14:1 
1082.025036476174 1:-0.991171 2:-0.99999 3:-0.999999 4:-1 5:-0.998261 6:-0.995009 7:-0.0338219 8:-0.822222 9:-0.996296 10:-0.999216 11:-1 12:-0.999508 13:-0.829398 14:1 
15126.686087688 1:-0.971581 2:-0.999263 3:-0.999999 4:-1 5:-0.998261 6:-0.995009 7:-0.0338219 8:-1 9:-0.777778 10:-0.955882 11:-1 12:-1 13:-0.454786 14:1 
32768 1:-0.993614 2:-1 3:-0.999998 4:-0.999999 5:-0.998261 6:-0.995009 7:-0.0338219 8:-0.994192 9:-0.989834 10:-1 11:-1 12:-0.999508 13:-0.526496 14:1 
32768 1:-0.984769 2:-0.999706 3:-0.999992 4:-0.999994 5:-0.998261 6:-0.995009 7:-0.0338219 8:-1 9:-1 10:-0.957647 11:-1 12:-1 13:-0.552255 14:1 
32768 1:-0.932765 2:-0.997981 3:-0.997736 4:-0.999234 5:-0.998261 6:-0.995015 7:-0.0338225 8:-1 9:-1 10:-0.980563 11:-1 12:-1 13:-0.466057 14:1 
32768 1:-0.969633 2:-0.999267 3:-0.999869 4:-0.999856 5:-0.998261 6:-0.995005 7:-0.0338219 8:-0.989886 9:-0.946902 10:-0.959664 11:-1 12:-1 13:-0.456959 14:1 
32768 1:-0.972689 2:-0.999964 3:-0.999989 4:-0.999999 5:-0.998261 6:-0.995009 7:-0.0338219 8:-0.690475 9:0.5625 10:-0.997386 11:-1 12:-1 13:-0.667126 14:1 
32768 1:-0.976522 2:-0.999979 3:-0.999983 4:-0.999989 5:-0.998261 6:-0.995009 7:-0.0338219 8:-0.617323 9:0.085972 10:-0.993665 11:-1 12:-0.999017 13:-0.679776 14:1 
32768 1:-0.992765 2:-0.999947 3:-0.999994 4:-0.999999 5:-0.998261 6:-0.995009 7:-0.0338219 8:-0.991449 9:-0.987532 10:-0.990588 11:-1 12:-0.999508 13:-0.212826 14:1 
32768 1:-0.953348 2:-0.998499 3:-0.999742 4:-0.999893 5:-0.998261 6:-0.995009 7:-0.0338219 8:-0.972544 9:-0.96997 10:-0.948529 11:-1 12:-1 13:-0.476498 14:1 
32768 1:-0.989013 2:-0.999869 3:-0.999946 4:-0.999985 5:-0.998261 6:-0.995009 7:-0.0338219 8:-0.945671 9:-0.949066 10:-0.982805 11:-1 12:-1 13:-0.469476 14:1 
32768 1:-0.978137 2:-0.999765 3:-0.999959 4:-0.999981 5:-0.998261 6:-0.995009 7:-0.0338219 8:-0.882027 9:-0.496774 10:-0.983824 11:-1 12:-1 13:-0.59811 14:1 
32768 1:-0.992575 2:-0.999946 3:-0.999993 4:-0.999999 5:-0.998261 6:-0.995009 7:-0.0338219 8:-0.991449 9:-0.98005 10:-0.989374 11:-1 12:-0.999017 13:-0.0964003 14:1 
32768 1:-0.994198 2:-0.999959 3:-1 4:-1 5:-0.998261 6:-0.995009 7:-0.0338219 8:-0.997513 9:-0.989118 10:-0.986928 11:-1 12:-0.999508 13:-0.120648 14:1 
32768 1:-0.994623 2:-0.999991 3:-0.999988 4:-1 5:-0.998261 6:-0.995009 7:-0.0338219 8:-0.963719 9:-0.95238 10:-0.998039 11:-1 12:-0.999508 13:0.022181 14:1 
32768 1:-0.989346 2:-0.999946 3:-0.999999 4:-1 5:-0.998261 6:-0.995009 7:-0.0338219 8:-0.965314 9:-0.948406 10:-0.998574 11:-1 12:-0.999017 13:0.0721788 14:1 
32768 1:-0.982569 2:-0.999854 3:-0.999998 4:-0.999999 5:-0.998261 6:-0.995009 7:-0.0338219 8:-0.979259 9:-0.894736 10:-0.978517 11:-1 12:-1 13:-0.774657 14:1 
29783.83865762515 1:-0.980289 2:-0.999555 3:-1 4:-1 5:-0.998261 6:-0.995009 7:-0.0338219 8:-1 9:-1 10:-0.917647 11:-1 12:-1 13:-0.658398 14:1 
4046.451004715731 1:-0.955566 2:-0.999775 3:-0.999991 4:-0.999974 5:-0.998261 6:-0.995009 7:-0.0338219 8:-1 9:1 10:-0.995722 11:-1 12:-1 13:-0.84529 14:1 
11401.62844749679 1:-0.954804 2:-0.99992 3:-0.999995 4:-0.999964 5:-0.998261 6:-0.995009 7:-0.0338219 8:-0.88357 9:-0.088472 10:-0.995425 11:-1 12:-0.999508 13:-0.843832 14:1 
32768 1:-0.995718 2:-0.999986 3:-1 4:-1 5:-0.998261 6:-0.995009 7:-0.0338219 8:-0.971518 9:-0.997924 10:-0.987395 11:-1 12:-0.999508 13:-0.704757 14:1 
12220.30985512505 1:-0.91982 2:-0.999739 3:-0.999993 4:-0.999991 5:-0.998261 6:-0.995009 7:-0.0338219 8:-1 9:-0.995768 10:-0.996435 11:-1 12:-0.999508 13:0.141222 14:1 
32768 1:-0.987345 2:-0.999954 3:-0.999919 4:-0.999999 5:-0.998261 6:-0.995009 7:-0.0338219 8:-0.963527 9:-0.861702 10:-0.990311 11:-1 12:-0.999508 13:-0.184797 14:1 
32768 1:-0.956793 2:-0.998639 3:-0.999679 4:-0.999589 5:-0.99826 6:-0.994997 7:-0.0338219 8:-0.90184 9:-0.82822 10:-0.95098 11:-1 12:-1 13:-0.517027 14:1 
4.831464215568025 1:-0.970279 2:-0.999857 3:-0.999987 4:-1 5:-0.998261 6:-0.995009 7:-0.0338219 8:-0.845906 9:1 10:-1 11:-1 12:-1 13:-0.667515 14:0.48642 
32768 1:-0.974483 2:-0.999733 3:-0.999882 4:-0.999959 5:-0.998261 6:-0.995009 7:-0.0338219 8:-0.807744 9:-0.383178 10:-0.993028 11:-1 12:-0.999508 13:-0.547281 14:1 
32768 1:-0.993306 2:-0.999956 3:-0.999996 4:-0.999999 5:-0.998261 6:-0.995009 7:-0.0338219 8:-0.988398 9:-1 10:-0.980749 11:-1 12:-0.999508 13:-0.444318 14:1 
32768 1:-0.997486 2:-1 3:-0.999998 4:-1 5:-0.998261 6:-0.995009 7:-0.0338219 8:-0.920841 9:-0.967532 10:-0.999397 11:-1 12:-0.998033 13:-0.557025 14:1 
32768 1:-0.953897 2:-0.998348 3:-1 4:-1 5:-0.998261 6:-0.995009 7:-0.0338219 8:-1 9:-0.912408 10:-0.950802 11:-1 12:-1 13:-0.318263 14:1 
32768 1:-0.996114 2:-0.999982 3:-1 4:-1 5:-0.998261 6:-0.995009 7:-0.0338219 8:-0.959001 9:-1 10:-0.98977 11:-1 12:-0.999508 13:-0.596493 14:1 
32768 1:-0.989838 2:-0.99993 3:-0.999962 4:-0.999997 5:-0.998261 6:-0.995009 7:-0.0338219 8:-1 9:-0.957446 10:-0.992157 11:-1 12:-0.999017 13:-0.276057 14:1 
32768 1:-0.987141 2:-0.999757 3:-1 4:-1 5:-0.998261 6:-0.995009 7:-0.0338219 8:-1 9:-0.988024 10:-0.95817 11:-1 12:-1 13:-0.421351 14:1 
32768 1:-0.986639 2:-0.999985 3:-0.999851 4:-0.999987 5:-0.998261 6:-0.995009 7:-0.0338219 8:-0.890505 9:-0.82036 10:-0.997759 11:-1 12:-0.999508 13:-0.392845 14:1 
3064.460556932682 1:-0.974884 2:-0.999364 3:-1 4:-1 5:-0.998261 6:-0.995009 7:-0.0338219 8:-1 9:-0.958116 10:-0.989916 11:-1 12:-1 13:0.435564 14:1 
32768 1:-0.95922 2:-0.999534 3:-0.998689 4:-0.999933 5:-0.998261 6:-0.995009 7:-0.0338219 8:-0.950846 9:0.741936 10:-0.987543 11:-1 12:-1 13:-0.336204 14:1 
32768 1:-0.989046 2:-0.999963 3:-0.99998 4:-0.999997 5:-0.998261 6:-0.995009 7:-0.0338219 8:-0.995307 9:-0.971252 10:-0.987724 11:-1 12:-0.999508 13:-0.134279 14:1 
32768 1:-0.979782 2:-0.999955 3:-0.999995 4:-0.999994 5:-0.998261 6:-0.995009 7:-0.0338219 8:-0.791019 9:-0.405714 10:-0.997386 11:-1 12:-0.999508 13:-0.489484 14:1 
32768 1:-0.97907 2:-0.999516 3:-0.999999 4:-1 5:-0.998261 6:-0.995009 7:-0.0338219 8:-0.993525 9:-0.977338 10:-0.968166 11:-1 12:-1 13:-0.317671 14:1 
310.6616935197059 1:-0.965417 2:-0.998958 3:-1 4:-0.999999 5:-0.998261 6:-0.995009 7:-0.0338219 8:-1 9:0.37931 10:-0.99276 11:-1 12:-1 13:0.676578 14:1 
32768 1:-0.994713 2:-1 3:-0.999999 4:-0.999998 5:-0.998261 6:-0.995009 7:-0.0338219 8:-1 9:-0.987916 10:-1 11:-1 12:-0.999508 13:-0.541761 14:1 
32768 1:-0.990685 2:-0.999943 3:-0.999967 4:-0.999993 5:-0.998261 6:-0.995009 7:-0.0338219 8:-0.969225 9:-0.95104 10:-0.990133 11:-1 12:-0.999508 13:-0.146849 14:1 
15058.39879675041 1:-0.981914 2:-0.999966 3:-0.999997 4:-0.999985 5:-0.998261 6:-0.995009 7:-0.0338219 8:-0.849294 9:-0.21978 10:-0.997954 11:-1 12:-0.999508 13:-0.621351 14:1 
32768 1:-0.994067 2:-0.999966 3:-0.999994 4:-0.999999 5:-0.998261 6:-0.995009 7:-0.0338219 8:-0.983922 9:-0.988276 10:-0.994464 11:-1 12:-0.999508 13:-0.150612 14:1 
32768 1:-0.971426 2:-0.999228 3:-1 4:-1 5:-0.998261 6:-0.995009 7:-0.0338219 8:-1 9:-0.961904 10:-0.938824 11:-1 12:-1 13:-0.489484 14:1 
32768 1:-0.982858 2:-0.999733 3:-0.999909 4:-0.999976 5:-0.998261 6:-0.995009 7:-0.0338219 8:-0.932274 9:-0.807408 10:-0.99085 11:-1 12:-1 13:0.255386 14:1 
32768 1:-0.996453 2:-0.999985 3:-1 4:-1 5:-0.998261 6:-0.995009 7:-0.0338219 8:-0.993385 9:-0.988422 10:-0.997723 11:-1 12:-0.999508 13:0.276472 14:1 
32768 1:-0.989866 2:-0.999999 3:-0.999992 4:-0.999999 5:-0.998261 6:-0.995009 7:-0.0338219 8:-0.906976 9:-0.939534 10:-0.998396 11:-1 12:-0.999017 13:-0.752052 14:1 
32768 1:-0.989722 2:-0.999944 3:-1 4:-1 5:-0.998261 6:-0.995009 7:-0.0338219 8:-0.97016 9:-0.963446 10:-0.992157 11:-1 12:-0.999017 13:0.0181971 14:1 
32768 1:-0.986238 2:-0.99998 3:-1 4:-1 5:-0.998261 6:-0.995009 7:-0.0338219 8:-0.862167 9:-0.557788 10:-0.995046 11:-1 12:-1 13:-0.681224 14:1 
1597.272483507161 1:-0.993476 2:-0.999999 3:-0.999999 4:-1 5:-0.998261 6:-0.995009 7:-0.0338219 8:-0.958165 9:-0.963394 10:-0.997566 11:-1 12:-0.999508 13:-0.534499 14:1 
32768 1:-0.99562 2:-1 3:-1 4:-1 5:-0.998261 6:-0.995009 7:-0.0338219 8:-0.995239 9:-1 10:-0.998574 11:-1 12:-1 13:-0.837967 14:1 
29719.60693119736 1:-0.964153 2:-0.999606 3:-0.998955 4:-0.999755 5:-0.998261 6:-0.995013 7:-0.0338219 8:-0.974318 9:0.483146 10:-0.989706 11:-1 12:-1 13:0.190018 14:1 
5964.521793527286 1:-0.971784 2:-0.999797 3:-0.999996 4:-0.999999 5:-0.998261 6:-0.995009 7:-0.0338219 8:-0.944923 9:1 10:-0.995294 11:-1 12:-1 13:-0.511223 14:1 
32768 1:-0.957096 2:-0.998532 3:-0.999999 4:-0.999999 5:-0.998261 6:-0.995009 7:-0.0338219 8:-1 9:-0.890624 10:-0.982007 11:-1 12:-1 13:0.159799 14:1 
32768 1:-0.988361 2:-0.999964 3:-0.999983 4:-0.999988 5:-0.998261 6:-0.995009 7:-0.0338219 8:-0.986807 9:-0.959596 10:-0.984615 11:-1 12:-0.999508 13:-0.314783 14:1 
8673.999898632062 1:-0.980821 2:-0.999883 3:-0.999917 4:-0.999985 5:-0.998261 6:-0.995009 7:-0.0338219 8:-0.969525 9:-0.866666 10:-0.99888 11:-1 12:-0.999508 13:0.160205 14:1 
1859.281548646801 1:-0.988055 2:-0.999985 3:-0.999997 4:-1 5:-0.998261 6:-0.995009 7:-0.0338219 8:-0.988178 9:-0.972414 10:-0.997587 11:-1 12:-0.999017 13:-0.335877 14:0.812613 
2822.501055097581 1:-0.970522 2:-0.99919 3:-0.999999 4:-0.999998 5:-0.998261 6:-0.995009 7:-0.0338219 8:-1 9:-0.941748 10:-0.984706 11:-1 12:-1 13:0.212376 14:1 
32768 1:-0.961051 2:-0.998953 3:-0.999713 4:-0.999671 5:-0.99826 6:-0.994999 7:-0.0338219 8:-0.953824 9:-0.49495 10:-0.965775 11:-1 12:-1 13:-0.371662 14:1 
18521.34857457614 1:-0.977751 2:-0.999958 3:-0.999997 4:-0.99996 5:-0.998261 6:-0.995009 7:-0.0338219 8:-0.933746 9:-0.10145 10:-0.995294 11:-1 12:-1 13:-0.332786 14:1 
32768 1:-0.938989 2:-0.998244 3:-0.997596 4:-0.996458 5:-0.998253 6:-0.994878 7:-0.0338219 8:-0.935431 9:-0.845574 10:-0.993981 11:-0.999711 12:-0.999017 13:-0.169339 14:1 
15715.24075267821 1:-0.983798 2:-0.999965 3:-1 4:-0.999997 5:-0.998261 6:-0.995009 7:-0.0338219 8:-0.92317 9:-0.728292 10:-0.985294 11:-1 12:-0.999508 13:-0.831218 14:1 
32768 1:-0.994717 2:-0.999959 3:-1 4:-1 5:-0.998261 6:-0.995009 7:-0.0338219 8:-0.997563 9:-0.991472 10:-0.988641 11:-1 12:-0.998525 13:-0.221068 14:1 
32768 1:-0.993789 2:-0.999982 3:-0.999999 4:-1 5:-0.998261 6:-0.995009 7:-0.0338219 8:-0.977765 9:-0.980544 10:-0.994118 11:-1 12:-0.998525 13:-0.110799 14:1 
32768 1:-0.989947 2:-0.999999 3:-0.999998 4:-0.999998 5:-0.998261 6:-0.995009 7:-0.0338219 8:-0.987577 9:-0.975544 10:-0.996639 11:-1 12:-0.999508 13:-0.60371 14:1 
32768 1:-0.944392 2:-0.998587 3:-0.998774 4:-0.999381 5:-0.99826 6:-0.994996 7:-0.0338222 8:-0.721739 9:-0.095652 10:-0.977941 11:-1 12:-1 13:-0.419778 14:1 
